//Numpy array shape [256]
//Min -0.122017018497
//Max 1.199907183647
//Number of zeros 0

#ifndef B2_H_
#define B2_H_

#ifndef __SYNTHESIS__
model_default_t b2[256];
#else
model_default_t b2[256] = {-0.035167, 0.008804, 0.069370, -0.008094, 0.050591, -0.023199, 0.046690, 0.086506, 0.020471, 0.016532, -0.071935, 0.099029, 0.018010, -0.062829, -0.035424, 0.082405, -0.046937, -0.048805, 0.036429, 0.026657, 0.027690, 0.049535, -0.026569, 0.033478, 0.015741, 0.010045, -0.025187, 0.028365, 0.029671, -0.023696, -0.055564, 0.047464, -0.083870, -0.045657, 0.068548, 0.071501, -0.010457, 0.039008, 0.019345, -0.001166, 0.117131, -0.104034, -0.000876, 0.017279, 0.003877, 0.023536, -0.024735, 0.078874, -0.090148, 0.012994, 0.005806, 0.033882, 0.017585, -0.065302, 0.123980, 0.053434, 0.058003, -0.045558, -0.007452, 0.145994, 0.003602, -0.051259, 0.003840, 0.016215, 0.977126, 1.008730, 1.075438, 0.942678, 0.985190, 1.010292, 0.940367, 1.068323, 0.996870, 1.122209, 0.967583, 1.112219, 1.003427, 0.998006, 1.009236, 1.199907, 0.953540, 0.941913, 0.973490, 1.093314, 1.037876, 1.014785, 0.961699, 1.052729, 0.964666, 1.038781, 0.989891, 0.997227, 1.055074, 0.976193, 0.997254, 1.030895, 0.928263, 0.988992, 1.076505, 0.943914, 0.963400, 0.944707, 1.067052, 1.004787, 1.188388, 0.887910, 1.045166, 0.981484, 1.040576, 0.978332, 0.957256, 0.955880, 0.951644, 0.995027, 1.006764, 0.968463, 0.989293, 1.073681, 1.085139, 1.008487, 1.109751, 0.983681, 0.982060, 1.183843, 0.945772, 0.997214, 1.007299, 1.011216, 0.001635, -0.018024, 0.055685, -0.019673, 0.058453, -0.002591, 0.043091, -0.005663, -0.027734, -0.036388, -0.030243, -0.022760, -0.025376, -0.012664, -0.015936, -0.005193, 0.038112, 0.016943, -0.014976, -0.067310, -0.026075, -0.093566, -0.050174, 0.051056, 0.000733, -0.002111, 0.063289, -0.008518, -0.009689, -0.010597, -0.020876, 0.148384, -0.006707, 0.014435, 0.044048, -0.019777, 0.033161, 0.016787, 0.025203, 0.010949, 0.068289, 0.010977, 0.029491, 0.003436, 0.024947, -0.045982, 0.022604, -0.055071, -0.020723, -0.010199, -0.016549, 0.024331, -0.030641, -0.009925, 0.104286, 0.076516, 0.020668, -0.035113, -0.027155, -0.090435, -0.024997, 0.038750, 0.083076, -0.014705, -0.030980, 0.013791, 0.094622, 0.028807, 0.056881, -0.020058, -0.005789, 0.020380, 0.049273, 0.050216, -0.025137, -0.019120, -0.024528, -0.016982, -0.029394, 0.030707, -0.057056, -0.045057, 0.000985, 0.061763, 0.048613, 0.010753, 0.001388, -0.028749, -0.017169, -0.049623, 0.013947, 0.023734, 0.020425, 0.018484, -0.076331, 0.057252, -0.018583, -0.024144, 0.034203, 0.080386, -0.033614, 0.041979, 0.024021, -0.015491, 0.026645, -0.122017, 0.021657, -0.012722, 0.001072, -0.028966, -0.022019, 0.038059, -0.046497, 0.012206, 0.067559, -0.029123, -0.003596, -0.038616, 0.056127, 0.030429, 0.050918, -0.009450, -0.008287, 0.076113, -0.005865, -0.017689, -0.055001, -0.046499};
#endif

#endif
