//Numpy array shape [10, 256]
//Min -0.416459172964
//Max 0.475651860237
//Number of zeros 0

#ifndef W2_H_
#define W2_H_

#ifndef __SYNTHESIS__
model_default_t w2[2560];
#else
model_default_t w2[2560] = {-0.166713, 0.056496, -0.198710, 0.111489, 0.104034, -0.029037, -0.149322, 0.192158, -0.045650, 0.036447, -0.063573, 0.002871, 0.120019, 0.197700, -0.155400, 0.044071, 0.076329, -0.071691, -0.150890, 0.095328, 0.088410, 0.030736, 0.027877, 0.050200, -0.108694, -0.152656, 0.002811, 0.114821, -0.069969, -0.053694, 0.042551, 0.332183, -0.190779, -0.036807, -0.069853, 0.213794, -0.068800, -0.050888, 0.087171, 0.100481, -0.145101, -0.127919, 0.144783, -0.092688, -0.127820, 0.084091, -0.034950, -0.071915, -0.138743, 0.192985, -0.101135, -0.175754, -0.091060, -0.207223, 0.126041, -0.145314, 0.006555, 0.122539, 0.067197, -0.011300, -0.158873, -0.104060, 0.129863, -0.007720, -0.233550, 0.171765, 0.281099, 0.071157, -0.116492, -0.018077, -0.206536, 0.106717, -0.062965, -0.063117, 0.047179, -0.087825, -0.000890, -0.000709, -0.143199, 0.045313, -0.114051, 0.046212, 0.224956, 0.051978, -0.038702, -0.021648, 0.085856, -0.095046, 0.098047, 0.015229, 0.046346, 0.003543, -0.028579, -0.005376, -0.171654, -0.062124, 0.173545, -0.111757, 0.151396, -0.157309, 0.071594, -0.324970, 0.071074, 0.132382, -0.122060, -0.041756, 0.269612, -0.016520, -0.231609, 0.082155, -0.236923, 0.219701, 0.022767, -0.042825, 0.262850, -0.155253, -0.127830, -0.044797, 0.168846, -0.019068, 0.026301, -0.178274, -0.051001, -0.180540, -0.204038, -0.091838, -0.019781, 0.060261, -0.158242, -0.166024, 0.033614, -0.042390, 0.007674, 0.054364, 0.024681, 0.154946, -0.154040, -0.031523, 0.003750, 0.058962, -0.031054, 0.064420, 0.097077, -0.030383, 0.142923, 0.076407, 0.163387, -0.031658, 0.042988, -0.078648, -0.024725, 0.079691, -0.057413, -0.091564, -0.094734, -0.088430, 0.126207, 0.137195, 0.040727, 0.180112, 0.081393, 0.030424, 0.032768, 0.148666, -0.098470, 0.005426, 0.183246, 0.097699, -0.101693, -0.090880, 0.156832, -0.069531, 0.072378, -0.078416, 0.172707, 0.108000, 0.091564, -0.203190, 0.052785, -0.063659, 0.083027, 0.011720, 0.055158, -0.154503, -0.013441, 0.182833, 0.076749, -0.040226, 0.082400, -0.123372, -0.029752, 0.143225, -0.136258, 0.123210, -0.150818, 0.087167, -0.156928, -0.046846, -0.053475, 0.158155, 0.084923, -0.100066, -0.083369, 0.168961, -0.175457, 0.304100, 0.095431, -0.018628, -0.027489, -0.084623, 0.175130, 0.007723, -0.059919, 0.017288, -0.020402, 0.026322, -0.055870, -0.200623, 0.157546, 0.021914, -0.021635, -0.084565, 0.164575, 0.191414, -0.065469, -0.033839, 0.070929, 0.307106, 0.193397, 0.075138, 0.017526, 0.010961, 0.085372, -0.143088, 0.147612, 0.165560, -0.038136, 0.322459, -0.053935, -0.294326, -0.137098, 0.158867, -0.067525, -0.083177, -0.003619, -0.116663, 0.162645, 0.053203, -0.114981, -0.166826, -0.159340, 0.102789, -0.242261, 0.158022, -0.178014, 0.034408, -0.058932, 0.081585, -0.012453, 0.112414, -0.129667, 0.042397, 0.025080, 0.090307, 0.115955, -0.014644, 0.096988, 0.043337, 0.045745, 0.158103, -0.140526, 0.041504, -0.146403, -0.180008, 0.148552, -0.112427, 0.156213, -0.043990, 0.142027, 0.171271, -0.006135, -0.054808, 0.211904, -0.132961, -0.035532, -0.018565, -0.105746, 0.075139, -0.043321, -0.012845, -0.055329, -0.021809, 0.016609, 0.206711, -0.203831, -0.145593, 0.028491, 0.011575, -0.189906, -0.113453, -0.002166, -0.076722, -0.160092, -0.165859, 0.111203, 0.090299, 0.033621, 0.101903, 0.254105, -0.031754, -0.073594, 0.152748, 0.021709, 0.192122, 0.010560, 0.085847, 0.101073, -0.259051, 0.006611, 0.088314, 0.030519, -0.072580, -0.054909, 0.205589, -0.068027, -0.225137, -0.140751, 0.082063, -0.315392, -0.033620, -0.029169, -0.028523, 0.055326, -0.274285, 0.052323, -0.021667, 0.137766, 0.200696, 0.043514, 0.007178, -0.208761, 0.041665, 0.030100, 0.016228, -0.081783, -0.010452, 0.262572, 0.141625, -0.039627, -0.012478, -0.074828, 0.109219, -0.158274, -0.150191, 0.085698, -0.062848, -0.045478, -0.302629, 0.184697, -0.088474, 0.013144, -0.014230, -0.094175, -0.011542, -0.013444, -0.041537, 0.023632, -0.074101, -0.217876, 0.086307, 0.135915, 0.127133, 0.028640, -0.025685, 0.002652, -0.033186, -0.024763, -0.060691, 0.067144, 0.181893, 0.147333, -0.036976, 0.023183, 0.070877, -0.000684, -0.121559, 0.009323, -0.143638, -0.146011, -0.085098, -0.093546, 0.106813, 0.156117, -0.019490, -0.137454, 0.101268, -0.140154, -0.007340, 0.099866, 0.045779, -0.133206, 0.140481, -0.095161, 0.058429, -0.144927, -0.031710, -0.059072, -0.029691, -0.027813, 0.095224, 0.016207, -0.097839, 0.117512, -0.030149, -0.160215, -0.117931, 0.131140, 0.072343, -0.089246, 0.079118, -0.053795, 0.087016, -0.057021, 0.067694, -0.026830, -0.043351, -0.045537, -0.191031, 0.022754, 0.059291, 0.184095, 0.194570, -0.053891, 0.091116, -0.051797, 0.059485, -0.032745, 0.035704, -0.009462, 0.149006, 0.062423, -0.140762, -0.150765, -0.090723, -0.115690, -0.192470, 0.010610, 0.070730, -0.052853, -0.122092, -0.043528, -0.054361, -0.233537, 0.001072, -0.178294, -0.154867, 0.259885, 0.124603, 0.239250, 0.116370, 0.092465, 0.047799, -0.113482, -0.120386, 0.231885, -0.183268, -0.008484, 0.029418, -0.025913, -0.046491, -0.089259, -0.095991, 0.121620, 0.026101, 0.150877, 0.005614, -0.035740, 0.059091, -0.141609, -0.120011, -0.115265, 0.039384, 0.117639, -0.125806, -0.075022, 0.271683, 0.029591, 0.155418, 0.170817, -0.071173, -0.194901, -0.163966, 0.148021, -0.086694, 0.031238, -0.220200, 0.013087, -0.104120, 0.209976, -0.004366, 0.260073, -0.025952, -0.133499, -0.096802, -0.018316, -0.109883, 0.018309, 0.031824, -0.055050, -0.130881, -0.235403, 0.109426, -0.049156, -0.075528, 0.095841, 0.213811, -0.012187, 0.149043, -0.057590, -0.035022, -0.064501, 0.031590, 0.122074, 0.112185, 0.031780, 0.151856, -0.184913, -0.075237, -0.052643, 0.120175, 0.078087, -0.248900, -0.067750, 0.214242, -0.166494, -0.151554, -0.084402, -0.177795, 0.025916, -0.188919, -0.143211, 0.052176, 0.122320, -0.176866, 0.171980, 0.055711, -0.065030, -0.044909, 0.010185, -0.007170, -0.129995, -0.078794, -0.050207, -0.100573, -0.158035, 0.010694, -0.141000, -0.146195, -0.078905, 0.131832, -0.225776, 0.058579, 0.088727, -0.085958, -0.067989, -0.114574, 0.267256, 0.162887, -0.147178, -0.099667, -0.043946, -0.252504, -0.064036, -0.154813, 0.171515, -0.051721, 0.022869, -0.057876, 0.114181, -0.018438, -0.097340, -0.136797, 0.031384, -0.073586, 0.031874, -0.138194, -0.250145, -0.020503, 0.076827, -0.266721, -0.222245, -0.037392, 0.258917, 0.060811, 0.243529, 0.018865, 0.154925, -0.052360, 0.109216, 0.084404, -0.105590, 0.083887, -0.166844, 0.037231, 0.060324, 0.349905, 0.156953, 0.142942, -0.169500, -0.138416, -0.073089, -0.134949, 0.128922, -0.196185, -0.075240, 0.056581, 0.282138, 0.091142, -0.137358, -0.166953, -0.122721, 0.220414, -0.203087, 0.094081, -0.047834, -0.115429, -0.247168, -0.258815, 0.157517, 0.034019, -0.334922, 0.185904, 0.203744, -0.147125, -0.013527, 0.116169, 0.085406, 0.353027, -0.228231, 0.213512, -0.155527, 0.173509, 0.206923, -0.069510, -0.194735, -0.023602, 0.084879, -0.101081, -0.006878, -0.360796, -0.011188, 0.172471, 0.013104, -0.150559, 0.021642, -0.182398, 0.076002, 0.135804, -0.013817, 0.266032, -0.277177, -0.411295, 0.185106, -0.108747, 0.085531, -0.001741, 0.031930, -0.031529, -0.195568, -0.160042, 0.040417, -0.193652, 0.089773, -0.026598, 0.377107, 0.080583, -0.159246, 0.067299, -0.021072, -0.164155, -0.111362, -0.062153, 0.268153, -0.064262, -0.120300, 0.074890, -0.162505, -0.228014, 0.036725, -0.080198, 0.203507, -0.094056, 0.236218, -0.252955, 0.475652, 0.129474, -0.416459, 0.140660, 0.068160, 0.428124, 0.010843, 0.134189, 0.188164, 0.168808, -0.145420, -0.096499, -0.064309, 0.299551, -0.155823, -0.141443, 0.363348, -0.226752, -0.065581, -0.296703, -0.012765, 0.038950, 0.217754, 0.003652, -0.016879, 0.035653, -0.007774, 0.058310, -0.002912, 0.196987, 0.187208, -0.237683, -0.163050, 0.199843, -0.059896, -0.031829, -0.253167, -0.074255, -0.132746, 0.258955, 0.234602, 0.108529, -0.045678, 0.002238, -0.122982, 0.151952, 0.072664, -0.030624, -0.104706, 0.078233, 0.153667, 0.065512, 0.008340, 0.037796, -0.009135, 0.080097, -0.034851, 0.135717, 0.154225, 0.019377, -0.048169, -0.044595, 0.097599, 0.034701, -0.309464, 0.275612, 0.261425, -0.086435, -0.142954, 0.272972, 0.025032, 0.160879, -0.234903, 0.069111, -0.099069, -0.060369, 0.033412, 0.065001, -0.082604, 0.065363, 0.096893, 0.064168, -0.012619, 0.011375, -0.045769, -0.021635, 0.103795, 0.286891, -0.124084, 0.070276, 0.046387, 0.185749, -0.145149, -0.048315, -0.030557, -0.095634, 0.015259, -0.204639, 0.048868, -0.169908, 0.249094, 0.114759, 0.191776, -0.114916, 0.123862, 0.109904, -0.003159, 0.055144, 0.134034, 0.003983, 0.079606, 0.150104, -0.257276, 0.023069, 0.106991, 0.010961, 0.052924, -0.101445, -0.091099, -0.043766, 0.182075, -0.040481, -0.091086, -0.196051, 0.103516, -0.008483, 0.044639, 0.077657, 0.060062, -0.036625, 0.054255, -0.091998, -0.144072, -0.024482, 0.090145, 0.022183, -0.019380, 0.022054, -0.129522, 0.165390, -0.149973, -0.257588, 0.003471, -0.129143, 0.244313, -0.078345, 0.053162, -0.120686, -0.199600, 0.071880, 0.133361, 0.084650, -0.038243, -0.182496, -0.103801, -0.009060, -0.185312, -0.001196, -0.152771, 0.013552, -0.287491, 0.042600, -0.042446, -0.027907, -0.107412, -0.033733, -0.103047, -0.017853, 0.122416, 0.064405, -0.316036, 0.141107, -0.221389, -0.117728, 0.002408, -0.017333, 0.090229, -0.071095, 0.094842, -0.031512, -0.201874, 0.114320, 0.135624, -0.073039, -0.038383, 0.063193, 0.061682, 0.059728, -0.026568, -0.111715, 0.101211, -0.107067, 0.015420, 0.000681, -0.161491, -0.123548, -0.147515, -0.071453, 0.143719, 0.190393, -0.146827, -0.053064, -0.101659, 0.029090, -0.043232, 0.029729, -0.092182, 0.096210, -0.076841, -0.132372, 0.002582, -0.075133, 0.059421, 0.094919, 0.155232, 0.049500, -0.024897, -0.004814, -0.075864, -0.078485, 0.004077, 0.121252, -0.207438, -0.049174, 0.048623, -0.043318, 0.098660, -0.163644, 0.181240, 0.028765, -0.071422, 0.114306, 0.089107, 0.009882, -0.110821, 0.052171, -0.055861, -0.074077, 0.106879, 0.143664, -0.207215, -0.209453, 0.065271, 0.019342, -0.128772, -0.045737, 0.207025, -0.057620, 0.094681, -0.056554, 0.059165, 0.022959, -0.163870, 0.113513, -0.009231, 0.109519, -0.036465, -0.114881, -0.035191, -0.075439, 0.039367, 0.096786, 0.131912, -0.088547, -0.043630, -0.106005, 0.069225, -0.026345, 0.233318, 0.000361, -0.207288, 0.082733, 0.051913, 0.016768, 0.148518, 0.003850, -0.162169, 0.159902, -0.085116, 0.245514, -0.108231, 0.029596, 0.165803, -0.019863, -0.104955, 0.081012, -0.152752, -0.281226, 0.028281, -0.228666, -0.038045, -0.095923, 0.220304, -0.139145, -0.065648, 0.023297, -0.131271, -0.124219, 0.003702, -0.033873, -0.052869, 0.013478, 0.166967, 0.219149, -0.150188, -0.052388, -0.042991, -0.022891, 0.011109, 0.064749, -0.125565, -0.106825, 0.139869, 0.176335, -0.139876, -0.036314, 0.027940, -0.096329, 0.052672, -0.189584, -0.055452, -0.216584, -0.182852, -0.148905, -0.096628, -0.000019, -0.144065, -0.197938, -0.162805, -0.294376, -0.008695, -0.027853, 0.042945, 0.218270, -0.050815, -0.130825, -0.038676, -0.144658, 0.079616, -0.300716, 0.040475, 0.033677, 0.006952, -0.087731, -0.088532, 0.027113, 0.026226, -0.058110, -0.052767, -0.090057, 0.075190, -0.130810, -0.061974, 0.042461, 0.143520, -0.023656, 0.012316, -0.045232, 0.051886, 0.042753, 0.096101, -0.061509, 0.002799, -0.106407, -0.136040, 0.199637, -0.158225, 0.028850, -0.139888, -0.108874, -0.017113, 0.031909, -0.090508, -0.171624, -0.020675, -0.229037, -0.008558, 0.143587, 0.091664, 0.035803, 0.038751, -0.106997, -0.043427, -0.077519, 0.067488, -0.165331, -0.036431, 0.021862, 0.055410, 0.123767, -0.004452, -0.049648, -0.154767, 0.102500, 0.062944, 0.009743, -0.050584, -0.162720, -0.033244, 0.060923, 0.119529, -0.115649, 0.001880, -0.054324, -0.043701, 0.340996, -0.128981, 0.170363, -0.215056, -0.041618, -0.062269, 0.183373, 0.022034, -0.003221, 0.168403, -0.064852, 0.272108, 0.023339, 0.159418, -0.015155, -0.010997, -0.059457, 0.106413, -0.004426, -0.257233, -0.105687, -0.180878, -0.062509, 0.030901, -0.141568, -0.103724, -0.215460, -0.017022, 0.099017, 0.060112, 0.032215, 0.033486, 0.177867, -0.284187, -0.021039, -0.217097, 0.001211, 0.036240, 0.131797, 0.019726, -0.100418, 0.158167, -0.027990, -0.085538, 0.012050, -0.039152, 0.196827, -0.012537, 0.006463, -0.070901, -0.046794, 0.150139, 0.205714, -0.097249, 0.029115, 0.139558, -0.139290, -0.035843, 0.102101, -0.024093, -0.015386, 0.113040, 0.105569, 0.101767, 0.016365, 0.122486, -0.127300, 0.029902, -0.007667, -0.177351, 0.016236, 0.143147, -0.085247, 0.134738, 0.091907, -0.070093, 0.080794, -0.153357, -0.174868, 0.008747, -0.059434, 0.024527, -0.086800, -0.110701, -0.157339, 0.074683, -0.095857, -0.033810, 0.111675, 0.004129, -0.176064, -0.072263, -0.038826, -0.050661, 0.033134, 0.029398, 0.227026, 0.139244, 0.223815, 0.036743, -0.136049, -0.051372, 0.093912, 0.056667, -0.030150, -0.066751, -0.033157, 0.118138, -0.182533, 0.007668, 0.106541, 0.035813, -0.048827, -0.071176, -0.221117, -0.042519, -0.072961, -0.025653, -0.012794, 0.060153, -0.193485, 0.103944, 0.024757, -0.193806, 0.174566, 0.085175, -0.046856, -0.189681, 0.095873, -0.025807, 0.145265, -0.065205, -0.032470, -0.062044, -0.111517, 0.226025, 0.200944, -0.017867, -0.174628, -0.030502, -0.046805, -0.122565, 0.076415, -0.043444, 0.026744, 0.160025, -0.064325, 0.025165, 0.040679, -0.187569, -0.083171, -0.089161, -0.037042, -0.089368, -0.129702, -0.000091, 0.059354, 0.264012, 0.045871, 0.011965, 0.030169, -0.074579, -0.115739, -0.023320, -0.064745, -0.015635, -0.103446, 0.162898, -0.012303, 0.121135, -0.040137, -0.010604, -0.160370, -0.061476, 0.273941, -0.141046, 0.101821, 0.031817, -0.077531, 0.153378, -0.040041, 0.168293, -0.023964, 0.089567, 0.115895, 0.179339, -0.193401, 0.004928, 0.114906, -0.143288, 0.040362, 0.123093, 0.241557, 0.006245, -0.185248, -0.184355, -0.074260, -0.115422, 0.178562, 0.165233, 0.239516, -0.226751, -0.107547, 0.170714, -0.066949, -0.069044, 0.026260, -0.204164, -0.016956, 0.037427, 0.213697, 0.085863, -0.076733, 0.000881, 0.068943, -0.068058, 0.036206, -0.102373, -0.070346, -0.073932, -0.007081, -0.023559, 0.105368, -0.144824, 0.081578, -0.081637, -0.011814, -0.143968, 0.100449, -0.102342, 0.111720, 0.048859, -0.028599, 0.068423, 0.078426, -0.083300, 0.149730, -0.022724, 0.258081, -0.147762, 0.033300, 0.076136, 0.030829, 0.055991, -0.099029, 0.024676, -0.216925, -0.112787, -0.124791, 0.268436, 0.054343, 0.229769, 0.107536, -0.111471, 0.028080, 0.023035, -0.133904, 0.169466, -0.145304, -0.070517, -0.104348, -0.038144, -0.057952, 0.002463, 0.084857, -0.140480, -0.048506, -0.152954, 0.045733, 0.188701, 0.072648, -0.056719, 0.045915, -0.110239, -0.196768, -0.044371, 0.086827, 0.035733, 0.024415, 0.189883, -0.033636, 0.089986, 0.152544, -0.014658, 0.081603, 0.120758, 0.099699, 0.065475, -0.038602, -0.122497, -0.007037, 0.080226, 0.134063, 0.051359, 0.142233, -0.069071, -0.010493, 0.111708, 0.037252, 0.039083, 0.138611, -0.007398, 0.152789, 0.031496, 0.121196, 0.189434, -0.036974, 0.116017, -0.132394, 0.099479, -0.013410, 0.068968, 0.115176, -0.177282, 0.135086, -0.120623, -0.066102, -0.044556, -0.034236, -0.081174, 0.118794, -0.037315, -0.082530, -0.019544, -0.022791, 0.165076, -0.135512, -0.063659, 0.146278, 0.107128, 0.024648, 0.101950, -0.038988, -0.198097, 0.052970, -0.178597, 0.141519, 0.017189, 0.021111, 0.037651, -0.014543, -0.001206, 0.120867, -0.068359, 0.131991, -0.223234, -0.034616, -0.200313, 0.040775, 0.023122, -0.130507, -0.001200, 0.001029, 0.005210, 0.207613, 0.094988, 0.018575, -0.099989, 0.003831, -0.122855, 0.027130, -0.195120, -0.006577, 0.008825, -0.101027, 0.090997, -0.009881, 0.073201, 0.023444, 0.136743, 0.012453, 0.078476, -0.085856, -0.034402, -0.206975, -0.024588, 0.172166, 0.109190, -0.037061, -0.015111, -0.177868, -0.133901, 0.084816, 0.114609, -0.094652, 0.007823, 0.006088, -0.080104, -0.122411, -0.022195, -0.079677, 0.024914, 0.174546, -0.174262, 0.074463, 0.028298, -0.163489, 0.152555, -0.188624, -0.014118, -0.187779, 0.000594, -0.036665, 0.139740, 0.074433, -0.074064, 0.024688, 0.180243, -0.051349, 0.002289, -0.018674, 0.096024, -0.085071, 0.072936, 0.057952, -0.000758, 0.060359, 0.201504, 0.085539, -0.052643, 0.232218, 0.040834, 0.168547, -0.089018, 0.111160, -0.014093, 0.066475, -0.121176, 0.072947, -0.127086, -0.036480, 0.040807, 0.077096, 0.211263, 0.224827, -0.080284, 0.009627, 0.063361, -0.254338, 0.112992, -0.102055, 0.093521, 0.012689, 0.068444, -0.075487, 0.131083, 0.028211, -0.320357, 0.085446, -0.017644, 0.122052, -0.041755, -0.052295, -0.042776, 0.119553, 0.139199, -0.028970, -0.063186, -0.117607, -0.022584, -0.005265, 0.004756, 0.112302, 0.170046, -0.061881, -0.138555, -0.128993, 0.025050, -0.065392, 0.187080, -0.077146, 0.199915, 0.176342, -0.071310, 0.015208, -0.025276, 0.118894, 0.011485, -0.112934, 0.115590, 0.097781, 0.085450, -0.148191, -0.196311, 0.055466, 0.171130, 0.187711, 0.216070, -0.136040, 0.047191, 0.116680, 0.046806, 0.033013, 0.194751, -0.040076, -0.090761, -0.162985, 0.117532, 0.117183, -0.095461, -0.140691, -0.234070, -0.052186, -0.206210, 0.130142, 0.093132, 0.018391, 0.229863, -0.120047, 0.170030, 0.051718, -0.156773, 0.079968, -0.149691, -0.003635, 0.013225, 0.110583, -0.079117, -0.008582, -0.141429, 0.186008, 0.307475, -0.084600, 0.234108, -0.002625, 0.133084, -0.050503, -0.136861, 0.088369, 0.200769, 0.136642, 0.078410, 0.259047, -0.115681, -0.017305, 0.092791, 0.074394, 0.148413, 0.240291, -0.048047, 0.019210, -0.161180, 0.062981, 0.269238, -0.106270, 0.086250, 0.076377, 0.063506, -0.054263, 0.044680, -0.113218, -0.122289, -0.039595, 0.153965, -0.045965, 0.062134, -0.229712, -0.000793, -0.048778, 0.091235, 0.079798, 0.209349, 0.169141, 0.256216, -0.144227, 0.056950, 0.139815, -0.102985, 0.156943, 0.111474, 0.023738, 0.001247, 0.080637, 0.076149, 0.078781, 0.179488, -0.146219, -0.014546, 0.090105, -0.017071, 0.022592, -0.015577, 0.058582, 0.074123, 0.070073, -0.151753, -0.024096, 0.017558, 0.080077, -0.023561, -0.138000, -0.038806, -0.209615, 0.103350, -0.257011, 0.048022, 0.079809, -0.077168, 0.122749, -0.029592, -0.029215, -0.187119, 0.073254, -0.014278, -0.163977, -0.055730, -0.040684, 0.007215, -0.130319, 0.024694, 0.020260, 0.091517, -0.109607, -0.052372, -0.189446, -0.046224, 0.213244, 0.018223, -0.082609, 0.079561, 0.058667, 0.054539, -0.055449, -0.100997, -0.013413, 0.101717, 0.076172, -0.104236, 0.144095, -0.015869, -0.046552, 0.134588, -0.049365, 0.189319, -0.058805, -0.098342, 0.176402, 0.200800, -0.005233, -0.155540, 0.257985, -0.115523, 0.165242, 0.016786, 0.097901, 0.062547, -0.002710, -0.160409, -0.043438, -0.010246, -0.036753, 0.007761, -0.027705, 0.011489, -0.095275, -0.153408, -0.068257, 0.249412, -0.278124, -0.111094, -0.112816, -0.055890, -0.075577, 0.133950, 0.223512, 0.072333, 0.203849, 0.096899, 0.311087, -0.188105, 0.035578, -0.066448, 0.206798, 0.061625, -0.149489, -0.150849, -0.065251, 0.263200, 0.036794, 0.132076, -0.168837, -0.136367, -0.087758, -0.009056, -0.014776, 0.056504, -0.170509, -0.030310, 0.178352, -0.054879, 0.222256, -0.114460, -0.138762, 0.006987, -0.165471, -0.050594, -0.037491, -0.278278, 0.034694, 0.020728, 0.141186, 0.056844, -0.118583, 0.048361, 0.131096, 0.084674, -0.181238, 0.140952, -0.048784, -0.005427, -0.027909, -0.055610, -0.153514, 0.081273, 0.082707, -0.167918, 0.107977, -0.073269, -0.032721, -0.027988, 0.032655, 0.003726, -0.010684, -0.186774, 0.006650, -0.169395, -0.033206, -0.029164, 0.060652, -0.006022, -0.088698, -0.118494, -0.048918, -0.072057, -0.129943, 0.102905, -0.124550, -0.028705, -0.076878, 0.076612, -0.077011, -0.108185, 0.011920, -0.060296, 0.098500, 0.026674, -0.141457, 0.030593, 0.013572, 0.068308, 0.166296, 0.000370, 0.005928, 0.018440, 0.085146, -0.007246, 0.132033, -0.086758, 0.278149, -0.063577, 0.149572, -0.044778, 0.005252, -0.006699, -0.044954, 0.080436, 0.006429, 0.070398, 0.052498, 0.104180, -0.212410, 0.142526, 0.027111, 0.124289, -0.025659, -0.090012, -0.197257, 0.109874, -0.071430, -0.057532, -0.127836, -0.004302, 0.131267, -0.146745, -0.095573, -0.170173, -0.172014, 0.050876, 0.114123, 0.028737, 0.012760, 0.004639, -0.083432, -0.055244, 0.221298, 0.114379, -0.057985, -0.042427, 0.160159, -0.113070, -0.177634, 0.135132, 0.091957, -0.027479, 0.116743, 0.073463, -0.053246, 0.087322, -0.077714, -0.026897, -0.020302, -0.012347, 0.251061, -0.013569, -0.172636, -0.119194, -0.151511, -0.068390, 0.037580, 0.128953, -0.000152, 0.120959, -0.144637, 0.111489, 0.045976, -0.061117, -0.084628, 0.154994, -0.104472, 0.114208, 0.009951, -0.142621, -0.067475, 0.086720, -0.040235, 0.047630, -0.034382, -0.065637, -0.061721, 0.157559, -0.168056, -0.038418, -0.060894, 0.130694, -0.020654, -0.155106, -0.126436, -0.023490, 0.127941, 0.075538, 0.059097, 0.069087, 0.145661, -0.172547, -0.112670, -0.006634, 0.101792, 0.043347, 0.038946, -0.152270, -0.062432, -0.047462, -0.094811, -0.097843, -0.040838, 0.021519, 0.139257, 0.156314, -0.153550, 0.058298, -0.082216, 0.084557, 0.100793, 0.059375, 0.021148, 0.096049, -0.003527, -0.094276, -0.098185, 0.005345, -0.116762, -0.129608, 0.129687, 0.001731, -0.070167, 0.094076, 0.085817, -0.017987, 0.030271, 0.062211, 0.110610, -0.037620, 0.071391, 0.042888, -0.146021, -0.006400, 0.280583, -0.016056, -0.220567, 0.163350, 0.182117, 0.054214, -0.190707, 0.171284, -0.054675, 0.154767, 0.085836, -0.124114, 0.031755, 0.164197, 0.096856, 0.102054, -0.072785, 0.081050, -0.016423, -0.010338, 0.120918, -0.036324, 0.085441, 0.005053, 0.056019, 0.095856, 0.274178, -0.161958, -0.109751, 0.075529, 0.161143, 0.032834, -0.206251, 0.186770, 0.001121, 0.026619, 0.034543, -0.094912, -0.156990, -0.190494, -0.201194, 0.119624, -0.164895, -0.001312, 0.218245, 0.024547, -0.004776, -0.160319, -0.075263, 0.082018, 0.098593, -0.049200, 0.036329, -0.179409, 0.051691, -0.122188, -0.109255, 0.065665, 0.126007, -0.114226, 0.038160, 0.232807, 0.128638, 0.166738, 0.112331, -0.105080, 0.238671, 0.016010, 0.097352, 0.212357, 0.120874, -0.016438, -0.136239, -0.167100, -0.015646, 0.000221, -0.005513, 0.021047, 0.117648, 0.142276, 0.020288, -0.056289, -0.060149, 0.024944, 0.073169, -0.101308, -0.103875, -0.152845, 0.156964, -0.126131, 0.071798, 0.090876, -0.083965, -0.287019, 0.092343, 0.004899, 0.214167, 0.169541, -0.161558, 0.098917, 0.116575, -0.079810, -0.030612, -0.011435, -0.005590, -0.082837, 0.124016, -0.043271, -0.228138, 0.182864, -0.053982, 0.069550, -0.042953, -0.050130, -0.191603, 0.087051, -0.103504, -0.211520, 0.227246, -0.074305, 0.354803, -0.017078, 0.134036, -0.038211, -0.079893, -0.031705, -0.036840, -0.019968, -0.005302, -0.169942, 0.031774, -0.266022, -0.029297, -0.088047, -0.064685, -0.342753, 0.041372, 0.050226, 0.160728, -0.026059, -0.119062, -0.008707, -0.057186, -0.195173, 0.060433, -0.096437, -0.097463, -0.223366, 0.097618, -0.047576, 0.061013, 0.037498, 0.212248, -0.087687, -0.076953, 0.139263, -0.224484, 0.093709, -0.021372, 0.036967, -0.166119, 0.091680, 0.003330, 0.130451, -0.066317, -0.059859, 0.088973, 0.147227, 0.112530, -0.004941, -0.091114, -0.112434, 0.115834, -0.060867, -0.127206, -0.087879, -0.032727, -0.243706, 0.110606, 0.169579, 0.112726, -0.026831, 0.156672, -0.249542, -0.075842, 0.095319, 0.191840, -0.143113, 0.108860, 0.211488, 0.109333, -0.168086, -0.083665, 0.149603, -0.140598, -0.102433, -0.007796, 0.016787, 0.140763, -0.079788, -0.070625, -0.062126, -0.030789, -0.108652, 0.031270, -0.049410, -0.123849, 0.027980, 0.013183, -0.141412, 0.053286, 0.046413, 0.092903, 0.134029, -0.090874, -0.141531, 0.234248, 0.028488, 0.085523, -0.055348, 0.041652, -0.067861, -0.090490, 0.058346, -0.092680, -0.008419, 0.104213, 0.164077, 0.118181, -0.122221, 0.115800, -0.195991, -0.204472, -0.072262, 0.154948, -0.065108, -0.007651, 0.012523, 0.142941, 0.193895, 0.049422, 0.090531, 0.164321, 0.115187, 0.070262, -0.215856, 0.005989, -0.070826, 0.125102, 0.000125, 0.220617, -0.099408, 0.060446, -0.064968, -0.268961, 0.100152, -0.159389, 0.085638, 0.060974, 0.042885, -0.033986, -0.125903, -0.089042, -0.095140, -0.018087, 0.029951, -0.110426, 0.128435, 0.090242, -0.197204, -0.081465, 0.030874, -0.025718, -0.007556, -0.010535, -0.137843, 0.129242, 0.068680, 0.092975, 0.118462, -0.016608, 0.004581, -0.080791, 0.138793, -0.095603, -0.087750, -0.007261, -0.109335, -0.002987, -0.091677, -0.224174, 0.211790, 0.008539, 0.013381, 0.087875, 0.122528, 0.070888, 0.148022, 0.182992, -0.016668, -0.203898, 0.075256, 0.077713, -0.193707, -0.107868, -0.198682, 0.119859, -0.083861, 0.152653, -0.028334, 0.026431, -0.128367, -0.020207, -0.011317, 0.144357, 0.057751, -0.168414, -0.230603, -0.222767, 0.071875, -0.079144, 0.041929, -0.105266, -0.022775, -0.206779, -0.028457, 0.029387, -0.164485, -0.201988, 0.014813, -0.099494, -0.080051, -0.033073, 0.151941, -0.055367, -0.135958, 0.152398, -0.107829, -0.079112, -0.108199, -0.137982, 0.168140, -0.165017, -0.006910, 0.107245, 0.085974, 0.034823, -0.081252, -0.085636, 0.026990, -0.042913, 0.182542, -0.035505, 0.054543, -0.139848, -0.135933, -0.063693, -0.025026, 0.014376, -0.239558, -0.060297, 0.036652, 0.121839, -0.058143, 0.175837, 0.090292, -0.022633, 0.204475, 0.126553, -0.159400, -0.156728, 0.032412, -0.076143, -0.018575, -0.130109, -0.098255, -0.139571, -0.077509, -0.119084, 0.148823, 0.058131, 0.289795, 0.112401, -0.122000, -0.153169, 0.164059, 0.066636, -0.024131, 0.042821, 0.077500, -0.092731, -0.011733, -0.115691, 0.021872, 0.032759, -0.152011, -0.106649, 0.029033, -0.190705, -0.030159, 0.128310, -0.026327, -0.136891, 0.017409, 0.115442, 0.167452, -0.149559, 0.254055, -0.172571, -0.060411, 0.330991, -0.063049, 0.263843, 0.046818, 0.035288, 0.032782, 0.121364, 0.065252, 0.120861, 0.122180, 0.285082, 0.155169, 0.189397, 0.051658, -0.247480, 0.132353, -0.086212, -0.047334, -0.135785, 0.224380, -0.133672, -0.351140, -0.169602, 0.165786, 0.045834, 0.061632, 0.068556, 0.078875, 0.120563, 0.131283, -0.031358, 0.180013, 0.028939, 0.009111, 0.085982, -0.160167, -0.100972, -0.126631, 0.077693, 0.103940, -0.175858, 0.029009, 0.070544, -0.031939, -0.041634, 0.169531, -0.014251, 0.114144, -0.036765, 0.138729, -0.046825, 0.002491, 0.048873, -0.128956, 0.062968, 0.038066, 0.031653, -0.130576, -0.069549, -0.099514, -0.053950, 0.050714, 0.008745, -0.016233, 0.155970, 0.029385, 0.068615, 0.073670, 0.014073, -0.031980, 0.161629, 0.079056, 0.087369, -0.108271, -0.091986, -0.018895, -0.071614, 0.081142, -0.149921, -0.005270, -0.021576, -0.058028, -0.058668, -0.036098, -0.014664, -0.137789, 0.009065, -0.034697, -0.103898, 0.042737, 0.112321, -0.084924, -0.125675, -0.143008, -0.002270, 0.054561, 0.064158, 0.275764, -0.020662, 0.014327, -0.019718, -0.007481, 0.040583, -0.073415, 0.129234, 0.062395, 0.022652, 0.120098, -0.048174, -0.015030, -0.164789, -0.082569, 0.092213, 0.011453, 0.093961, 0.044475, -0.104946, -0.085308, 0.345182, -0.007684, 0.145894, 0.112774, 0.096608, 0.185241, 0.069077, 0.178763, -0.197499, -0.106139, 0.167363, 0.133470, -0.023351, -0.177818, 0.091949, -0.165478, 0.126116, 0.024633, 0.245282, 0.141513, 0.126497, -0.006155, 0.238583, -0.065929, 0.064343, 0.185462, -0.012849, -0.067070, 0.143491, 0.087583, -0.142583, -0.130131, -0.240316, -0.050349, -0.044043, 0.114847, 0.115013};
#endif

#endif
