//Numpy array shape [64, 256]
//Min -0.317896217108
//Max 0.381070166826
//Number of zeros 0

#ifndef W3_H_
#define W3_H_

#ifndef __SYNTHESIS__
model_default_t w3[16384];
#else
model_default_t w3[16384] = {-0.153245, 0.006019, 0.000707, 0.014460, -0.048264, 0.005099, 0.013057, -0.008903, 0.075882, -0.006604, -0.079280, 0.080558, -0.134623, -0.009787, 0.019188, 0.087010, 0.011650, -0.060562, -0.071888, -0.076020, -0.004100, 0.078645, -0.054716, 0.169493, -0.028523, -0.079583, 0.018231, 0.114894, -0.013009, -0.059001, -0.008512, -0.003296, -0.143132, -0.084834, -0.010599, -0.044872, -0.067105, -0.063157, -0.003734, -0.018489, 0.039422, -0.005487, -0.006003, -0.177221, -0.076422, 0.024366, 0.052945, -0.033015, -0.014792, 0.011109, -0.001296, -0.055360, 0.041756, -0.026073, -0.052125, -0.117729, 0.006287, 0.017892, -0.028558, -0.008101, 0.004560, 0.000412, -0.104512, -0.136864, -0.058268, -0.040661, 0.003124, 0.102450, 0.040675, -0.030648, 0.081680, -0.001017, -0.001414, -0.011085, 0.048148, 0.007144, -0.024918, 0.041976, 0.210168, 0.005145, 0.110968, 0.130939, 0.105668, -0.039663, -0.028992, 0.214838, -0.033796, 0.088042, 0.054142, -0.009328, -0.006157, 0.022949, -0.001225, -0.100362, 0.000963, -0.043721, -0.113210, -0.043537, -0.065791, 0.051046, -0.009400, -0.026295, -0.006551, -0.103098, -0.107180, -0.000252, 0.095655, -0.020187, -0.072304, -0.099152, 0.049005, -0.011132, -0.012871, 0.036510, -0.053295, -0.031591, 0.056939, -0.114889, -0.157766, -0.101380, 0.029310, -0.091373, -0.021719, -0.009732, 0.017153, 0.000651, -0.065525, 0.008769, 0.004033, -0.015288, 0.075313, -0.066936, -0.001043, -0.072296, -0.000272, -0.022900, -0.042465, -0.059807, -0.013851, 0.024752, -0.014355, 0.102905, 0.018804, -0.120231, -0.163959, -0.031471, 0.065455, 0.056389, -0.059650, -0.060175, 0.004684, -0.018770, -0.073260, 0.011770, 0.063735, -0.081751, -0.042094, -0.155791, 0.098048, -0.051795, 0.077064, 0.057111, -0.074911, 0.037624, -0.091854, -0.052493, -0.010390, 0.010075, -0.016122, 0.001172, 0.014258, 0.161234, -0.061948, 0.050175, 0.079990, 0.075373, 0.108669, 0.034948, 0.077217, -0.033574, -0.095968, -0.087519, 0.094083, 0.017679, -0.089876, -0.146560, 0.086040, -0.016839, 0.025987, -0.079567, 0.093391, -0.055694, -0.066545, -0.098599, -0.005734, 0.017367, -0.135166, -0.105286, -0.088954, -0.017076, 0.070337, -0.181063, -0.025842, 0.046332, -0.053724, -0.069083, 0.161879, 0.118436, -0.008488, -0.027295, 0.092829, -0.052941, 0.003544, 0.046150, -0.145401, -0.034089, -0.055777, -0.173197, 0.040252, 0.070443, 0.054364, -0.109969, 0.010650, 0.034609, -0.070707, -0.068331, -0.022955, -0.086314, 0.025640, -0.137239, -0.030465, -0.102888, -0.008954, 0.039036, -0.016636, -0.167892, 0.004792, 0.018218, -0.121735, -0.058990, -0.146490, 0.081156, -0.108535, -0.015485, 0.080803, -0.076971, -0.210879, 0.002279, -0.106946, 0.044128, 0.037725, -0.039312, -0.085299, 0.001056, -0.040102, 0.018069, -0.091598, 0.137662, -0.002510, 0.013240, 0.012968, 0.196743, -0.031323, -0.011055, -0.049990, -0.006454, -0.034790, -0.018028, -0.090943, -0.226047, 0.050803, 0.102535, -0.027425, -0.195675, -0.035501, -0.068046, -0.101301, 0.010738, -0.013373, -0.043363, 0.006611, 0.066352, -0.024429, 0.019715, 0.010664, -0.017914, -0.135289, 0.019252, 0.051578, -0.011960, -0.027478, -0.003162, 0.012278, -0.007898, -0.001147, 0.050613, 0.047852, 0.016233, -0.147909, 0.000173, -0.150629, 0.016440, 0.037429, -0.060836, 0.095949, 0.113095, 0.004206, 0.027122, -0.014948, -0.060395, -0.070950, -0.020951, 0.059462, -0.028863, 0.229918, 0.119402, -0.052171, -0.000754, 0.017188, -0.001229, 0.002228, 0.000515, 0.007844, 0.011185, -0.104871, 0.076961, -0.060732, -0.009081, 0.004076, 0.013845, 0.084852, 0.032619, -0.009249, -0.077465, 0.050660, -0.023988, -0.107636, -0.024578, -0.074203, -0.130016, -0.009964, 0.032892, 0.008839, 0.042567, 0.034977, 0.069115, -0.003378, 0.035250, 0.003787, 0.043791, -0.012534, -0.096174, 0.086945, 0.016852, 0.047367, 0.030128, 0.020773, -0.001606, 0.033565, -0.104670, 0.083811, 0.017673, -0.082849, -0.009638, -0.062590, -0.003607, 0.047733, -0.024102, 0.006799, 0.151188, 0.014114, 0.029510, 0.015162, -0.001355, -0.119062, -0.056290, 0.041902, -0.007856, 0.039803, 0.030748, -0.272766, 0.057654, -0.002122, -0.035663, -0.016957, 0.031287, -0.029182, 0.007064, -0.108113, 0.086985, -0.160487, 0.055299, 0.125496, -0.073786, -0.016583, -0.097846, -0.049691, -0.002208, 0.043085, -0.038386, 0.081158, 0.046673, 0.181358, 0.115838, -0.066539, -0.172936, 0.187324, -0.047189, 0.073046, 0.014639, 0.085439, -0.070924, -0.108242, 0.128933, -0.012883, 0.119055, -0.104934, -0.155818, -0.194405, -0.143202, 0.117066, 0.117587, 0.067992, 0.016642, -0.034316, 0.024081, -0.012433, -0.053260, -0.166827, 0.055777, 0.177065, -0.047449, 0.113437, -0.156592, 0.137633, -0.042822, 0.139930, -0.050523, -0.088624, 0.069252, 0.078825, 0.082845, -0.161796, 0.068992, 0.007798, -0.008855, 0.052766, -0.128173, -0.043645, 0.100921, -0.020193, -0.014429, -0.089318, 0.014216, 0.109981, -0.124452, 0.030800, 0.064942, 0.121848, -0.022738, -0.084170, -0.069771, 0.050484, 0.047901, 0.025047, -0.168851, -0.194039, -0.091089, 0.027306, -0.018818, 0.010252, 0.007225, 0.056729, 0.164430, -0.066956, 0.013947, 0.003256, 0.004508, -0.016206, -0.002860, 0.098731, 0.083444, 0.047836, -0.111250, 0.050902, 0.119857, 0.051226, 0.017180, 0.041233, 0.195460, -0.075488, 0.011971, 0.021253, 0.002960, 0.057632, -0.062703, -0.079454, 0.155866, 0.045181, -0.015269, 0.128421, -0.036888, -0.070478, -0.000926, 0.041628, -0.083307, 0.156684, -0.035619, -0.187543, 0.063784, -0.045426, -0.080753, -0.202292, -0.100338, -0.042112, -0.058336, -0.006396, -0.089006, 0.071580, 0.025767, -0.097994, -0.098978, -0.049246, 0.019247, -0.061142, -0.033978, -0.013620, -0.077174, 0.047463, -0.063632, 0.108218, -0.011450, -0.000843, 0.163432, -0.047172, -0.022392, -0.139805, -0.057494, 0.066021, 0.022775, 0.054163, 0.024873, -0.045073, -0.046159, -0.020411, -0.011886, -0.048025, -0.129495, -0.162450, -0.005744, -0.006389, 0.001921, -0.185836, 0.118401, -0.083565, -0.107802, 0.006229, -0.043648, 0.088372, 0.003637, 0.031391, -0.112657, 0.026237, 0.004338, 0.027129, -0.002449, -0.043490, 0.042674, 0.013449, 0.034160, 0.084408, 0.005129, -0.088312, -0.030448, -0.097454, -0.132281, 0.088128, 0.014333, -0.008044, 0.002857, -0.005748, 0.048321, 0.016880, -0.060828, 0.008871, -0.017676, -0.003648, -0.001298, -0.004213, 0.010365, 0.001624, -0.018548, 0.002488, 0.001452, 0.066115, -0.099964, -0.013164, -0.005532, -0.067695, -0.084748, -0.001946, -0.035416, 0.011406, 0.034462, 0.154408, 0.159064, -0.022807, 0.025220, 0.035126, 0.077717, 0.064442, -0.071839, -0.104797, 0.008668, 0.043829, 0.108694, -0.085675, -0.040189, -0.051328, 0.008816, -0.046720, -0.038082, 0.083716, 0.042259, 0.111816, -0.061882, -0.072271, -0.130993, 0.105031, 0.001582, 0.067662, -0.000034, 0.036792, 0.045346, -0.066364, 0.003925, 0.073969, -0.033892, 0.017523, -0.085208, 0.060859, 0.151835, 0.044881, -0.013591, 0.019383, 0.071429, 0.105031, 0.025669, 0.046316, -0.128704, -0.045136, 0.114431, 0.077824, 0.009911, -0.043984, -0.052741, 0.128735, -0.114985, 0.106731, 0.122441, -0.080683, -0.041998, 0.029000, 0.036140, 0.032678, 0.116255, 0.133588, 0.078185, 0.063176, 0.072821, 0.086061, 0.033774, -0.131453, -0.037920, -0.024367, 0.002521, 0.056262, 0.117718, -0.118413, 0.124695, -0.107578, -0.019632, -0.165781, -0.065622, -0.076058, 0.069489, -0.096297, -0.041976, 0.003660, -0.140155, 0.083987, -0.057460, 0.130370, 0.053122, 0.017221, -0.037529, 0.045170, -0.046834, 0.087574, -0.004519, 0.063478, -0.032494, -0.010415, 0.141688, -0.068861, -0.030274, -0.148842, -0.111482, -0.049420, -0.078916, -0.093927, -0.013238, -0.013905, -0.001238, 0.021120, 0.001898, -0.077503, -0.199292, -0.136120, 0.052135, -0.078327, 0.042362, -0.167401, 0.024835, -0.121422, 0.144447, -0.004693, -0.075186, 0.004179, -0.083126, 0.107927, 0.091113, 0.065760, 0.008716, -0.069367, 0.031493, -0.003045, 0.024060, -0.108789, -0.057179, 0.014469, -0.006524, -0.063288, 0.083401, -0.098781, -0.105712, -0.200364, -0.102587, -0.127275, -0.180896, 0.011328, -0.059534, -0.013569, -0.144292, 0.017763, -0.199475, 0.008546, -0.042653, -0.082771, 0.059293, -0.095700, -0.058616, -0.065388, 0.022332, -0.113204, -0.035819, 0.019828, -0.181844, -0.198860, -0.317896, -0.013845, 0.084706, 0.006197, -0.077987, -0.015336, 0.146449, 0.002574, -0.022506, -0.059915, 0.186669, -0.007202, 0.078711, 0.021481, 0.140377, -0.052435, 0.002845, -0.065713, 0.185713, 0.049370, 0.089050, 0.057650, 0.003898, 0.103294, -0.046909, 0.133539, -0.044269, 0.013287, -0.003878, 0.035268, -0.006929, -0.157150, -0.017413, -0.249043, -0.129943, -0.070828, -0.008267, 0.050552, 0.000682, -0.156447, -0.132673, -0.046298, -0.000866, -0.152355, -0.121276, -0.162814, -0.085003, -0.224864, -0.054434, -0.014570, -0.002592, -0.003559, 0.040123, -0.037438, -0.007265, -0.041714, 0.025194, -0.151853, 0.003784, -0.184287, 0.034032, -0.025529, 0.050922, -0.192507, -0.063335, -0.002802, -0.000919, -0.011239, 0.021556, -0.029536, 0.122283, 0.077775, -0.001895, -0.009683, 0.075110, 0.083346, 0.031859, 0.036954, 0.016516, 0.107804, -0.006487, 0.072394, 0.077191, 0.084492, 0.104342, 0.018241, -0.038973, 0.025711, 0.190022, 0.037526, 0.012724, 0.060213, -0.025994, 0.147176, -0.014189, -0.035206, 0.103302, -0.134507, -0.023714, -0.046362, -0.001547, 0.040269, 0.073347, -0.010127, -0.131777, 0.014309, -0.009650, -0.078653, -0.019127, 0.111891, 0.022505, -0.046589, -0.026822, -0.001364, 0.006501, 0.015689, -0.054721, -0.207973, 0.066437, 0.022454, 0.008848, 0.025798, 0.126767, -0.093918, 0.053795, 0.028090, -0.057614, -0.000956, -0.078418, 0.014229, -0.089166, 0.028761, 0.046772, 0.116076, 0.074169, 0.100783, 0.101859, -0.045090, 0.086703, -0.077407, 0.035975, -0.079217, -0.096199, -0.176080, -0.080103, -0.179292, -0.106791, 0.022043, 0.005691, 0.120626, 0.111798, 0.100660, 0.098818, -0.132214, -0.039742, -0.006234, -0.136960, -0.113439, -0.089881, -0.127970, -0.076545, 0.007711, 0.071411, -0.151004, 0.112458, -0.055665, 0.064472, -0.107761, 0.010323, 0.075927, 0.081352, 0.187408, -0.075793, 0.139199, -0.110134, -0.069312, 0.022399, -0.104030, 0.018107, 0.009552, -0.012981, 0.110219, 0.046992, -0.003063, -0.132775, -0.009978, -0.038086, 0.029180, 0.051509, 0.106196, 0.100395, -0.087524, -0.117440, -0.035489, -0.004714, -0.000934, -0.108602, 0.025431, 0.033061, 0.017406, -0.030544, 0.046896, 0.113878, 0.075045, 0.046538, -0.054633, 0.048991, 0.143819, -0.040569, -0.024559, 0.116413, 0.033537, 0.098460, 0.145738, -0.057827, 0.186107, 0.013926, 0.162638, 0.133470, -0.052776, -0.045058, 0.204061, 0.115924, -0.039609, 0.078265, -0.092522, -0.057262, -0.133604, -0.006447, 0.017810, -0.003062, -0.043345, -0.035180, -0.053418, -0.020887, -0.135656, -0.087440, -0.038450, -0.114979, -0.188444, -0.000647, -0.005414, -0.044199, 0.129494, -0.001616, -0.198978, -0.004704, -0.031702, 0.022155, -0.151306, 0.025831, -0.162571, 0.021861, 0.070587, -0.015910, 0.094621, 0.177876, -0.023107, 0.021234, -0.039796, -0.012497, 0.013781, 0.001035, 0.120086, -0.041863, 0.001633, -0.114529, 0.026607, -0.016611, 0.079445, -0.098721, 0.024244, 0.108967, -0.109751, 0.106811, -0.051717, -0.069920, 0.035071, -0.001315, -0.045393, 0.042176, -0.035634, -0.052923, -0.043184, 0.076708, -0.044464, 0.080496, -0.025488, -0.076766, -0.032239, 0.122116, 0.105827, 0.037665, -0.066580, -0.002226, -0.008909, -0.019809, 0.103293, -0.060395, 0.076523, 0.036680, -0.005360, 0.053530, 0.155135, 0.238960, 0.082396, 0.020873, 0.050789, -0.047861, 0.072688, -0.230922, -0.101048, 0.037498, -0.032601, -0.000224, -0.011398, 0.028732, 0.000869, -0.002622, -0.114093, 0.217687, -0.105939, -0.006545, 0.000232, -0.027786, -0.044926, -0.047122, 0.005046, 0.127057, 0.021086, -0.114463, 0.042539, 0.036236, 0.044119, -0.111213, 0.077747, 0.084145, 0.044487, 0.107424, 0.003116, -0.164053, 0.045452, -0.017793, 0.005437, 0.032414, -0.058744, 0.003080, -0.118240, 0.001915, -0.009731, 0.024851, -0.122440, -0.003044, 0.055146, 0.091746, 0.029742, -0.008078, -0.036519, -0.019145, -0.005267, -0.018669, 0.162787, 0.014438, 0.061803, -0.022912, 0.055041, -0.042609, 0.143481, -0.006264, -0.017112, -0.121147, -0.115544, -0.023091, -0.016686, -0.000745, -0.073705, -0.046793, -0.004175, 0.000138, 0.029320, -0.004740, -0.061428, 0.020216, -0.003026, 0.117349, 0.028462, 0.003216, -0.092381, 0.076944, 0.031408, -0.014814, 0.035139, -0.039503, 0.007301, -0.096506, 0.021522, 0.046113, 0.038194, 0.034543, -0.052688, 0.001161, -0.085674, -0.157805, 0.162632, -0.168948, 0.073950, 0.012013, -0.076808, 0.065712, -0.061496, -0.042393, -0.131912, 0.104062, -0.067630, -0.098907, 0.043944, -0.138666, -0.040534, -0.057522, 0.011712, -0.006814, -0.005992, 0.015514, -0.099799, 0.103091, 0.051722, 0.056680, 0.079267, 0.118705, 0.041335, 0.058500, 0.089336, -0.051494, -0.034983, 0.063403, -0.008556, -0.076212, 0.065802, -0.003808, -0.041336, -0.089207, -0.151529, 0.092482, -0.007439, -0.037343, -0.024976, 0.090346, 0.005979, 0.216421, 0.060676, 0.017123, 0.015108, -0.011819, -0.010366, 0.002645, -0.048180, -0.000175, 0.010504, -0.023779, 0.029644, -0.034642, 0.004812, -0.051690, 0.122767, -0.039219, 0.049360, -0.030704, -0.014409, -0.135191, 0.133408, -0.033099, -0.112456, -0.044914, -0.054690, 0.005639, -0.223523, 0.087766, -0.015453, -0.028336, 0.057257, -0.001294, 0.076284, 0.107488, 0.061262, -0.013429, -0.029610, -0.082636, -0.002325, 0.046893, 0.053732, -0.000057, 0.015738, -0.013144, 0.016454, -0.006700, 0.161353, 0.024508, 0.032785, -0.033839, 0.013303, 0.011912, 0.043338, -0.189669, -0.035548, -0.129560, -0.073297, 0.041976, 0.039990, 0.109652, 0.000319, 0.009031, -0.094919, 0.023044, -0.003373, -0.004150, 0.039430, 0.017490, 0.008621, -0.002953, 0.022655, 0.066758, 0.120920, -0.103725, -0.135047, -0.122615, 0.056677, 0.000796, 0.000947, -0.088474, -0.071539, 0.027994, -0.067245, 0.020795, -0.055635, 0.054424, -0.100214, -0.080795, -0.035789, 0.020703, -0.022260, -0.167304, -0.119571, -0.071470, -0.124134, -0.148412, -0.208400, -0.018671, -0.085500, 0.034100, -0.013436, -0.032735, -0.173704, 0.007212, 0.017608, -0.001381, -0.043949, 0.085844, -0.144733, -0.138596, -0.060082, 0.162041, -0.012032, -0.167012, -0.000860, -0.030280, 0.006026, 0.008356, -0.030347, 0.073016, 0.006231, -0.097643, 0.030926, 0.000235, -0.010322, -0.007253, -0.002036, 0.017447, -0.067264, 0.043139, 0.005973, -0.038806, 0.001653, -0.006614, 0.000003, 0.014537, 0.029896, 0.007993, 0.015153, 0.021364, -0.009673, 0.039849, 0.034744, -0.011346, -0.068615, 0.014106, -0.020505, 0.033980, -0.022718, 0.072654, 0.044188, 0.015710, -0.085357, -0.000829, 0.045128, -0.002674, 0.003654, 0.015751, -0.003708, -0.021324, 0.001935, -0.010253, -0.007482, -0.038770, 0.032605, -0.002122, -0.138052, 0.001933, 0.065907, 0.002206, -0.094563, -0.100736, 0.066001, 0.023288, 0.010998, 0.083974, 0.000826, -0.037973, -0.013965, -0.044919, -0.026443, 0.000373, -0.005687, -0.095018, 0.016783, -0.000178, -0.060079, 0.033776, -0.031566, 0.000222, -0.123751, 0.078548, 0.038158, -0.039855, 0.134208, -0.098246, 0.028236, 0.037028, -0.046199, -0.102798, 0.043668, 0.065551, -0.047802, 0.023301, 0.078142, -0.032053, 0.020003, 0.099048, -0.108187, -0.007636, 0.057399, -0.021264, 0.151562, -0.106157, 0.108632, -0.011847, 0.055624, -0.061626, -0.105389, 0.140781, 0.143954, 0.119837, -0.021402, 0.024839, -0.120303, 0.166173, -0.063951, -0.085553, -0.097108, 0.008623, 0.097155, 0.009520, -0.082985, -0.083642, 0.027743, -0.043563, 0.147262, 0.005083, 0.075288, -0.000145, -0.093577, 0.097032, -0.082969, -0.000302, -0.053064, 0.008688, 0.024171, 0.043899, 0.099370, -0.074760, -0.011874, -0.043303, 0.090169, 0.046228, 0.049758, -0.119241, -0.005493, 0.012046, 0.095942, -0.033550, -0.018025, -0.014024, -0.046475, -0.001277, 0.083987, 0.017728, -0.073038, 0.038875, 0.038011, 0.012332, 0.033255, -0.153879, -0.108377, 0.070212, -0.006409, 0.023157, -0.032461, 0.001152, 0.025705, 0.070597, -0.051614, -0.113128, 0.052666, -0.120555, -0.098473, 0.027878, -0.101191, -0.115990, -0.047776, -0.060653, 0.058840, -0.003653, 0.002099, -0.073951, -0.050653, 0.013182, -0.017498, -0.019230, 0.070512, -0.000856, -0.103732, -0.096001, -0.157159, -0.007140, -0.014454, -0.245371, 0.004476, -0.085650, -0.225951, -0.078610, 0.034452, -0.052091, -0.004004, -0.059989, -0.068216, -0.013287, -0.001214, -0.084155, -0.071915, -0.068836, -0.018605, -0.075905, -0.134300, 0.085486, -0.082717, -0.019095, -0.007623, -0.024802, 0.003640, 0.013295, 0.017690, -0.058298, 0.037381, -0.105484, 0.069641, 0.001427, -0.084076, 0.006725, 0.002652, 0.032908, -0.026170, 0.050416, 0.047337, -0.030730, 0.067450, 0.141132, -0.003625, -0.004941, 0.023665, 0.018185, 0.117561, -0.087425, -0.088785, -0.123704, -0.032031, -0.001494, -0.020597, 0.109588, -0.025565, 0.022376, -0.038670, 0.028322, 0.008322, 0.001823, 0.161416, -0.036290, 0.185887, -0.071638, 0.004333, -0.014023, -0.027941, -0.081120, 0.029697, 0.003311, -0.032038, -0.001641, 0.023295, 0.000764, 0.026915, -0.063558, -0.055282, -0.047080, -0.039248, 0.059647, -0.076845, 0.039956, -0.049833, 0.089954, 0.018259, 0.000384, 0.078545, -0.099648, -0.001814, 0.026418, 0.010931, 0.016301, -0.002442, -0.009161, -0.072927, -0.019634, 0.233808, -0.010058, 0.003070, -0.029863, -0.014541, -0.111444, -0.009409, 0.008231, 0.011029, 0.098363, -0.003097, 0.113752, 0.016935, 0.006157, 0.064006, 0.015029, 0.074908, -0.013827, -0.016935, 0.000632, 0.001547, 0.023996, 0.044748, -0.011106, -0.118648, 0.002301, 0.057783, 0.076293, 0.044796, 0.070075, 0.242227, -0.030239, 0.078216, 0.013310, 0.018269, 0.004977, 0.017110, 0.004166, 0.059348, 0.020876, 0.019342, -0.000553, 0.000940, -0.013472, 0.055892, -0.168966, 0.097171, -0.000796, -0.056961, -0.001126, 0.087345, 0.161354, 0.103936, 0.093480, 0.047349, 0.063667, -0.075868, -0.094627, -0.085810, 0.017452, 0.063626, -0.066877, 0.016440, 0.000670, 0.061039, -0.060440, 0.090008, -0.081352, 0.119730, -0.049316, 0.057363, -0.053471, -0.014265, 0.023973, -0.056001, 0.013078, 0.124389, 0.103058, 0.019969, -0.123244, -0.058576, -0.015312, 0.043873, -0.121533, 0.024495, 0.118689, -0.036927, -0.110535, -0.069254, -0.087796, -0.165652, 0.061647, 0.141578, 0.050872, 0.100294, -0.047921, 0.085243, 0.080127, 0.034631, 0.083968, 0.026076, -0.102049, -0.035078, -0.118827, -0.034655, -0.070887, 0.058272, -0.050803, -0.076137, -0.032426, -0.044910, 0.009616, -0.003966, -0.001415, -0.086176, -0.066157, -0.125888, 0.012153, -0.068376, -0.090708, -0.001592, -0.074623, 0.041677, -0.010785, -0.008471, -0.003544, -0.016220, -0.132453, 0.061684, 0.038938, 0.060962, 0.017004, 0.005821, -0.068815, 0.056845, 0.041778, 0.103735, 0.047242, 0.029148, 0.018259, 0.084059, 0.067140, 0.009337, 0.096730, -0.030225, -0.149925, -0.054005, -0.014469, -0.010887, 0.124251, -0.059409, -0.076313, -0.131157, -0.009976, 0.065230, -0.011540, -0.021135, 0.001277, 0.164135, -0.014389, 0.006026, 0.021951, -0.110556, -0.005106, -0.017759, 0.006052, -0.052032, 0.096991, -0.012450, 0.000697, -0.120862, 0.002708, -0.002425, -0.171824, -0.056251, 0.015929, -0.016729, 0.003303, 0.053477, 0.001834, 0.012409, 0.127120, -0.014348, 0.067610, 0.002922, -0.036787, -0.007623, -0.023233, -0.018573, 0.003852, 0.172172, -0.019455, -0.032393, 0.011080, 0.023812, -0.089361, -0.000366, 0.000743, 0.089576, 0.007128, 0.049125, 0.003315, -0.006549, 0.028238, 0.005818, 0.097817, -0.036618, -0.165267, 0.032092, -0.044440, -0.081082, -0.067054, 0.052031, -0.024420, -0.135056, 0.009222, -0.014876, -0.033807, 0.090102, -0.022986, 0.069408, 0.084122, 0.044395, -0.012131, -0.012093, -0.035169, 0.022147, -0.031295, 0.022024, -0.004508, -0.005355, 0.043017, -0.001339, -0.005836, -0.079408, 0.070712, 0.020442, -0.036050, -0.004519, 0.076091, -0.005680, -0.023547, 0.009390, -0.082163, 0.087762, -0.028703, -0.024837, 0.011672, 0.007030, -0.139418, 0.011354, -0.083089, 0.003429, 0.127711, 0.042638, 0.007716, 0.044818, 0.175760, 0.028599, -0.032980, 0.000905, -0.026325, 0.012174, -0.067666, 0.024770, -0.081368, 0.092332, 0.004963, -0.000533, 0.034382, 0.083178, -0.103231, 0.057409, -0.065334, 0.028998, -0.000771, 0.004988, -0.141302, -0.106960, -0.012047, -0.030943, -0.003041, 0.055118, -0.004625, 0.049656, -0.015529, 0.041236, -0.207629, 0.000247, -0.082135, -0.160462, -0.014624, 0.123865, 0.046418, -0.007693, 0.002233, 0.013967, -0.000293, 0.010018, 0.001793, -0.000498, -0.025575, 0.098414, 0.092543, 0.088033, -0.055776, -0.076488, -0.098253, 0.069905, -0.022386, -0.037955, 0.041391, 0.029092, 0.028109, -0.062580, 0.130479, 0.006538, -0.129973, -0.066633, 0.043573, -0.077904, -0.185843, -0.038851, -0.132681, 0.159461, -0.007972, -0.016065, 0.080536, -0.065378, -0.138755, 0.033738, -0.045125, -0.132498, -0.104540, 0.120298, -0.017444, 0.122119, -0.001765, -0.026472, -0.146819, 0.097141, 0.020182, 0.102946, 0.019076, 0.025722, -0.000294, 0.054820, -0.023746, -0.006585, -0.018978, -0.069357, -0.075117, -0.067930, 0.042297, 0.080404, -0.081538, 0.064234, -0.032203, 0.066184, -0.173024, -0.004690, 0.044356, -0.088284, 0.050973, -0.003465, 0.095880, -0.028618, -0.008817, 0.060129, -0.007031, 0.037488, 0.129603, -0.073436, 0.161225, 0.060767, 0.102301, 0.020986, -0.009134, -0.016408, -0.017358, -0.040882, -0.021617, 0.094053, -0.026408, -0.179283, -0.038406, 0.017937, -0.070578, -0.071637, -0.061604, -0.048153, 0.048357, 0.120313, -0.007347, 0.146406, 0.106641, 0.025239, 0.014414, 0.040330, -0.168749, 0.040135, -0.001468, 0.126986, -0.062461, 0.040036, 0.008329, 0.008258, 0.035396, 0.018508, 0.108216, 0.131828, 0.074418, 0.002265, 0.041288, 0.096237, -0.129033, -0.044762, -0.008170, -0.068908, -0.036541, 0.139450, -0.103795, 0.081097, 0.016221, 0.001873, -0.085342, -0.081161, 0.014789, -0.044314, 0.079154, 0.084400, 0.091318, -0.033740, -0.021875, 0.001324, 0.058859, 0.006958, -0.049421, 0.003860, -0.008071, 0.044987, 0.138865, 0.058521, 0.048082, -0.027082, -0.022031, 0.110215, 0.064670, 0.138586, 0.002600, -0.030893, 0.002282, 0.003728, 0.111581, -0.035500, 0.038787, -0.008345, 0.188036, -0.071929, 0.055884, -0.061587, 0.075755, 0.031291, 0.113162, -0.051673, 0.008846, 0.079351, 0.006921, -0.008794, 0.005970, 0.177886, 0.002799, -0.078098, 0.082190, -0.097203, 0.126388, 0.014643, -0.022745, 0.182349, 0.174331, -0.008952, -0.024369, 0.191557, 0.084732, 0.024164, -0.001159, 0.018484, 0.078918, 0.020408, 0.072389, -0.007670, 0.047353, 0.166943, 0.011087, 0.126913, 0.001564, 0.012161, 0.012973, 0.001691, -0.053936, 0.163108, -0.058702, -0.025825, -0.014127, 0.025463, -0.025456, 0.065638, 0.040532, 0.006071, -0.019557, -0.025124, -0.035188, 0.216156, -0.004723, -0.012689, -0.197839, -0.039692, -0.101917, -0.027683, 0.122209, -0.063793, 0.012619, -0.042281, -0.008394, -0.012951, -0.016566, 0.087638, 0.079284, -0.010724, 0.084928, 0.000552, 0.007994, -0.029574, -0.009411, 0.094898, 0.050544, -0.015152, 0.001642, 0.092411, 0.147100, 0.004216, -0.006934, 0.176834, 0.044607, 0.038404, 0.047034, 0.107706, -0.002351, -0.048459, 0.082238, 0.049500, 0.077500, -0.020676, 0.003707, -0.022400, -0.055441, -0.000368, 0.000631, -0.138663, -0.106164, 0.056383, -0.136966, 0.020613, 0.011306, 0.060929, -0.073917, 0.023579, 0.037862, 0.053100, 0.117310, -0.112056, -0.092624, -0.033664, 0.044402, -0.053630, -0.039691, -0.052429, -0.161985, -0.045144, -0.168497, 0.064473, -0.024797, -0.043818, 0.042140, -0.071973, 0.043223, 0.118392, 0.023714, 0.069005, -0.001873, -0.101799, -0.011436, 0.092931, -0.061739, -0.078179, 0.027441, 0.001487, -0.053556, -0.142654, 0.017489, -0.065161, -0.017085, 0.108738, -0.099384, 0.110300, -0.052235, 0.122889, 0.009550, 0.118345, -0.089387, 0.016575, 0.077286, 0.071961, -0.023521, 0.064357, 0.025476, -0.204647, 0.118277, -0.116746, -0.011804, 0.099656, 0.036035, 0.164973, -0.003838, 0.005803, -0.006224, 0.010401, -0.114128, 0.035959, -0.027138, -0.023240, -0.195594, -0.054822, 0.016036, 0.000815, 0.008273, 0.015911, -0.001705, -0.042735, 0.041906, 0.213677, -0.008275, -0.007499, -0.022597, -0.063546, -0.071516, -0.018531, 0.069500, 0.114440, 0.015479, 0.001389, -0.035676, 0.036231, -0.018020, 0.019398, -0.000549, 0.068104, 0.040779, -0.036321, -0.022767, -0.012636, 0.008129, 0.001720, 0.016304, -0.020170, -0.026263, -0.002933, 0.166856, -0.032288, 0.052250, 0.173044, -0.044855, -0.007485, 0.115794, 0.141340, 0.008181, 0.106444, 0.002638, 0.072101, 0.150913, 0.125181, -0.021039, -0.106095, -0.104981, 0.172119, 0.021957, 0.085430, 0.085695, 0.137304, -0.004079, 0.016571, 0.138102, 0.119524, -0.056042, 0.085146, 0.034706, -0.021264, 0.110121, 0.067049, 0.200048, -0.015880, -0.009667, 0.016884, 0.013538, 0.002054, 0.047128, 0.020102, -0.036854, 0.081042, 0.085666, -0.017446, 0.070659, -0.122554, 0.014825, 0.046229, -0.000378, 0.055901, 0.008330, 0.056886, -0.084412, -0.003080, -0.036313, 0.041073, -0.005561, -0.061514, 0.061760, 0.031034, 0.010773, 0.006472, -0.009106, 0.086824, 0.112653, 0.027428, 0.000878, -0.012899, 0.075030, 0.045636, -0.006442, -0.003535, 0.040400, -0.060324, -0.040080, -0.013528, -0.095523, -0.053779, 0.098981, -0.004640, -0.016534, -0.010040, 0.195545, -0.001194, 0.212071, 0.035756, -0.013734, 0.012914, 0.041956, 0.022884, 0.087833, 0.057765, 0.015552, 0.022572, -0.030183, 0.202390, -0.003501, -0.035473, -0.069591, 0.147323, 0.027639, 0.148020, 0.025622, -0.001892, -0.018910, 0.000257, 0.087149, -0.039324, 0.006822, 0.002618, 0.013524, -0.134805, -0.025632, 0.008543, -0.070556, 0.019610, -0.076141, -0.008299, 0.024131, 0.049836, -0.005166, -0.027790, 0.001169, 0.003766, 0.125411, 0.218597, -0.048400, -0.003423, -0.017038, 0.011803, -0.000781, 0.004044, 0.087525, -0.004211, 0.119900, 0.002344, 0.071815, 0.024572, -0.015319, 0.001036, -0.187397, 0.083145, 0.075836, 0.039713, -0.062058, 0.001023, 0.068071, -0.008072, 0.093899, -0.073240, -0.140877, -0.065378, 0.111453, 0.073241, 0.035812, 0.031225, 0.044396, 0.135360, 0.019989, 0.100686, -0.110559, 0.147316, 0.078244, 0.006636, 0.105072, 0.104209, -0.047122, -0.078554, -0.186995, 0.031369, 0.109659, -0.087916, 0.034752, -0.089981, 0.060145, 0.082019, 0.011323, 0.085673, -0.133047, -0.022155, -0.075187, 0.029614, -0.025266, 0.078896, 0.030700, 0.049003, -0.105297, -0.061387, 0.122420, 0.003318, -0.020788, 0.085006, 0.062691, 0.033786, 0.115199, -0.122316, 0.047169, -0.105578, -0.027553, 0.019758, -0.026914, 0.089564, -0.068402, 0.049536, 0.011164, -0.153847, 0.082464, -0.140394, 0.070284, 0.045843, -0.121077, -0.020135, 0.062577, 0.059651, 0.037737, 0.023144, -0.022176, 0.100760, 0.038865, -0.015870, -0.005346, 0.003867, 0.054859, 0.001498, 0.015359, 0.023567, -0.038373, 0.042029, 0.145035, 0.094618, -0.042662, -0.020547, 0.014106, -0.032224, 0.006383, 0.001697, -0.016736, -0.104210, 0.002504, -0.006659, 0.024559, -0.027137, -0.025196, 0.013166, -0.047304, 0.059502, 0.017661, -0.075078, -0.013110, 0.003245, -0.079482, 0.009310, -0.040653, 0.061059, 0.022759, 0.003726, 0.071184, 0.025263, -0.035404, 0.049860, 0.021702, -0.011469, -0.017987, -0.009904, -0.008387, -0.028814, -0.000343, 0.003883, -0.049140, -0.032046, 0.021663, -0.069180, 0.005612, 0.071141, 0.024219, 0.152316, 0.066480, 0.074995, -0.065848, 0.030113, 0.143189, 0.009432, 0.006719, 0.001212, 0.009015, 0.091384, 0.041238, 0.072438, 0.123417, 0.091767, 0.077434, 0.017728, 0.143268, 0.027467, 0.067177, 0.032744, -0.071418, -0.003989, 0.087232, 0.042583, -0.000602, 0.127764, 0.075876, 0.026786, 0.061178, 0.060207, 0.031183, 0.017259, 0.157004, -0.104733, 0.109822, 0.036908, 0.051949, 0.070293, -0.018964, 0.048305, -0.043899, 0.077233, 0.094051, 0.041224, 0.017022, 0.127638, 0.046555, 0.007293, 0.048001, 0.025188, 0.181502, 0.149546, -0.031366, 0.029567, 0.080930, -0.007396, 0.031309, 0.106193, 0.013618, 0.026586, 0.089264, -0.003019, 0.171766, 0.058465, 0.120489, 0.031525, 0.007712, 0.028423, 0.145970, 0.059686, 0.074947, 0.008769, 0.023110, 0.116571, 0.004127, 0.092803, 0.147994, 0.067311, 0.015584, 0.008377, 0.078253, -0.061996, 0.092613, 0.028348, 0.027444, 0.127198, 0.038472, 0.006828, 0.023426, -0.002193, 0.001439, -0.031523, 0.011993, 0.115628, 0.044251, 0.029446, 0.076274, -0.010478, 0.088925, 0.144721, 0.007861, 0.006381, -0.012242, 0.151202, -0.007261, -0.025228, 0.033932, 0.066155, 0.071653, 0.117063, 0.047784, -0.107268, 0.157653, 0.000293, 0.209926, 0.052751, 0.025699, 0.050318, -0.022947, 0.082422, -0.060962, 0.055870, 0.019069, -0.064025, -0.075481, -0.067104, 0.081024, 0.119488, 0.137732, -0.014760, 0.077064, 0.122869, 0.071282, 0.034842, -0.007300, 0.002352, 0.078209, 0.101969, 0.059116, 0.024799, 0.085522, -0.149133, -0.085673, -0.018881, -0.111782, 0.061088, -0.102795, -0.057678, 0.102969, 0.116406, -0.044235, 0.051347, 0.010331, -0.007992, -0.124010, 0.017559, -0.122096, 0.063140, 0.013389, -0.004677, 0.057201, -0.070897, -0.043975, 0.047082, -0.075775, -0.080664, 0.073642, 0.086976, -0.059415, -0.050997, -0.109033, 0.086112, -0.063398, -0.064229, 0.119884, -0.067891, 0.090614, -0.125541, 0.090359, -0.148188, 0.063051, -0.088743, 0.000445, 0.104664, -0.113523, -0.005516, 0.081520, 0.107428, 0.068837, -0.109477, 0.060133, 0.004311, 0.153616, -0.019808, 0.002592, -0.019088, 0.098115, -0.001061, -0.072588, -0.018969, -0.013840, 0.089113, 0.059961, 0.130390, 0.207572, -0.015032, 0.173694, 0.269511, -0.050514, -0.018428, 0.023573, 0.126299, 0.025072, 0.016409, 0.069366, 0.201842, 0.063969, 0.064974, 0.015263, 0.011789, 0.008517, 0.116841, 0.064306, 0.119454, 0.216798, -0.085353, 0.001355, 0.074802, -0.003923, 0.007982, -0.047140, 0.116270, -0.045768, 0.064659, 0.024405, -0.096300, -0.028626, -0.013643, 0.033179, -0.077747, 0.101697, 0.150369, -0.022077, 0.004474, 0.116504, 0.043011, -0.034359, -0.015842, 0.149291, -0.013575, 0.057126, 0.123857, -0.017382, 0.000230, 0.116807, 0.091366, 0.002182, -0.128434, -0.002497, 0.054758, 0.029736, 0.002238, 0.118657, -0.022680, 0.140291, -0.020923, -0.030570, -0.043998, 0.006570, -0.185747, 0.014457, 0.190522, 0.000571, -0.001882, 0.121380, 0.059523, -0.027145, -0.062312, 0.006124, -0.023822, 0.012515, 0.021444, 0.010295, 0.032831, -0.027092, -0.013891, -0.001748, 0.016625, -0.095552, -0.032519, 0.131944, -0.093571, -0.040850, 0.016756, -0.024347, -0.069642, 0.110047, 0.040107, -0.039186, 0.024932, -0.011619, 0.004265, 0.006277, -0.070702, 0.008450, -0.001578, 0.011051, -0.037576, -0.017941, 0.165103, 0.049467, 0.064708, -0.001610, 0.007876, -0.136627, 0.011676, 0.035917, 0.106977, -0.007823, 0.075544, -0.072507, 0.007348, -0.109466, 0.000161, 0.078245, -0.009522, -0.006878, -0.056210, -0.015239, 0.039747, -0.015711, 0.021006, 0.077962, -0.006072, 0.006786, -0.016141, -0.021857, -0.052255, -0.064086, 0.017203, 0.011674, -0.043040, -0.117505, 0.064465, 0.066234, -0.000068, 0.028667, 0.153633, -0.009256, 0.041405, -0.064694, -0.006537, 0.006264, 0.106658, -0.031260, -0.003410, 0.025755, -0.000223, 0.010797, 0.000478, -0.006034, -0.064815, 0.109678, -0.005792, 0.002464, 0.116274, 0.026940, 0.035379, -0.042322, -0.063477, 0.052526, -0.044258, -0.009450, 0.020187, -0.043315, -0.002034, 0.013428, -0.011816, -0.004760, -0.146262, 0.033509, 0.002648, -0.097907, -0.005479, 0.124399, -0.135083, -0.084748, 0.043349, 0.013659, -0.009199, -0.015406, -0.055128, -0.024796, -0.078638, -0.051451, -0.014742, 0.093469, 0.098815, 0.040009, -0.082492, -0.080282, -0.173913, -0.064004, 0.058354, -0.093632, 0.092523, 0.103380, -0.106145, 0.099566, -0.101710, -0.124147, 0.034099, 0.121975, -0.001485, -0.003735, 0.012012, 0.032261, -0.067711, -0.029752, -0.098877, 0.023834, 0.046703, -0.045360, 0.095978, -0.002557, -0.024408, -0.067401, 0.067753, -0.002637, -0.085535, 0.060536, 0.095685, 0.109033, 0.016514, -0.027492, -0.129743, -0.121983, -0.057574, 0.126812, 0.075362, -0.178758, -0.066183, 0.013570, 0.013014, -0.040338, -0.074003, 0.006601, 0.082635, 0.006564, 0.074739, -0.005470, 0.069633, 0.018900, -0.026985, 0.150826, -0.016527, 0.033613, -0.004229, -0.047958, -0.000344, -0.055318, -0.138230, 0.025178, 0.100139, -0.028344, -0.086227, -0.145693, 0.008586, 0.016237, 0.030223, -0.035747, -0.013054, 0.022729, 0.035899, 0.010506, 0.049800, 0.029158, 0.119080, -0.022979, 0.000011, 0.057264, 0.013614, -0.063295, 0.011003, -0.037328, 0.053920, -0.010069, 0.013664, -0.021144, -0.043944, 0.000111, 0.011644, -0.027245, -0.019968, -0.029560, 0.171130, -0.106485, -0.006667, -0.019805, -0.077323, 0.098620, 0.019493, -0.051266, -0.025158, 0.080005, 0.005271, -0.131897, 0.005123, 0.017224, 0.020520, 0.026122, -0.009004, 0.142898, 0.006515, 0.036989, -0.011382, 0.111303, 0.021039, 0.120199, -0.013211, 0.163335, 0.029511, -0.045868, -0.004730, 0.031092, -0.039898, -0.071980, 0.052316, -0.031973, 0.149312, -0.000326, -0.115610, -0.013612, 0.054425, 0.004772, -0.006088, -0.039770, -0.025937, 0.036734, 0.078226, 0.003858, 0.067178, -0.046226, 0.079492, 0.064945, -0.091620, 0.036350, 0.078778, -0.003305, -0.000922, -0.001826, 0.158914, 0.097318, 0.117983, 0.083177, 0.007693, 0.025807, 0.081370, -0.003031, 0.164057, 0.117630, 0.010493, 0.154198, 0.047282, 0.022475, -0.056984, 0.003834, 0.060366, -0.075194, 0.017500, 0.108856, 0.099751, 0.078010, -0.041740, 0.013247, 0.044663, -0.074969, 0.001748, 0.002459, 0.001933, 0.026795, 0.041515, -0.006768, -0.054333, 0.015941, 0.010812, -0.019042, -0.061184, 0.045976, -0.006022, 0.007328, -0.053438, 0.023826, -0.010922, 0.065670, 0.000926, -0.015656, 0.156098, -0.011928, -0.088853, -0.030552, -0.002375, 0.020689, 0.016811, 0.006110, -0.014916, 0.038625, 0.104058, 0.164779, -0.003742, 0.086884, -0.003461, -0.002123, 0.000614, -0.047888, 0.058047, -0.001768, -0.009325, 0.081732, 0.033091, 0.118146, 0.133193, 0.000194, -0.054487, 0.118283, -0.006964, 0.018055, 0.084134, -0.132599, -0.049375, 0.000998, 0.024478, 0.066878, -0.056193, 0.017010, -0.018630, 0.014406, -0.000830, -0.002873, -0.076565, 0.018288, -0.038138, -0.081815, 0.134704, -0.049348, 0.060131, -0.042479, 0.023220, -0.062940, 0.099328, -0.097449, 0.073312, 0.139558, -0.059589, -0.115553, 0.042405, 0.012734, -0.130385, 0.042471, 0.069790, -0.123904, 0.018106, 0.091322, 0.145697, 0.091205, -0.007804, 0.069621, -0.091599, -0.096465, 0.074114, 0.028904, -0.105016, -0.109277, 0.029362, 0.128807, -0.039345, -0.044747, 0.061171, 0.078980, 0.100809, -0.060317, -0.082946, 0.081290, -0.128340, -0.004129, -0.081196, 0.018663, -0.094630, 0.087370, 0.006786, 0.026643, -0.077636, -0.097238, 0.101015, 0.118120, 0.068667, 0.014564, -0.072450, 0.098395, -0.019336, -0.023421, 0.080577, -0.057062, 0.071053, 0.039696, 0.043901, 0.079705, 0.015097, 0.082267, 0.007544, -0.007458, 0.000190, 0.041859, 0.088952, -0.180358, -0.031773, 0.033542, 0.107591, -0.102378, -0.122416, 0.010558, 0.006130, 0.002120, -0.094076, -0.091402, 0.005074, -0.003344, 0.090536, -0.028255, 0.067609, -0.004104, -0.023066, -0.061349, 0.007156, -0.002306, 0.019457, 0.113549, -0.000785, 0.150221, 0.003407, 0.077451, 0.048143, -0.038031, 0.236856, 0.128721, 0.063606, -0.017844, 0.061218, 0.174244, 0.161755, -0.073135, 0.108758, 0.097852, -0.038634, -0.016909, -0.004011, -0.018915, 0.053016, -0.033061, -0.063696, 0.116342, -0.029747, 0.071625, 0.083036, 0.011480, 0.061580, 0.104575, -0.063231, -0.111477, 0.015462, -0.002849, 0.000893, -0.094279, -0.038660, -0.057397, 0.000487, -0.091947, -0.049440, -0.031770, 0.015185, 0.008224, -0.064878, -0.083637, -0.008904, -0.061524, 0.092059, -0.022099, 0.129869, -0.041859, -0.015942, -0.199757, 0.011686, -0.030268, -0.020032, -0.101440, -0.162014, 0.106193, 0.017455, -0.000127, -0.030112, -0.034931, 0.005825, -0.020125, -0.045349, -0.012248, 0.011402, 0.048808, -0.097571, -0.249662, -0.127749, -0.007359, 0.018554, -0.017781, -0.064435, -0.003282, -0.008861, -0.119513, -0.014226, -0.080900, 0.016965, -0.012982, 0.026788, -0.014527, 0.003774, 0.064258, -0.099301, 0.003078, 0.027445, 0.002212, -0.092616, -0.019016, -0.067362, 0.161499, -0.084789, -0.057518, -0.088627, -0.001758, -0.189129, 0.024851, -0.011017, 0.062658, -0.008662, 0.098429, 0.124488, -0.029817, -0.003917, 0.004318, 0.046143, -0.023361, 0.008329, 0.116664, 0.071258, 0.031621, 0.102812, -0.017402, 0.006586, 0.066367, -0.006768, -0.020113, -0.011468, 0.002675, 0.037686, 0.009189, -0.183712, 0.015961, 0.056444, -0.104361, 0.004408, -0.086290, 0.024720, -0.003289, 0.024483, -0.122555, -0.041160, 0.001003, 0.007551, -0.057212, -0.058591, -0.011937, -0.012915, 0.056212, -0.005948, -0.020739, 0.008530, -0.058517, -0.004005, -0.006822, -0.009125, -0.025662, 0.026790, -0.055007, 0.240801, 0.080870, 0.003105, 0.087653, -0.063022, -0.174512, 0.064423, 0.016941, 0.055091, 0.113887, -0.040735, 0.132564, -0.101445, 0.160640, -0.048012, -0.081847, -0.023603, -0.074028, -0.036213, 0.020750, -0.049422, 0.005658, -0.042806, -0.050244, 0.070261, -0.099702, 0.107548, -0.032152, -0.083699, 0.095982, 0.038114, 0.075652, -0.007103, 0.117264, 0.016202, -0.158286, -0.141944, -0.033637, 0.097036, 0.001289, -0.017388, 0.074699, 0.061478, 0.100615, -0.127271, -0.031798, 0.174265, -0.111147, 0.111101, -0.067733, 0.043056, 0.008243, -0.105893, -0.154839, -0.075656, 0.073302, 0.003886, 0.026726, -0.116033, -0.037473, -0.029396, -0.043303, -0.000598, 0.126394, -0.186604, -0.089947, -0.061178, -0.135551, 0.022042, 0.087613, 0.009949, -0.000025, -0.002459, -0.181155, -0.076025, -0.002687, -0.028431, 0.010729, -0.074865, 0.009616, 0.050790, 0.001307, -0.102259, -0.080345, 0.070046, -0.111255, -0.034407, 0.249639, 0.165055, 0.016217, -0.018935, -0.048986, 0.099980, -0.026359, -0.007376, -0.126477, -0.029674, -0.021487, -0.009743, 0.080788, -0.020484, 0.028248, 0.026758, -0.211314, 0.003338, 0.007754, 0.040386, 0.002943, 0.019140, -0.135353, 0.045458, -0.057499, -0.012612, 0.014911, -0.012652, 0.028213, -0.084281, -0.040476, -0.005614, 0.065311, -0.004739, 0.061060, -0.029514, -0.037535, 0.014303, 0.148078, -0.016285, -0.006744, 0.035027, 0.121892, -0.005077, -0.014666, -0.041562, -0.092242, 0.007766, -0.014169, 0.003257, -0.076032, -0.033692, -0.016565, -0.037444, -0.101520, 0.011013, -0.025135, -0.077461, -0.060692, -0.002835, -0.023966, -0.089807, -0.088885, 0.011422, -0.177944, -0.000878, -0.032925, -0.161028, -0.116387, -0.043950, 0.040011, -0.025741, -0.151733, 0.024147, -0.093709, -0.144332, 0.054955, -0.063365, -0.101721, -0.041971, -0.079476, -0.030364, 0.020488, -0.112898, -0.044388, 0.047208, -0.038495, 0.016133, -0.037096, -0.003106, 0.041398, -0.023392, -0.118610, -0.004704, -0.093844, 0.041871, -0.011120, -0.112780, 0.216632, -0.050717, 0.024072, -0.002148, 0.057732, -0.030462, -0.017467, -0.040880, 0.008357, -0.059251, 0.012250, 0.054850, 0.064334, 0.008120, -0.125455, 0.005668, -0.092485, -0.001666, -0.001832, 0.040318, 0.034964, 0.001825, 0.006924, 0.006713, 0.007591, -0.002768, 0.007400, -0.073892, -0.092948, -0.020943, -0.001637, -0.010478, 0.009539, -0.165674, 0.047442, -0.078487, 0.008880, 0.030438, 0.039582, 0.035171, -0.042475, -0.001020, -0.059537, -0.058125, -0.005133, -0.218917, -0.039747, 0.015083, 0.000545, 0.000279, -0.012589, -0.090591, 0.053286, 0.007700, -0.015457, -0.086501, 0.004976, -0.076365, -0.009539, 0.030839, 0.013168, 0.041715, -0.085946, -0.000594, 0.019449, 0.095900, -0.003695, 0.002251, -0.006098, 0.111674, -0.011355, 0.057681, 0.024108, -0.028841, 0.028516, 0.119274, -0.036020, -0.042811, -0.065741, -0.072664, 0.008004, -0.031438, -0.068044, 0.036548, -0.086101, -0.120142, -0.100835, 0.067841, -0.154162, 0.035819, 0.032113, 0.143053, 0.029760, 0.168818, 0.082723, 0.120778, 0.121016, 0.074627, 0.038277, -0.115740, -0.091516, -0.029045, 0.081691, 0.052540, 0.069015, 0.114878, 0.128693, 0.061105, -0.074885, -0.110845, -0.164553, 0.078162, -0.174707, 0.026242, -0.071079, -0.148553, 0.005178, -0.053265, -0.011601, 0.084540, -0.030593, 0.024614, -0.006160, 0.046042, 0.081833, 0.045453, -0.018424, 0.076046, 0.129994, -0.147533, 0.006482, -0.105767, 0.134601, -0.023781, -0.004061, -0.129551, 0.048891, -0.044653, 0.058551, -0.096086, 0.138667, 0.074402, -0.037912, 0.005675, -0.027074, -0.039692, -0.043032, 0.002598, 0.107067, -0.002852, -0.023462, -0.022449, -0.004581, 0.029820, -0.067311, -0.075091, 0.096627, -0.072356, -0.188420, -0.000579, -0.181594, -0.159633, -0.043848, -0.018375, -0.017514, -0.178736, 0.065633, -0.025769, -0.053099, -0.109547, -0.010123, -0.051772, 0.000751, -0.061246, 0.061572, -0.072029, 0.053333, 0.022816, 0.053053, -0.077217, -0.025958, 0.132747, -0.075405, 0.011978, -0.062001, -0.099252, -0.140706, -0.140352, -0.039439, 0.000519, -0.067339, -0.064259, 0.076788, 0.013877, -0.060937, -0.004404, -0.162948, 0.012311, -0.013124, 0.024395, -0.076467, 0.006131, 0.030206, -0.072852, -0.078162, 0.089910, -0.097008, -0.010628, 0.013954, 0.010045, 0.027383, -0.003463, 0.079724, 0.052698, -0.050946, -0.154753, -0.139704, -0.005769, -0.078178, -0.071594, -0.008655, 0.098184, -0.170979, -0.018134, -0.023874, -0.024896, -0.015921, -0.182184, -0.023530, -0.057968, -0.005298, -0.142142, -0.015631, 0.019408, 0.017344, -0.047254, 0.040845, -0.115656, -0.087181, -0.016275, 0.034854, -0.019801, 0.093817, -0.009700, -0.128341, 0.008273, -0.002151, -0.076251, -0.090176, -0.090676, -0.018783, 0.020156, -0.046811, 0.001726, 0.046310, 0.138888, -0.035523, 0.032149, -0.098355, -0.002286, 0.077897, 0.019662, 0.082981, -0.026103, 0.098365, -0.004477, -0.067538, -0.087941, 0.091628, -0.000406, -0.048676, 0.000005, 0.121297, -0.092387, -0.015279, 0.014777, 0.140487, -0.002544, -0.016665, 0.004282, -0.050051, -0.022627, 0.005530, 0.107447, -0.012854, -0.022784, -0.132874, -0.131799, -0.026854, 0.011006, 0.131296, -0.000875, -0.041784, -0.128845, 0.014337, -0.167759, -0.176229, -0.104703, -0.002904, -0.005469, 0.071388, -0.066185, 0.047741, -0.054779, -0.082963, 0.012108, 0.027794, 0.015875, -0.085492, 0.004326, -0.016169, -0.102039, -0.129860, -0.091006, -0.019601, -0.017487, 0.009407, 0.052487, 0.013843, -0.028567, 0.066117, 0.001215, 0.002936, 0.061866, -0.109373, 0.172015, 0.000576, 0.015121, 0.001536, -0.002097, 0.021597, -0.055065, -0.059439, -0.096992, 0.100854, 0.071079, 0.084844, -0.109699, -0.082721, 0.055056, -0.078577, 0.139276, -0.046318, -0.051677, -0.031985, 0.034291, 0.051373, -0.036272, -0.020173, 0.215106, 0.046041, -0.009130, -0.049820, 0.048053, -0.052519, -0.049469, -0.004867, 0.083996, 0.013154, 0.039229, 0.142309, 0.100332, -0.080123, -0.036181, -0.071249, 0.024915, -0.015152, -0.018992, 0.043746, 0.129907, -0.086312, -0.080585, 0.049296, 0.106734, -0.124528, -0.127519, 0.106718, -0.087733, 0.004585, 0.107160, 0.049776, -0.118680, 0.157021, 0.127375, 0.034111, 0.015826, -0.000252, -0.096369, 0.139793, -0.016211, 0.086499, 0.032249, -0.035446, -0.086019, -0.137121, -0.008528, 0.095661, 0.010974, -0.129707, 0.004017, -0.056922, 0.076177, -0.187200, -0.013519, -0.006575, -0.009687, 0.042068, -0.062885, -0.102470, 0.081543, 0.018942, -0.087084, -0.053742, 0.039855, 0.008451, -0.012717, 0.007031, -0.133630, 0.004200, 0.000105, -0.105042, -0.095363, 0.054194, 0.035781, -0.082420, 0.104399, 0.007483, 0.041774, -0.051863, -0.130899, -0.010974, -0.102853, -0.095938, -0.132214, 0.059377, 0.051465, 0.004493, 0.017937, -0.004654, -0.063825, 0.046754, 0.002571, -0.032502, -0.134978, -0.008644, -0.028170, -0.128506, -0.076551, -0.043801, -0.110423, 0.012558, -0.066555, 0.097891, -0.007571, 0.079326, -0.038402, -0.026443, -0.170585, 0.004519, 0.088831, -0.121135, 0.003106, 0.062619, -0.021360, -0.122384, -0.071302, 0.000466, -0.002688, -0.002011, 0.056700, -0.005561, -0.015534, -0.076048, -0.045332, -0.071963, -0.025456, 0.101762, -0.166345, 0.045985, 0.017161, 0.066009, -0.029393, 0.005838, 0.083664, 0.066864, 0.005820, -0.046458, -0.043296, 0.086246, -0.122699, 0.043022, -0.057910, -0.064704, -0.163554, -0.093047, 0.006742, 0.001088, -0.005280, -0.001283, -0.053584, -0.034825, 0.003390, -0.088802, 0.116525, -0.173679, -0.213376, 0.013754, -0.003669, 0.061464, 0.015552, 0.078298, 0.148416, -0.174035, 0.003034, 0.001086, 0.030002, 0.187286, 0.047742, -0.087240, -0.070887, 0.084294, -0.004848, -0.109724, 0.097878, -0.039648, -0.005861, -0.000254, -0.000569, -0.039527, -0.019016, -0.063320, -0.076151, -0.107488, 0.075865, 0.001492, -0.012309, -0.126462, -0.001792, 0.001969, -0.065370, -0.013100, -0.024061, -0.071589, 0.000751, 0.046747, -0.023969, -0.039697, 0.002679, -0.000750, 0.006304, -0.049678, 0.000672, -0.036878, -0.043537, 0.012629, -0.195650, -0.037354, -0.014896, -0.090540, 0.046629, -0.006305, 0.011271, 0.001258, -0.162530, -0.159830, 0.038631, -0.011826, -0.036270, -0.035647, -0.052443, 0.004622, -0.067249, 0.026592, -0.076793, 0.020315, 0.160159, -0.005226, -0.049240, -0.043069, -0.019492, 0.064007, 0.037627, 0.000565, -0.170073, 0.001205, 0.115983, 0.021829, 0.075178, -0.093923, 0.009551, 0.070513, 0.087636, -0.005721, -0.023969, 0.080481, 0.129059, 0.030473, 0.062013, 0.019263, -0.116452, 0.094621, 0.013951, 0.097611, 0.112942, 0.046177, 0.081879, 0.086796, 0.049409, 0.131273, 0.061364, -0.072529, -0.050175, -0.065785, 0.024524, -0.041236, 0.014774, 0.006472, 0.018887, -0.102969, 0.067015, 0.044944, -0.050824, 0.031518, -0.082607, -0.129437, 0.128001, -0.106660, -0.095730, 0.072058, 0.048562, -0.057095, 0.004357, -0.074960, 0.074958, -0.093558, 0.044305, -0.006995, 0.052582, -0.007760, -0.131191, 0.136625, 0.090293, -0.084326, 0.117276, 0.085385, 0.040051, 0.111187, 0.058843, 0.000223, 0.110176, 0.087020, 0.009801, 0.087065, 0.075289, 0.002094, 0.030153, 0.023766, 0.021295, -0.005602, -0.001850, 0.016447, -0.032632, -0.016775, -0.051606, -0.116380, -0.077061, -0.059303, 0.005218, -0.012937, -0.179925, 0.131195, 0.109838, 0.043701, -0.013735, 0.003599, 0.006593, -0.061194, 0.011674, 0.029335, 0.030510, -0.010408, 0.040950, 0.045577, -0.061775, 0.006630, -0.128436, 0.019283, 0.016792, 0.008993, 0.027142, -0.003049, -0.029618, -0.099408, -0.009412, -0.117912, 0.075012, -0.193708, -0.073850, 0.007534, -0.111120, 0.030173, -0.000518, 0.040535, 0.014602, -0.125068, -0.165061, 0.006559, -0.021903, 0.153933, 0.046664, -0.019711, -0.046929, -0.003187, -0.083314, -0.007750, 0.046544, 0.140794, -0.003990, 0.000278, -0.008562, 0.002259, -0.032206, -0.007850, -0.000083, 0.000664, 0.006438, -0.063305, 0.065041, -0.194068, -0.029219, -0.052647, 0.062401, 0.000157, -0.120915, -0.087348, 0.019781, -0.007865, 0.018866, -0.037740, -0.014381, 0.053589, 0.038253, -0.083468, 0.011648, -0.122984, 0.035925, -0.054023, 0.012972, 0.003991, 0.062085, -0.000359, -0.008920, 0.001831, -0.008651, -0.015746, 0.067059, 0.099900, -0.028621, 0.018165, 0.013596, 0.007032, 0.092346, -0.011233, 0.117938, 0.038930, -0.001985, -0.044538, -0.021812, -0.031933, -0.111209, 0.023632, -0.039897, -0.052598, -0.011177, 0.115471, -0.119877, -0.002583, -0.000852, 0.000778, -0.014372, 0.180142, 0.033517, -0.087211, 0.004170, -0.089124, 0.083715, -0.012129, 0.002449, -0.038316, 0.010133, 0.001515, -0.006682, -0.051053, -0.092472, -0.009350, -0.009144, -0.031486, -0.076239, 0.004383, -0.011307, -0.064550, -0.000564, 0.054502, -0.051601, -0.035779, 0.028587, -0.023213, 0.003107, 0.032001, 0.041555, 0.019378, 0.013040, -0.018583, 0.143929, -0.117392, -0.000909, 0.011482, 0.021005, 0.012122, 0.002949, 0.029020, 0.045393, 0.045114, -0.018135, 0.003168, -0.088067, 0.034751, 0.074027, 0.080922, -0.001153, 0.053025, -0.002795, -0.015853, -0.018439, 0.013023, -0.068366, -0.028483, 0.025904, 0.006382, -0.068908, -0.055231, 0.053504, 0.002618, 0.014295, -0.083134, -0.056482, 0.000133, -0.081547, -0.001185, 0.081089, -0.170844, 0.042979, 0.026967, 0.011403, -0.055763, -0.055090, -0.129659, -0.104302, 0.001128, 0.071892, 0.033919, 0.050956, 0.005095, -0.054519, -0.049162, -0.025924, 0.037582, -0.053110, -0.107707, -0.078203, -0.127637, -0.106046, 0.019918, 0.143699, 0.059694, 0.120441, -0.030937, 0.016441, 0.107303, 0.109739, 0.090850, -0.142612, 0.015363, 0.075714, 0.047112, 0.037974, 0.073385, -0.036987, -0.128384, -0.028226, 0.113169, 0.039684, 0.127724, 0.016190, 0.033930, 0.025173, -0.059045, 0.072951, -0.004297, -0.031370, 0.151908, 0.081493, -0.067281, 0.016392, -0.012333, 0.060273, 0.101949, 0.012323, 0.126068, 0.088092, -0.019933, 0.004258, 0.011352, 0.006152, -0.135084, 0.047434, 0.085477, 0.067112, -0.025217, -0.059301, -0.167434, -0.004068, -0.081020, -0.004928, 0.000888, -0.016515, 0.051249, -0.014940, -0.006313, 0.010081, 0.101352, -0.002132, 0.126036, -0.081944, -0.132612, 0.014864, -0.102305, -0.077360, 0.037185, 0.005739, -0.057023, 0.098076, 0.001714, -0.006655, 0.026193, 0.025244, 0.058943, 0.045455, 0.130439, -0.018874, 0.011251, 0.079576, -0.117953, 0.082410, -0.026983, 0.066979, 0.063010, -0.060343, 0.085137, -0.024720, -0.119181, 0.033765, 0.002442, 0.038318, 0.011123, 0.202860, 0.004512, 0.058769, -0.001045, -0.000709, 0.043306, 0.095895, 0.018073, -0.019209, 0.046882, -0.009733, -0.066092, 0.073967, 0.015823, 0.009304, 0.105445, 0.038608, -0.044613, 0.029851, 0.015119, 0.021002, 0.004214, 0.177475, -0.003186, 0.039992, 0.067952, -0.066231, 0.027259, 0.013485, -0.047788, -0.047211, -0.013362, 0.077670, 0.054213, -0.008582, 0.046104, 0.194683, 0.214555, 0.220347, 0.021801, 0.124098, -0.007394, 0.161854, -0.011371, -0.002149, 0.035659, 0.051648, 0.169262, 0.031279, 0.133266, 0.042667, -0.003448, 0.194585, 0.017752, 0.063378, -0.076262, 0.067933, 0.020098, -0.007943, 0.070587, 0.103029, -0.000396, 0.023442, 0.106655, 0.013112, 0.022497, 0.067794, 0.093515, 0.129085, 0.065003, -0.021129, -0.062028, 0.000460, 0.004477, 0.089008, -0.021357, -0.020063, -0.038721, 0.083417, 0.052869, 0.000529, 0.005602, 0.025546, -0.040928, 0.019107, 0.031197, 0.002300, 0.011194, 0.108336, -0.018312, -0.033886, -0.121424, 0.154813, -0.004472, -0.010636, 0.031488, 0.013538, -0.002221, 0.117937, 0.157238, 0.001919, 0.067280, -0.002460, 0.115459, 0.021930, 0.102269, -0.040726, 0.044115, 0.011296, 0.005022, 0.201663, 0.012768, -0.025672, -0.026959, 0.046104, 0.121614, 0.076640, 0.095341, 0.120771, -0.021090, 0.065000, 0.154674, 0.047601, -0.014624, 0.073761, 0.066553, 0.000494, 0.056842, 0.012401, 0.022500, -0.008861, 0.113336, 0.000337, 0.067695, -0.012326, -0.127250, -0.094692, -0.053710, -0.023126, 0.014352, 0.045790, -0.074038, -0.054863, -0.063766, -0.000211, 0.028999, 0.042715, 0.145180, 0.022214, 0.107239, -0.096877, -0.075780, -0.092107, -0.106145, 0.022441, -0.147841, 0.122652, -0.098454, -0.091269, 0.043323, -0.102866, 0.078778, 0.027868, 0.126689, 0.034235, 0.026601, 0.029592, -0.117061, 0.104520, -0.059432, 0.095362, 0.131094, 0.007360, -0.066239, -0.043008, 0.130004, 0.051801, -0.113596, 0.068183, 0.121415, 0.128579, 0.009791, -0.070275, -0.135829, -0.064572, -0.059405, -0.001078, 0.024913, -0.032923, 0.088175, 0.008495, -0.126837, -0.004508, -0.068017, 0.092449, 0.070199, 0.050056, 0.067489, 0.040415, 0.021327, 0.096979, 0.144622, 0.135892, 0.025237, 0.160128, 0.035323, -0.039908, -0.000791, 0.120199, 0.053561, 0.124695, 0.025839, -0.043598, 0.096309, 0.124777, 0.097862, 0.245403, -0.034468, -0.032924, -0.011240, 0.050565, 0.047295, -0.019378, -0.076487, -0.002099, 0.002583, -0.001674, 0.095131, 0.020636, 0.033978, 0.173609, 0.026931, 0.053735, 0.073410, -0.067985, -0.016467, 0.069516, 0.031419, 0.083026, 0.126077, -0.002604, 0.070891, 0.071265, 0.022382, 0.089941, 0.079754, 0.156524, -0.000353, -0.011163, 0.023912, 0.108444, 0.030046, 0.146835, 0.002983, -0.018765, 0.014228, -0.011945, 0.181555, -0.035773, 0.006983, 0.076212, 0.084616, -0.035406, -0.078429, -0.086225, 0.005359, 0.004643, 0.090326, 0.036540, 0.041727, 0.007030, 0.104082, -0.001227, -0.122102, 0.109391, 0.011487, 0.009663, 0.097241, -0.033467, 0.012915, 0.100933, 0.143914, 0.085920, -0.001629, -0.004532, -0.036414, -0.067281, 0.129417, 0.111887, -0.138903, 0.024326, 0.151035, 0.044950, 0.052237, -0.006088, 0.148205, -0.082610, -0.011290, -0.018584, 0.030253, 0.045679, -0.018708, -0.098063, 0.041557, 0.024176, -0.046587, 0.140104, 0.013605, -0.029860, 0.083106, -0.030124, 0.105350, 0.003503, 0.176587, 0.005899, -0.061619, 0.032424, 0.063075, 0.155824, 0.044856, 0.070088, -0.147125, 0.050894, 0.036262, 0.080092, 0.020617, 0.122658, -0.114242, 0.026009, 0.005831, -0.030820, 0.315171, 0.004612, 0.012276, -0.033636, -0.094456, 0.089136, -0.201540, 0.022732, 0.084392, 0.023215, 0.112619, -0.297762, -0.081977, -0.060225, -0.005320, 0.000809, -0.129276, 0.182126, -0.160643, -0.004400, 0.215112, -0.012176, -0.064323, 0.118090, 0.008127, 0.039374, -0.021306, 0.044608, 0.068287, -0.116065, 0.092066, -0.007876, 0.015695, 0.026178, -0.028885, 0.015679, 0.005701, -0.207268, -0.017698, -0.029323, 0.018212, 0.064976, 0.030305, 0.057679, 0.173607, 0.034709, 0.013948, 0.105725, -0.082789, -0.045645, 0.113141, -0.062193, -0.051062, -0.016309, -0.058375, -0.030299, -0.099502, 0.006602, -0.125562, -0.031729, -0.021796, 0.069206, 0.044333, -0.131140, -0.060586, -0.084929, -0.062933, -0.082060, -0.010218, 0.043742, 0.045251, 0.084226, 0.103188, 0.005070, 0.042230, 0.029970, 0.081244, -0.071796, -0.053045, 0.033899, -0.062183, -0.079724, -0.128504, 0.093041, -0.007483, -0.057127, -0.043946, 0.055191, 0.094531, 0.105424, -0.111118, -0.129622, 0.007114, -0.083564, 0.001457, 0.140151, 0.026379, 0.007366, -0.037315, 0.057760, 0.069755, 0.111119, 0.000055, -0.035632, 0.055972, 0.107066, 0.014859, -0.019089, -0.001880, 0.069706, -0.049413, -0.086586, 0.030715, -0.038660, 0.001864, 0.011791, -0.113336, -0.093091, 0.016770, -0.093663, 0.091839, 0.045694, 0.022421, 0.067504, 0.145658, 0.035335, 0.056547, -0.035290, 0.271749, 0.010397, 0.062272, 0.010264, 0.147902, -0.001281, -0.142693, 0.059579, -0.081456, 0.091011, 0.010759, -0.148147, 0.023864, 0.124218, -0.171050, 0.005391, -0.065499, 0.017132, -0.032116, -0.082224, 0.128495, -0.051119, 0.071866, 0.020319, 0.065573, 0.021743, -0.055123, 0.137254, 0.066243, -0.034291, 0.195524, -0.039190, 0.063240, 0.071786, -0.012597, 0.046163, 0.027209, 0.077959, -0.038593, -0.072603, 0.141624, 0.121683, 0.005270, 0.178514, 0.115857, 0.079820, 0.246593, 0.052734, -0.059408, 0.110310, 0.051562, 0.012668, 0.038141, 0.010442, 0.002828, 0.136822, -0.052161, 0.158291, -0.132587, -0.098414, -0.154315, 0.017264, -0.062997, 0.013524, -0.012176, -0.035371, -0.024544, -0.005126, -0.136971, 0.001322, 0.080584, -0.116967, 0.025322, 0.128551, 0.001266, 0.023468, -0.001863, -0.010439, -0.039783, -0.088693, -0.069305, -0.043329, 0.026166, 0.000093, -0.200601, 0.047954, 0.053074, 0.005911, 0.011140, -0.109176, 0.069410, 0.028823, -0.153027, -0.148205, 0.061972, 0.057150, -0.021326, -0.000564, 0.043477, -0.010251, 0.012935, 0.137448, -0.059060, -0.178812, -0.076678, -0.132703, 0.009651, -0.181074, -0.071577, -0.083939, -0.050072, 0.087502, 0.003265, 0.067943, 0.003437, 0.000174, -0.028179, -0.059622, 0.058067, -0.162605, -0.053474, -0.004306, 0.085399, -0.007494, 0.095880, 0.010830, 0.001806, 0.006810, -0.054474, 0.008607, -0.066470, 0.039794, 0.081494, -0.014008, 0.014387, -0.008314, -0.029684, 0.000803, -0.001728, 0.289439, 0.099101, -0.097808, 0.209274, 0.002512, 0.119736, -0.021693, 0.040757, 0.006017, -0.029761, 0.006025, 0.032927, -0.009236, -0.078048, -0.123882, 0.081534, 0.044065, -0.119252, -0.143476, -0.021603, 0.019075, -0.074497, -0.014669, 0.029695, -0.066101, 0.007508, 0.109058, -0.023960, -0.105649, -0.005776, -0.143278, 0.007204, -0.225495, -0.016279, -0.002277, -0.095669, -0.040431, 0.017903, 0.134682, -0.003435, 0.095285, -0.004601, 0.048118, -0.055340, 0.060039, -0.004582, -0.000488, 0.021937, -0.093999, 0.077177, -0.000629, -0.102573, -0.078644, -0.077000, 0.052629, -0.051333, -0.128052, 0.002032, 0.014828, -0.009411, -0.079715, 0.029669, -0.068967, 0.017566, 0.050625, 0.062525, -0.141899, -0.078833, -0.038948, 0.011504, -0.099825, 0.156247, -0.015089, -0.152060, -0.051883, -0.080854, -0.129932, 0.027320, -0.001047, 0.025030, 0.148796, -0.032295, 0.074773, -0.007739, -0.061134, -0.114880, 0.019659, 0.001176, 0.053233, -0.027124, -0.014172, 0.185485, 0.003316, -0.106728, -0.122538, -0.051918, -0.142678, 0.111833, -0.029494, 0.073405, 0.086812, 0.087391, -0.030937, 0.056696, -0.092862, -0.022352, 0.123814, -0.062221, 0.013532, 0.059891, 0.090728, 0.015077, -0.005932, -0.038561, 0.027047, -0.010663, 0.008556, -0.227348, 0.011950, 0.016011, 0.034294, -0.118089, -0.056524, 0.059414, -0.105125, 0.109687, -0.041835, 0.089338, 0.034612, -0.099019, -0.139285, 0.140069, 0.065720, -0.004670, -0.082958, -0.010322, 0.026869, -0.144400, 0.040835, 0.009695, 0.002528, -0.002488, -0.071171, 0.007681, -0.091424, -0.205620, 0.026142, -0.083949, 0.052430, -0.026351, -0.067108, 0.100890, 0.021923, -0.047362, 0.013481, -0.015453, -0.005056, -0.106187, -0.067537, 0.008616, -0.109724, -0.056790, -0.073892, -0.042726, 0.063583, 0.077101, -0.085149, 0.012472, 0.001265, 0.105346, -0.124487, 0.005044, -0.010224, 0.037131, 0.026851, -0.024414, 0.065241, 0.113896, 0.047396, 0.042085, 0.029414, -0.042053, 0.132285, 0.011319, -0.022451, -0.017151, 0.112588, 0.008102, -0.006863, 0.136673, 0.115334, 0.123347, 0.017573, 0.088663, 0.065568, 0.087387, -0.069169, -0.053882, 0.160205, 0.018464, 0.032613, -0.009224, 0.003529, 0.153442, -0.064427, 0.055852, -0.066796, 0.000582, 0.062996, 0.002213, -0.104865, 0.198555, 0.056847, 0.081601, 0.014257, 0.007902, 0.117918, 0.018430, 0.090331, -0.013660, -0.009149, 0.137829, 0.005733, 0.125759, 0.027791, 0.165067, 0.010129, 0.104298, 0.042089, 0.043949, 0.019936, 0.068731, -0.006661, -0.022605, 0.008131, 0.011128, 0.000098, 0.103244, -0.045238, 0.199954, 0.033309, 0.109552, 0.132440, 0.165269, 0.028195, -0.096479, 0.013664, 0.004843, 0.052927, 0.037705, -0.001571, 0.002893, -0.010707, 0.060867, 0.003796, 0.024810, 0.144779, -0.000856, -0.058046, 0.169910, -0.070246, 0.028596, 0.087068, 0.002991, 0.030493, -0.009051, -0.017172, 0.013695, -0.014552, -0.157257, 0.013319, -0.004645, 0.023805, 0.002072, -0.179472, 0.051182, 0.038165, -0.003025, 0.000295, 0.051057, 0.051234, 0.090928, 0.071055, -0.005835, -0.031354, 0.001868, 0.007566, 0.067518, -0.087982, -0.052168, -0.000290, 0.003989, 0.080483, 0.115193, -0.091261, -0.053630, 0.002819, -0.088192, 0.157871, 0.005730, -0.022131, 0.080301, 0.014936, 0.094178, -0.027477, 0.002222, -0.092875, 0.039414, -0.021478, -0.114560, -0.027203, -0.107263, 0.077143, -0.131028, -0.002068, 0.083829, 0.071836, -0.105900, 0.107077, -0.008571, -0.132870, 0.090342, -0.098407, 0.102002, -0.061761, 0.070799, -0.071968, 0.121413, 0.061420, 0.052048, 0.100132, -0.102671, 0.024038, -0.063521, -0.062315, 0.103004, 0.052920, 0.031135, 0.111737, -0.059024, 0.109070, -0.081826, 0.069516, -0.015803, -0.040252, -0.096482, -0.001467, 0.089982, 0.100155, -0.036912, 0.103980, -0.017881, -0.023763, -0.107899, 0.055971, -0.096784, 0.101451, 0.001810, -0.015146, 0.059279, 0.020334, 0.101541, 0.032471, 0.066344, 0.035050, 0.064873, 0.105828, -0.094015, 0.139167, 0.054447, 0.128618, 0.114519, 0.124914, 0.111538, 0.083136, -0.016111, 0.144274, -0.038210, -0.002074, -0.022964, -0.027408, 0.056326, 0.050012, 0.153705, 0.023019, 0.011797, 0.058629, 0.094222, 0.005212, 0.014024, 0.032908, 0.115057, 0.023321, -0.030873, 0.002103, 0.005188, -0.055978, -0.007331, 0.043304, -0.047038, 0.107847, -0.005440, -0.010876, 0.219383, -0.011102, 0.100044, 0.001759, 0.003562, -0.009820, -0.098062, 0.049870, -0.078602, -0.155476, 0.025268, -0.005053, -0.087015, -0.001912, -0.042386, -0.049135, 0.064306, 0.031021, 0.074315, -0.102349, 0.025747, -0.059381, -0.090688, -0.000884, 0.003883, -0.011918, 0.114240, 0.023778, 0.082747, -0.000754, -0.093143, 0.010654, 0.014499, 0.051276, 0.011585, -0.055058, 0.091458, 0.069284, 0.008805, 0.043619, -0.035880, 0.042448, -0.031392, 0.034592, -0.018772, -0.108190, 0.000072, 0.079045, -0.032343, 0.114754, 0.014536, -0.010108, 0.059060, -0.027638, -0.107447, 0.017345, 0.096148, 0.146848, 0.004312, 0.059837, 0.122585, 0.000515, 0.049318, -0.111827, 0.024230, 0.066422, 0.007304, -0.007269, 0.008273, -0.012924, 0.175370, -0.038198, 0.119945, 0.029832, 0.078919, 0.045145, 0.069688, 0.001418, -0.014623, 0.007643, 0.034860, 0.125663, -0.045551, 0.015193, 0.139177, 0.033555, 0.083568, 0.006242, -0.094051, 0.010010, 0.006887, 0.010521, 0.007839, -0.048715, -0.262188, -0.104720, 0.019904, -0.001550, -0.134238, -0.024936, 0.029433, -0.000743, -0.062627, -0.001410, 0.030930, -0.070686, 0.116184, 0.059304, 0.002190, -0.189981, 0.015088, -0.173803, -0.191345, -0.021965, 0.034582, 0.135644, -0.000707, -0.003783, -0.107732, 0.060281, -0.001218, 0.045754, 0.031715, 0.041282, -0.079792, 0.055532, 0.013113, -0.021608, 0.086686, -0.034904, 0.068102, 0.071145, -0.006955, 0.012602, 0.011095, -0.146783, 0.016105, -0.114990, 0.046445, 0.102619, -0.005390, 0.025142, -0.125260, 0.051149, 0.124617, 0.165016, -0.054134, 0.011803, -0.000604, 0.097948, -0.073554, 0.002900, 0.002397, -0.069101, -0.001575, 0.083189, -0.071941, -0.069870, -0.112349, 0.062212, 0.102743, -0.081149, 0.024589, -0.035499, -0.051020, -0.121188, -0.002022, 0.014108, 0.120867, 0.011887, -0.028524, 0.072843, 0.117840, -0.041272, 0.066917, -0.048298, 0.071096, -0.075539, 0.111314, -0.001012, 0.093752, -0.027869, 0.000625, -0.017070, -0.081818, -0.007926, -0.068292, 0.123558, -0.015583, -0.115416, -0.125844, 0.064168, 0.011499, 0.003304, -0.020628, 0.011664, 0.101753, 0.002557, -0.040055, 0.011546, 0.138778, 0.082242, -0.017569, 0.115138, -0.055692, -0.034355, 0.108941, 0.017063, -0.022409, -0.018445, 0.083069, 0.080620, -0.145196, -0.141883, -0.089625, -0.030527, 0.120193, 0.019088, -0.065419, 0.098382, -0.059481, 0.139211, -0.249596, 0.048989, 0.131847, -0.042435, 0.049869, 0.031112, 0.083532, -0.000423, 0.128401, -0.022218, -0.109371, 0.082040, -0.030289, 0.047384, -0.025447, -0.277857, -0.012416, 0.013308, -0.069987, 0.018001, -0.003051, 0.014903, -0.001619, 0.082393, 0.081623, -0.042817, 0.086307, 0.020156, 0.009683, 0.055619, -0.071944, 0.022752, 0.090084, -0.123089, 0.105795, -0.003464, 0.130394, 0.032565, 0.049601, 0.165159, 0.102450, -0.033208, 0.007509, 0.042102, 0.012784, 0.008682, 0.020298, 0.052397, 0.030265, 0.020943, 0.079921, 0.033610, -0.068107, 0.086077, 0.125587, 0.006025, -0.019281, -0.060019, 0.090069, -0.062012, 0.027537, 0.104298, -0.132572, 0.038548, 0.101860, 0.039493, -0.000683, 0.046102, -0.104284, 0.053781, -0.026919, -0.002672, 0.006543, -0.000256, -0.091722, -0.012074, -0.008784, -0.004988, -0.024307, -0.088653, 0.130397, 0.116430, -0.103205, -0.010642, 0.031851, 0.004331, -0.075526, -0.001211, 0.046912, -0.133668, -0.098277, -0.125178, -0.173990, -0.006965, -0.017959, -0.022419, -0.012594, -0.131690, 0.034080, 0.007029, -0.026046, -0.141195, -0.089235, -0.109095, -0.029834, -0.067994, -0.132260, -0.123869, -0.104582, -0.028004, -0.008830, 0.053430, 0.143155, 0.033034, -0.105364, -0.038037, 0.026974, -0.018414, -0.095712, -0.166214, -0.150557, 0.002623, -0.024692, -0.000369, -0.007686, 0.028493, 0.043397, -0.065482, 0.111457, 0.075681, 0.004677, 0.002138, -0.058459, 0.096325, -0.010226, -0.031786, 0.013096, -0.010190, 0.008272, -0.006004, -0.091725, -0.007661, 0.033726, 0.008864, -0.005260, 0.102916, -0.137803, -0.024819, 0.027419, -0.109902, 0.116327, 0.005072, 0.001145, -0.034915, 0.008607, -0.036504, -0.146770, -0.001703, -0.109536, 0.000367, -0.006862, -0.116861, -0.077787, 0.000631, -0.000927, -0.020925, -0.064203, -0.019822, 0.004137, 0.142942, -0.166230, 0.067167, -0.099953, -0.000750, 0.006447, -0.025111, 0.019081, -0.001805, -0.052949, -0.060845, 0.023434, -0.000617, -0.002430, 0.003297, -0.091397, 0.039359, -0.055469, -0.000220, -0.058542, -0.001388, 0.016388, -0.069719, 0.003158, 0.143799, -0.064830, 0.040821, 0.069014, 0.015885, -0.090889, -0.117963, -0.040923, -0.084142, -0.097711, 0.009584, -0.094507, -0.090479, -0.053360, -0.092432, -0.118943, 0.125810, 0.059289, -0.077375, 0.082561, -0.106770, 0.019396, 0.005134, -0.075310, -0.055292, 0.130832, -0.106772, 0.050031, 0.075735, 0.077808, -0.051371, 0.004348, 0.019599, -0.055232, -0.030469, 0.065819, -0.067339, -0.034458, -0.117152, -0.080607, 0.072187, 0.103695, -0.110332, 0.032477, 0.116320, -0.012969, 0.069943, -0.009886, 0.041470, 0.002764, -0.106852, 0.101829, 0.102887, 0.106544, 0.031256, 0.008368, 0.105467, -0.024039, 0.031815, 0.045689, -0.106431, -0.042977, -0.002310, 0.051348, 0.020065, -0.076915, -0.062863, -0.063223, 0.019838, -0.081356, -0.003785, 0.029494, -0.134176, 0.044908, -0.006300, -0.096884, -0.003075, 0.040995, -0.021147, 0.129483, 0.002864, -0.165933, -0.119011, -0.082710, -0.104582, 0.000565, 0.003012, -0.013320, -0.059115, -0.082101, -0.034472, -0.090675, 0.021610, -0.033650, -0.033846, -0.072925, -0.008670, 0.074703, -0.073813, 0.001104, -0.048194, -0.058225, -0.093545, -0.094282, 0.033574, -0.129507, -0.015439, -0.041458, 0.004642, -0.059962, -0.155547, 0.029178, -0.003894, -0.132905, -0.137978, -0.080422, -0.069058, -0.009726, -0.027818, -0.056500, 0.036892, -0.002502, -0.002382, -0.074816, -0.135161, -0.076251, -0.037995, 0.013784, -0.005655, 0.001189, 0.005259, 0.016997, -0.152109, -0.001798, 0.074597, 0.100388, -0.050869, -0.019814, 0.091291, 0.026796, 0.001236, -0.051115, -0.033851, -0.021983, 0.024522, 0.017999, 0.020387, -0.050610, 0.032853, -0.255004, 0.094898, 0.128062, 0.007798, -0.044260, 0.007460, 0.086421, -0.034961, -0.039247, -0.068708, 0.103048, 0.087133, 0.024386, 0.053029, -0.010803, 0.001009, -0.045946, -0.002928, 0.043046, -0.004163, 0.061033, 0.008386, 0.103104, 0.068239, 0.004440, 0.095994, 0.067961, 0.007148, 0.139542, -0.008267, 0.000884, -0.043579, -0.002204, 0.106813, -0.049482, 0.112672, -0.007197, 0.081952, -0.033857, -0.031755, 0.032880, -0.045214, 0.007084, 0.064467, -0.086959, -0.071754, 0.038619, -0.100007, 0.006442, -0.000047, -0.043766, -0.003264, 0.005587, 0.007212, 0.036394, -0.018138, -0.046702, -0.054151, -0.019640, 0.001693, -0.007086, 0.035523, -0.071400, 0.050364, -0.100420, -0.026846, 0.053373, -0.010862, 0.016091, -0.018899, 0.004913, -0.028722, -0.045063, -0.040098, 0.046754, 0.142831, -0.021081, -0.001042, -0.044575, -0.000225, -0.020048, 0.048235, -0.003274, -0.060368, 0.049789, -0.012689, -0.030759, 0.054589, 0.005251, 0.083868, 0.107955, 0.030596, 0.091980, -0.004996, 0.000666, 0.081316, 0.126675, -0.028781, -0.000505, -0.118664, 0.004171, 0.125614, -0.043552, -0.011489, -0.032592, -0.074266, -0.122615, -0.116353, 0.078910, 0.044542, -0.079361, 0.114885, -0.066362, -0.058836, -0.091086, 0.064521, -0.039218, 0.070973, -0.136682, -0.046149, 0.006832, 0.109435, 0.046146, 0.051060, -0.000292, -0.026171, -0.021409, -0.077469, 0.080051, -0.095837, 0.064666, -0.070271, 0.119934, 0.002070, 0.053662, -0.045993, 0.113783, 0.042491, 0.039046, -0.098985, 0.127417, -0.061869, 0.089904, -0.062449, -0.130466, -0.077126, -0.034684, -0.001688, -0.070872, -0.055061, -0.026544, 0.031988, -0.074125, 0.110085, 0.007515, 0.061572, 0.116189, 0.007489, 0.124122, 0.110194, 0.022797, 0.124344, -0.080688, -0.040588, 0.133215, 0.029264, -0.098713, -0.029390, -0.122709, -0.071142, 0.086957, -0.010148, -0.058477, -0.001957, 0.058434, -0.147946, 0.031731, 0.082015, 0.141232, 0.057495, -0.035187, 0.014220, -0.023620, -0.045677, -0.035672, -0.107162, -0.124831, -0.067112, 0.112402, 0.014049, -0.038855, 0.029470, 0.059628, 0.002896, 0.091911, -0.035666, -0.094117, 0.057052, 0.149898, 0.055213, -0.102392, -0.083118, 0.023194, 0.178696, -0.044621, 0.070913, -0.064597, 0.008738, -0.084636, 0.016824, -0.004570, -0.012580, 0.004477, -0.012528, 0.070964, 0.040641, 0.084954, -0.043116, 0.062247, -0.051738, 0.043881, -0.024111, -0.009693, 0.149408, -0.001431, 0.092272, 0.058623, 0.006920, 0.010951, 0.086074, 0.104646, -0.010946, -0.022644, -0.046505, -0.230694, 0.010304, 0.015862, 0.021893, -0.052490, -0.007626, -0.114417, -0.029409, -0.002376, 0.054902, 0.194101, -0.008760, 0.108270, 0.015409, 0.053746, -0.137851, 0.018880, 0.048985, -0.033435, 0.020965, 0.084546, -0.075743, -0.148138, -0.045017, -0.015015, -0.002525, -0.078628, -0.005304, 0.081892, 0.001074, 0.069021, -0.111334, 0.016655, -0.029946, -0.145989, -0.040953, -0.071997, 0.019976, -0.005271, -0.113661, 0.024090, -0.045402, 0.001126, -0.118436, -0.040335, -0.032435, -0.034199, -0.100905, -0.152497, 0.003280, -0.002368, 0.004198, 0.008060, -0.111813, 0.002629, 0.083061, 0.016124, 0.066804, -0.058298, 0.024864, -0.001031, -0.010242, -0.068952, 0.026955, -0.058158, 0.030828, -0.001123, 0.000735, -0.153701, -0.024949, -0.122112, 0.091968, 0.045190, 0.017617, 0.001440, -0.007130, 0.038809, -0.001366, 0.070918, 0.071219, -0.019188, -0.048159, 0.063568, 0.073915, 0.092743, -0.089427, 0.052652, 0.049544, 0.007182, 0.016832, 0.082249, -0.073675, 0.057363, -0.003659, 0.002393, -0.047969, -0.025491, 0.015788, -0.026360, 0.006819, -0.018169, -0.005655, 0.027210, -0.012674, -0.015734, 0.027973, -0.007332, -0.092204, -0.031057, -0.018400, -0.132503, -0.166383, -0.155844, 0.003418, -0.098001, -0.034899, -0.024665, 0.125638, 0.001493, 0.062455, -0.000125, 0.079230, 0.000882, 0.208799, -0.026426, -0.000254, 0.007627, 0.068328, -0.018805, 0.021393, -0.093259, -0.056313, 0.072547, -0.143978, 0.081892, -0.109586, 0.021769, 0.027358, -0.021045, 0.085753, -0.021315, -0.109723, 0.019715, 0.085926, 0.019722, 0.133762, 0.106607, -0.001318, 0.006919, -0.070047, -0.033623, 0.108534, 0.009704, -0.034102, -0.023211, -0.070627, 0.020892, 0.049061, -0.069319, -0.058149, 0.010582, 0.000389, 0.031282, 0.145317, 0.036935, -0.102962, -0.080059, 0.032726, -0.066359, 0.067161, -0.017302, -0.026573, 0.068073, -0.015743, -0.129177, -0.016428, -0.039233, 0.043458, -0.059527, 0.007356, 0.129019, -0.096667, 0.087377, 0.088771, 0.058085, 0.095634, 0.040149, 0.097252, 0.015162, 0.114925, 0.035344, -0.020719, -0.162901, -0.081694, 0.022517, -0.066098, -0.201772, -0.067231, -0.094827, 0.088709, -0.032589, -0.024166, 0.191013, -0.119330, 0.128317, -0.008149, -0.019455, -0.010070, 0.027881, -0.085405, 0.051598, 0.036238, 0.030621, -0.214918, -0.070647, -0.016687, -0.186856, 0.011238, -0.025685, 0.065440, -0.036576, -0.094501, -0.034718, -0.094052, -0.028672, -0.039775, -0.092584, -0.033989, 0.058255, -0.090324, -0.011360, -0.064343, -0.057191, -0.011278, -0.036783, -0.072365, -0.040491, -0.192820, 0.037008, -0.101605, -0.202526, 0.004892, -0.151649, -0.016283, -0.110809, -0.028889, 0.044958, -0.086274, 0.042520, 0.064846, -0.082556, 0.001285, -0.001560, 0.071351, -0.004655, -0.082342, 0.232639, -0.153145, 0.033970, 0.021598, 0.113477, -0.106704, -0.014131, 0.059015, 0.001715, -0.095054, 0.062739, -0.002368, -0.061223, -0.019761, -0.078312, 0.144551, -0.081130, 0.048266, -0.118108, -0.023047, -0.047514, 0.023283, 0.004398, -0.000269, 0.030318, -0.121269, -0.145366, -0.071176, 0.017462, 0.137533, -0.140056, 0.012150, 0.014353, 0.061253, -0.086815, -0.038829, -0.010076, -0.044077, -0.136670, -0.039797, -0.009453, -0.006281, 0.068565, -0.022739, 0.086602, 0.021089, -0.053225, 0.156864, -0.058909, -0.000517, -0.056118, -0.004444, -0.065757, 0.082716, -0.061901, -0.093294, -0.049477, 0.099756, -0.009685, 0.072629, -0.081760, 0.072737, -0.075785, -0.005953, -0.020182, -0.000318, -0.002212, -0.002542, 0.078910, -0.017237, -0.115283, 0.040210, -0.068763, -0.151229, 0.008212, -0.021160, 0.042891, -0.169725, -0.015852, 0.047944, -0.001863, 0.063071, -0.033264, -0.001510, -0.068939, -0.061866, -0.016910, -0.083241, -0.025643, -0.046281, -0.013006, 0.023569, 0.037995, 0.028616, -0.051608, 0.049361, 0.014585, 0.230438, 0.013999, -0.061068, -0.082227, -0.039615, 0.001650, 0.092765, -0.044562, -0.147608, 0.010847, 0.234381, 0.112459, -0.069654, 0.090065, 0.004853, 0.007511, 0.007931, -0.016003, -0.008187, -0.012759, 0.199536, -0.017119, -0.001637, 0.004127, -0.148428, -0.088886, -0.002330, 0.006695, -0.000952, -0.077775, 0.046465, 0.069411, 0.001571, -0.051222, -0.025562, 0.058493, -0.097651, -0.113067, 0.113766, 0.136601, -0.043813, 0.029368, 0.028215, 0.074325, 0.117213, 0.077932, -0.124977, -0.072254, 0.069282, -0.111091, 0.031917, 0.017597, -0.042341, 0.071026, 0.071167, -0.045798, -0.036340, 0.083848, -0.141946, -0.057436, -0.073031, 0.101265, -0.045403, 0.009088, 0.061390, 0.076446, -0.088723, -0.005256, -0.013548, -0.106505, -0.034557, 0.137042, 0.090894, 0.073927, -0.001066, 0.075804, 0.104808, 0.032257, 0.067317, 0.038783, 0.056602, 0.071313, -0.049894, 0.108925, -0.009926, 0.046862, 0.067621, -0.086592, -0.026473, 0.129339, -0.004782, 0.080957, 0.100084, -0.019229, -0.000832, 0.149917, -0.103695, 0.015673, -0.118307, 0.150661, -0.035372, -0.014823, -0.002671, 0.090404, -0.005017, 0.009927, 0.038758, -0.145923, -0.132241, -0.107608, 0.010378, 0.007160, 0.193571, -0.059096, -0.028497, 0.035163, -0.085110, -0.014661, 0.001021, -0.086749, 0.050021, -0.075486, -0.005390, -0.001982, -0.086427, -0.037444, -0.000784, 0.017652, 0.127090, -0.026621, 0.041941, -0.143146, -0.022817, -0.002712, 0.075997, -0.019619, -0.051824, 0.005500, 0.042812, 0.112013, -0.024792, -0.020039, 0.131863, -0.127042, -0.004174, 0.091486, -0.119743, -0.115551, 0.033855, -0.052108, -0.075396, -0.101106, -0.069371, -0.081363, 0.150886, -0.128070, -0.061718, -0.050680, 0.060976, -0.123142, -0.078023, 0.068052, -0.039869, 0.045018, 0.015649, 0.063490, -0.013773, -0.005250, -0.015436, 0.023933, 0.111129, -0.068461, 0.132297, -0.023568, -0.119121, 0.081280, -0.079575, -0.032150, -0.062837, 0.163605, -0.003104, 0.045985, 0.076907, 0.025714, 0.005269, 0.090513, -0.071211, 0.008634, 0.000295, 0.009364, -0.064016, 0.004380, -0.004460, 0.073122, -0.145780, 0.012184, 0.058469, -0.009252, -0.013562, -0.018685, -0.035238, 0.012322, 0.122901, 0.027868, 0.055799, -0.031639, -0.029238, -0.007764, -0.038560, 0.054892, 0.052705, 0.000437, 0.209948, 0.030859, 0.016230, -0.044474, 0.039987, -0.079132, 0.031228, 0.051798, 0.006263, 0.035132, 0.046037, -0.196548, -0.009025, 0.070390, -0.002470, -0.000445, 0.019659, -0.044511, -0.008381, -0.040328, 0.035668, -0.070714, 0.060376, 0.027162, 0.197859, -0.069679, -0.194793, -0.003904, 0.065611, -0.041597, -0.036638, 0.188614, -0.041284, -0.007627, -0.009592, -0.101464, -0.046333, -0.011206, -0.014350, -0.019533, 0.031704, 0.043255, -0.072019, -0.084961, -0.057191, -0.026053, -0.022244, -0.005269, -0.006692, -0.008434, -0.015018, -0.055390, 0.017174, -0.032430, -0.090372, -0.000529, -0.021841, 0.008453, -0.016799, 0.071334, -0.049247, -0.096602, 0.015265, -0.022605, 0.011171, 0.002036, 0.015511, -0.131516, 0.008837, -0.008664, -0.021857, -0.042937, 0.030841, -0.097336, -0.136988, -0.044309, 0.042247, 0.066392, 0.070529, 0.141448, -0.057540, -0.072745, 0.029605, -0.078156, -0.022514, 0.064887, 0.115132, 0.017283, -0.073321, -0.085807, -0.081552, 0.120831, -0.053535, -0.034245, -0.082502, 0.061108, -0.056605, -0.111486, 0.067513, 0.046311, -0.013915, -0.115751, -0.067256, -0.067488, -0.050322, -0.004063, 0.006056, -0.069923, 0.091944, -0.037367, -0.117003, -0.060520, -0.038992, -0.109650, 0.084039, 0.132988, 0.163754, 0.145742, -0.037638, 0.081019, 0.037601, -0.063262, -0.002082, -0.189610, 0.007403, 0.088319, -0.118748, -0.148092, 0.070972, -0.022677, -0.022352, -0.143423, -0.130347, 0.008783, -0.065325, 0.065738, -0.094740, -0.075489, 0.028464, -0.145849, -0.022480, 0.035751, 0.022795, 0.204369, 0.079633, -0.002016, -0.076493, -0.098615, 0.001145, 0.073697, 0.122267, 0.105476, 0.189011, -0.003718, -0.253500, 0.071265, -0.020843, 0.011157, 0.010274, 0.030715, 0.125231, -0.052876, -0.004997, 0.067167, 0.006751, 0.076182, -0.012129, 0.014440, -0.040493, 0.019582, -0.087752, -0.041228, 0.005232, 0.136779, -0.025394, 0.010387, 0.000759, 0.028260, 0.001852, -0.101579, -0.066313, 0.005176, 0.085856, 0.142953, 0.081143, 0.008422, 0.052610, 0.055458, 0.008165, 0.005185, 0.081352, -0.021305, 0.075782, 0.008122, 0.005718, 0.017970, 0.081797, -0.131100, 0.012914, -0.070519, 0.018667, -0.021313, 0.075520, -0.006535, -0.008464, -0.001575, 0.005867, -0.092580, 0.079873, -0.014080, 0.121115, -0.037313, 0.071463, 0.019428, -0.019594, -0.075298, 0.106404, -0.050092, -0.218183, -0.053874, 0.104196, -0.087216, -0.006124, -0.011414, -0.027366, -0.003541, 0.037722, -0.044889, -0.118084, 0.027267, -0.016471, 0.057784, -0.062946, -0.110671, 0.020657, -0.147295, -0.050729, -0.033136, -0.139594, 0.013815, -0.002275, 0.088032, 0.037583, 0.017764, 0.128196, -0.012643, -0.082424, 0.081735, 0.019866, -0.006357, 0.018095, -0.095965, -0.074966, 0.083529, 0.000563, 0.166433, 0.087046, 0.005998, 0.068657, -0.007364, -0.144248, 0.003986, -0.034513, -0.032837, 0.050542, 0.016509, 0.032208, 0.041426, 0.011668, -0.054398, 0.037771, -0.005232, 0.012108, -0.003416, 0.019444, 0.170973, -0.083628, 0.127349, 0.007669, -0.115388, 0.107648, 0.006534, -0.021463, 0.137994, 0.082093, -0.011379, -0.020132, -0.002126, -0.145305, 0.090944, -0.000045, -0.143066, -0.008598, 0.024950, -0.010937, 0.000223, -0.065715, -0.056052, -0.031712, -0.001677, -0.188720, -0.027472, -0.090895, 0.008220, 0.006567, 0.079153, -0.117711, 0.008557, 0.027675, -0.006500, -0.057169, 0.006010, 0.008979, -0.085625, -0.091810, -0.179415, -0.058248, -0.015773, 0.031484, 0.043137, 0.022156, 0.005213, 0.009762, -0.100602, 0.005177, 0.017537, 0.167870, 0.015311, 0.007094, 0.133278, -0.156361, -0.071028, -0.039139, 0.027210, 0.118308, 0.115446, 0.089438, -0.112936, -0.066786, 0.111664, -0.056743, -0.005527, 0.031580, -0.093052, -0.053853, 0.086090, 0.134246, -0.095083, 0.200045, 0.100757, 0.112145, -0.004865, 0.139793, -0.012263, -0.107045, 0.140104, 0.061979, -0.092116, -0.000738, -0.027679, 0.002705, -0.072814, -0.134819, -0.017612, 0.046073, 0.043430, 0.016465, 0.100061, -0.082697, 0.014051, -0.032660, 0.064430, 0.048721, -0.137811, -0.016007, 0.137016, -0.074607, 0.048782, -0.023869, -0.148823, 0.081588, 0.044266, 0.118382, 0.036778, -0.054489, 0.096588, -0.073398, 0.006352, 0.090512, 0.035697, -0.060577, 0.095287, -0.052736, 0.059394, 0.004144, 0.026757, 0.031358, -0.059777, 0.040040, -0.099254, 0.012827, -0.023162, 0.005961, 0.141887, 0.001068, -0.010763, -0.023970, 0.047560, 0.007344, 0.006812, -0.182811, 0.138697, -0.040731, -0.228178, 0.096082, 0.022001, 0.079727, -0.170878, -0.004809, -0.097445, -0.056824, -0.004041, -0.081755, -0.152353, -0.132526, -0.019161, -0.001368, -0.021515, -0.100368, 0.011108, -0.129979, 0.023171, -0.102209, 0.025776, 0.083870, 0.072289, 0.142008, -0.016159, -0.110190, 0.035186, -0.019607, 0.046740, 0.108460, -0.145086, 0.000290, 0.132158, -0.019500, 0.194487, 0.072432, 0.015849, -0.063737, 0.045955, 0.042171, 0.105176, -0.010285, -0.032266, 0.000503, 0.137950, 0.065098, -0.168538, -0.009827, 0.000113, -0.009049, 0.075118, 0.121086, 0.123135, 0.019403, -0.020640, 0.072849, -0.123423, 0.068665, -0.009444, 0.012823, -0.000249, -0.074215, 0.106053, -0.030637, -0.008348, 0.089149, -0.059681, 0.016643, -0.153983, 0.004234, -0.064153, -0.015664, 0.025403, 0.011453, -0.012785, 0.076204, 0.007280, -0.007761, 0.016071, -0.010703, 0.054074, -0.054006, 0.011392, -0.013076, -0.013617, 0.045808, 0.001781, -0.051008, 0.060310, 0.056358, 0.054323, 0.023922, 0.018727, 0.031347, -0.058542, 0.061459, -0.015699, -0.056612, 0.004780, 0.182161, 0.020386, 0.038250, -0.001309, 0.071729, 0.101278, 0.064664, 0.049276, 0.004608, 0.018663, 0.027963, -0.250695, -0.073131, -0.027362, -0.005153, 0.027237, -0.022577, -0.006814, 0.017851, -0.084911, 0.075681, -0.047780, 0.009642, 0.004927, 0.000945, -0.088484, -0.220634, 0.041195, -0.113771, -0.093009, 0.026579, -0.052882, -0.104484, -0.149338, 0.041483, -0.077299, 0.010411, -0.027414, -0.034008, 0.114933, -0.012436, 0.003206, -0.004906, -0.128023, -0.029173, -0.027192, 0.028990, -0.006602, -0.025194, -0.035948, 0.004489, -0.009553, 0.057528, -0.009868, 0.039682, 0.007315, 0.016173, 0.028304, 0.055995, -0.003630, -0.012038, -0.058008, 0.063671, 0.037887, 0.026189, -0.001141, 0.014988, -0.020337, 0.025161, 0.056462, 0.105635, 0.006655, 0.104648, -0.025277, -0.166981, -0.126939, 0.122064, -0.027850, -0.076524, 0.085083, -0.027978, -0.025601, 0.075450, -0.046344, 0.081369, -0.089134, -0.122903, -0.135885, -0.007809, 0.085119, -0.143848, 0.024070, -0.096756, -0.076448, 0.127170, 0.040328, 0.049553, -0.088723, -0.105402, 0.176293, 0.005089, 0.050903, 0.088387, 0.061961, -0.073983, -0.114750, 0.031688, -0.077826, 0.033904, -0.148693, 0.116921, -0.136384, -0.013942, 0.058752, 0.074347, -0.071633, 0.160992, -0.125229, -0.075848, 0.002697, 0.012670, 0.010761, 0.036741, -0.121942, 0.016195, 0.044451, 0.079173, 0.000152, 0.012078, 0.036376, 0.002262, -0.127482, -0.092450, -0.061197, -0.097474, 0.028231, 0.061089, -0.000411, 0.071837, -0.236523, -0.054519, 0.043084, 0.028690, -0.007554, 0.027206, 0.000879, 0.033826, -0.022918, -0.030429, -0.179947, 0.014155, 0.071451, 0.103269, -0.006773, -0.264031, 0.049860, -0.016973, -0.026583, 0.086035, -0.077672, 0.041630, -0.024770, -0.013305, 0.009807, -0.076658, -0.048488, 0.003843, 0.032745, -0.037787, -0.074241, 0.005880, -0.047715, 0.010473, 0.074388, -0.083753, 0.001699, -0.078722, -0.007926, 0.107091, 0.033237, -0.026398, 0.030289, 0.068825, 0.067158, -0.018450, 0.159466, 0.165707, 0.020491, 0.030278, 0.115402, -0.100420, 0.002123, 0.241044, 0.026347, -0.016607, 0.012576, 0.030947, 0.043798, 0.163757, 0.028956, 0.006661, 0.033820, -0.044237, 0.043395, -0.019644, -0.027137, 0.037668, -0.015710, -0.066931, 0.030899, 0.015953, -0.021390, -0.081650, 0.053443, -0.011849, -0.019459, -0.003796, -0.023287, 0.123860, 0.043280, 0.001788, 0.036872, 0.002419, 0.178990, 0.005670, 0.002523, 0.050089, -0.105836, 0.048438, -0.014657, 0.099774, -0.111900, -0.031807, 0.115325, -0.018837, 0.042245, -0.213132, -0.080581, -0.025371, -0.017973, 0.027606, -0.006790, -0.073687, -0.140367, 0.055062, -0.109382, 0.013921, -0.101078, -0.154566, -0.133173, -0.050081, -0.035594, -0.067018, -0.051956, 0.093579, -0.026237, -0.172028, -0.019490, -0.005099, -0.002530, -0.090694, -0.040842, -0.096749, -0.049723, 0.000439, -0.014800, -0.051756, 0.003837, -0.003886, 0.001577, -0.087839, -0.049288, -0.006541, -0.038608, -0.090754, -0.037397, -0.001007, 0.020129, 0.008192, -0.101402, -0.058990, 0.021461, -0.098587, -0.098836, 0.054259, 0.007898, -0.118602, 0.014514, 0.158185, -0.052025, 0.002448, 0.005256, 0.067873, -0.023057, 0.017897, -0.038785, 0.066101, -0.019323, -0.028300, 0.013697, -0.034357, -0.006836, -0.108456, -0.007972, 0.033502, -0.003527, -0.005322, -0.011510, -0.015028, 0.014823, -0.019942, -0.017191, -0.009424, -0.045628, 0.004531, 0.011178, 0.002349, 0.003653, 0.146893, -0.007020, -0.056651, -0.005578, 0.016094, 0.089652, -0.101043, 0.000135, -0.239101, -0.018150, 0.084920, -0.008408, 0.083010, 0.051581, -0.019666, -0.033444, 0.044048, -0.109073, 0.024912, 0.066128, -0.039765, -0.110093, 0.038573, 0.166022, 0.118949, 0.066108, -0.117615, 0.124896, -0.045470, -0.101674, -0.045236, 0.130470, -0.107768, 0.135015, 0.000604, -0.077163, -0.080682, 0.001101, -0.070541, -0.084018, 0.043448, -0.020676, 0.060595, 0.056272, -0.041947, 0.101656, 0.028275, 0.116379, 0.030862, 0.003673, 0.024966, -0.020687, -0.037051, -0.004088, 0.005053, -0.021898, 0.123694, -0.099269, 0.057742, -0.046519, 0.053012, -0.076832, -0.099323, -0.032821, 0.034492, -0.005284, -0.019779, -0.058489, -0.106971, 0.027561, 0.095712, 0.116017, 0.113501, -0.099623, -0.056036, 0.050671, 0.101348, -0.057363, -0.059496, 0.002668, -0.006841, -0.026623, -0.090430, 0.046705, -0.064106, -0.197400, 0.054830, 0.107166, 0.030530, -0.006044, -0.019698, -0.157483, -0.158853, -0.108428, -0.040816, 0.064943, 0.002571, 0.034351, 0.147970, -0.003817, 0.023712, -0.100765, -0.025220, -0.156113, 0.028861, -0.033201, -0.027757, -0.073967, 0.044619, 0.080052, -0.028761, -0.059781, -0.163544, -0.115686, 0.004830, -0.107110, -0.043880, -0.044117, -0.065296, -0.010460, -0.002780, 0.024835, -0.015924, -0.011015, -0.042104, 0.054877, -0.091230, 0.087974, -0.024982, -0.032445, -0.079793, 0.006932, -0.103138, 0.074440, -0.073825, -0.100569, -0.023040, -0.050273, 0.014628, 0.072624, -0.014012, -0.095535, -0.049370, -0.039537, -0.137147, -0.148637, -0.088422, -0.014061, -0.003600, -0.002164, -0.152637, 0.020170, -0.118800, -0.023271, -0.039279, -0.144180, -0.115963, -0.001385, -0.131047, -0.094963, -0.069547, -0.096961, 0.005794, 0.049117, -0.091276, -0.254524, -0.014752, 0.000243, -0.213560, -0.061069, -0.154301, -0.060890, -0.122931, -0.122206, -0.018437, -0.195444, -0.007189, -0.013998, -0.102249, 0.000208, -0.202410, -0.057047, -0.030986, -0.087643, 0.107553, -0.161502, -0.095678, -0.042002, -0.111004, -0.063849, -0.065226, -0.204164, -0.013697, -0.001051, -0.101532, -0.161714, -0.114300, 0.056104, -0.197762, -0.061895, 0.052404, -0.005048, -0.049510, -0.154938, -0.113654, 0.011723, -0.148795, -0.014623, 0.005477, -0.164297, -0.105534, -0.019803, 0.008275, -0.010010, -0.128318, -0.003846, -0.053517, 0.028829, -0.011737, -0.012447, 0.068516, -0.080012, 0.049757, 0.182543, -0.156157, 0.070633, -0.010662, 0.006856, 0.016333, -0.133033, 0.032948, -0.033851, -0.151946, -0.026912, 0.036141, -0.011018, -0.034758, -0.233468, -0.133878, -0.098125, -0.013220, -0.016120, -0.000615, 0.003448, -0.066226, -0.013313, -0.005988, -0.158731, 0.160707, -0.088753, -0.017596, -0.079539, 0.085860, -0.053926, -0.004191, -0.081190, 0.017282, -0.007730, -0.039267, -0.058044, 0.001922, 0.063983, 0.160211, -0.003018, 0.042416, -0.000078, -0.002068, 0.006343, -0.045429, 0.083946, 0.033493, 0.061003, -0.009370, -0.069557, -0.135751, 0.117233, -0.129210, -0.068464, -0.044889, -0.089008, -0.149207, 0.098060, -0.011460, -0.036181, -0.014791, 0.045493, -0.019951, -0.078664, 0.136994, 0.093223, 0.118565, 0.112170, 0.081770, 0.055393, 0.027677, 0.046966, 0.032556, 0.066858, -0.138422, -0.006148, 0.041266, -0.036280, -0.132250, -0.008845, -0.064301, -0.019072, 0.047234, -0.034529, 0.020982, -0.058317, -0.121977, -0.070981, 0.037500, -0.020562, -0.092681, -0.017109, -0.046231, -0.032205, 0.010113, 0.093031, 0.139084, 0.082669, -0.048203, -0.078127, 0.050161, -0.026932, 0.066397, -0.006010, 0.020153, -0.078157, 0.048652, 0.008217, -0.101668, -0.065809, -0.040290, -0.009214, -0.057481, -0.155871, -0.167993, 0.005204, 0.002976, -0.058550, -0.099003, 0.003238, -0.099068, -0.007258, -0.152533, -0.132498, 0.091822, -0.091470, 0.101392, 0.097052, 0.000691, -0.010524, -0.119102, 0.016764, -0.016719, -0.064885, -0.114274, -0.108583, -0.258547, -0.172058, 0.025113, 0.043497, -0.092215, -0.081840, 0.027448, -0.169155, -0.099813, -0.176380, -0.006991, 0.000336, -0.228240, -0.132040, -0.032351, -0.123174, -0.037421, -0.130745, -0.067254, -0.057146, -0.134827, -0.155398, -0.023722, -0.068037, -0.039515, -0.121582, -0.094131, -0.056070, -0.207242, 0.040227, -0.053344, -0.005126, -0.002080, -0.070237, -0.026500, -0.013065, 0.143955, 0.058571, 0.077016, -0.061024, 0.027697, -0.091102, -0.005175, -0.025125, -0.006348, 0.055467, 0.008609, -0.009890, -0.018077, 0.002600, -0.023611, -0.095479, 0.054736, 0.047897, -0.048189, -0.051332, -0.040103, -0.040172, -0.165062, 0.044860, -0.073019, 0.031596, -0.013031, -0.091187, -0.016833, 0.059214, -0.039331, -0.144596, -0.037581, -0.047701, 0.040508, -0.007954, -0.100345, 0.046526, -0.008531, 0.000456, -0.092437, -0.019214, -0.047470, 0.022178, 0.133997, -0.109869, -0.137999, 0.036330, -0.003702, 0.066341, 0.001611, 0.056815, -0.088518, 0.008192, -0.146705, 0.003187, -0.000093, 0.023764, 0.008172, 0.121301, -0.114938, -0.007159, -0.001908, -0.002616, -0.057417, 0.104120, 0.095344, -0.053092, 0.005126, -0.239151, -0.014985, -0.077325, -0.032871, -0.069369, 0.007966, -0.036285, -0.016265, -0.011294, -0.085185, -0.045740, -0.051167, 0.003221, -0.085631, -0.022442, -0.000948, -0.004653, -0.082106, -0.049577, 0.004177, -0.061476, -0.031592, -0.011606, 0.001770, -0.003643, -0.004466, 0.036404, -0.008228, -0.225667, 0.010435, -0.075378, 0.017628, 0.082464, -0.050852, -0.008765, -0.102579, 0.067786, 0.015412, 0.012830, 0.153025, -0.077106, -0.141508, -0.000703, 0.053314, -0.015847, 0.000490, -0.016703, -0.015896, 0.049762, 0.087655, -0.001040, -0.041893, 0.027047, 0.037245, 0.060354, 0.021638, -0.001699, -0.002756, 0.090625, -0.074554, -0.046480, -0.060259, 0.053550, 0.129599, -0.004845, 0.070579, -0.149475, -0.050711, -0.098129, -0.126696, 0.067341, 0.054789, 0.011075, 0.042623, 0.013240, 0.000959, -0.093986, -0.027246, 0.178384, 0.078377, 0.157423, -0.130033, -0.067144, 0.117580, -0.068962, 0.122136, 0.009871, -0.073357, -0.003524, -0.031310, 0.090073, 0.042041, -0.039596, -0.127546, 0.074032, 0.136182, 0.119692, -0.059936, -0.046350, 0.097303, 0.048400, -0.106678, 0.055387, -0.015571, -0.021441, -0.086721, -0.139310, 0.022606, 0.072614, -0.110968, 0.090743, 0.025608, 0.005396, -0.089619, -0.065161, -0.050165, 0.028973, -0.098135, 0.079724, 0.023222, -0.019774, 0.071656, 0.078650, 0.127673, 0.131265, 0.006076, -0.086849, 0.004501, -0.054608, 0.029923, -0.067516, 0.000614, 0.041116, 0.045223, -0.028367, -0.113892, -0.022744, -0.040250, 0.049309, -0.077863, 0.044303, -0.189992, 0.061930, -0.003617, 0.075868, -0.018956, 0.014361, -0.077186, -0.032607, -0.005567, 0.007026, 0.042090, 0.026973, -0.039057, -0.023878, -0.112778, -0.200067, 0.086986, 0.043966, 0.026008, 0.025631, 0.001628, 0.054497, -0.068462, 0.023017, 0.133563, -0.121608, 0.093305, -0.019514, -0.118292, -0.001394, -0.033244, -0.026263, 0.090124, -0.035786, -0.118272, -0.092672, 0.089673, -0.012865, -0.035469, 0.114217, 0.167145, 0.073291, -0.001890, 0.022828, 0.028732, 0.089079, -0.061527, -0.008438, -0.078323, -0.000953, -0.038113, -0.027369, -0.023983, -0.036502, 0.031995, 0.008230, 0.052425, 0.003720, 0.003969, 0.057020, 0.003415, 0.042556, 0.148848, 0.050589, -0.019872, 0.067131, 0.131579, 0.059640, -0.032183, 0.036698, -0.014959, -0.059848, -0.003086, -0.005614, 0.080260, 0.041909, -0.009785, -0.041434, -0.039356, 0.021989, -0.005270, -0.005362, -0.014897, 0.000073, 0.022046, -0.002007, -0.075253, -0.017287, -0.027415, -0.036893, -0.069887, -0.045761, -0.038417, -0.107218, -0.073209, -0.064324, -0.018154, 0.033926, -0.092954, -0.020306, -0.017337, 0.045491, 0.008867, -0.000169, -0.028119, -0.011590, -0.017753, 0.005145, 0.005210, -0.037374, -0.066932, 0.004437, -0.005769, 0.029504, -0.071265, -0.051354, 0.046898, -0.007778, 0.026317, 0.074328, 0.029177, 0.009849, 0.081511, 0.026059, 0.006772, 0.006173, -0.045230, 0.061160, -0.070525, 0.037041, 0.133766, 0.026424, 0.034900, -0.000332, 0.109119, 0.053102, -0.015834, 0.021844, 0.003240, 0.063284, 0.022261, 0.103313, -0.050228, 0.001004, 0.041898, -0.060228, -0.033337, 0.001198, -0.001842, 0.016488, 0.021971, -0.079365, -0.043350, 0.106865, -0.023324, -0.109894, 0.053435, -0.001387, 0.011087, 0.028554, -0.035439, -0.024142, -0.135845, -0.010844, -0.041654, 0.008516, -0.009692, -0.042062, 0.005652, 0.000804, 0.009210, -0.023356, -0.007655, -0.071391, 0.037557, 0.069728, 0.064119, 0.077118, 0.100096, 0.043585, 0.137992, 0.072908, -0.054650, -0.126647, -0.011232, -0.018296, 0.059882, 0.033929, -0.079107, 0.062764, 0.019054, 0.050926, -0.144626, -0.103305, -0.030894, 0.023790, -0.051210, 0.004528, 0.012792, -0.131091, -0.129668, -0.134828, -0.035203, -0.123456, 0.081611, -0.075315, -0.074847, 0.088781, -0.001090, -0.052438, 0.035154, 0.060827, 0.005862, -0.052078, -0.089192, 0.008753, -0.062706, 0.059934, -0.015894, 0.026044, -0.003238, -0.054532, 0.010916, 0.105683, -0.106588, -0.080619, 0.013976, 0.089923, 0.047070, -0.041226, -0.050858, 0.032630, 0.038505, -0.116791, 0.029090, 0.000955, -0.023847, -0.097975, -0.032628, -0.034485, -0.017171, -0.030801, -0.054982, -0.073838, -0.083530, 0.073716, -0.114581, 0.008012, -0.000139, 0.112288, -0.012483, -0.046881, -0.028890, -0.065616, 0.086692, -0.112683, -0.015405, -0.009227, 0.067940, 0.150930, -0.040865, -0.028946, 0.040034, 0.055318, 0.022250, -0.144286, 0.038688, 0.052713, -0.028984, -0.064613, -0.008967, -0.001224, -0.083070, -0.166717, 0.011948, -0.082718, 0.064911, -0.062221, -0.082236, -0.008033, -0.124707, -0.069755, -0.031895, -0.053525, -0.013011, -0.001583, -0.008654, -0.072563, -0.010791, 0.007333, 0.051142, -0.005594, -0.043197, 0.058907, -0.080439, -0.049307, -0.053857, -0.043464, -0.169004, 0.002864, 0.022788, -0.008641, -0.143353, -0.067581, -0.044238, 0.029379, -0.113444, -0.110458, -0.091243, 0.046675, -0.003158, -0.049485, 0.052594, 0.019111, 0.034867, -0.101899, -0.090509, -0.114560, 0.148234, 0.033327, 0.038161, 0.155853, 0.045007, 0.097722, -0.107227, 0.028032, -0.038936, 0.017157, -0.014271, 0.048847, 0.005189, -0.134400, -0.016385, 0.189509, -0.010807, 0.001897, 0.046031, -0.030289, -0.064086, 0.003396, 0.059912, 0.081940, -0.202005, -0.009925, -0.054439, -0.008358, -0.052811, -0.029521, 0.055012, 0.002559, -0.085232, -0.157614, -0.000207, 0.094213, -0.108958, -0.005133, 0.009171, -0.004362, 0.069279, -0.065221, 0.125694, -0.038025, -0.141885, -0.004682, 0.080495, -0.011515, -0.107139, -0.185274, -0.024585, -0.089273, -0.006613, -0.039635, -0.022417, 0.061288, -0.056458, -0.067897, -0.000069, 0.090930, 0.006389, -0.050728, -0.042852, -0.008618, -0.024771, -0.143832, -0.042460, -0.011025, 0.038672, -0.006864, 0.038783, 0.025915, 0.025173, -0.039423, 0.045637, -0.038468, 0.180613, 0.104554, 0.011721, 0.025813, 0.008938, 0.024055, 0.220389, 0.043455, -0.033937, -0.022665, -0.008850, -0.087207, -0.020312, -0.090354, -0.124786, 0.074588, 0.071226, -0.039730, 0.119442, -0.020051, 0.113252, -0.027571, 0.003856, 0.031018, 0.039307, -0.015340, 0.116345, 0.042811, -0.002487, 0.066523, -0.030426, -0.075057, -0.186953, -0.020380, 0.084442, -0.162795, 0.052848, 0.045094, -0.018258, -0.015655, 0.078330, 0.098134, -0.039218, 0.018313, -0.118242, 0.097709, -0.010227, 0.044340, -0.049482, -0.006644, -0.013461, -0.113978, -0.032979, -0.001130, -0.011608, -0.117274, 0.000192, 0.112758, -0.034862, 0.012270, -0.000729, -0.032886, 0.111715, 0.104920, 0.063830, -0.020897, -0.070011, -0.099305, 0.059484, -0.125527, -0.096082, -0.121266, 0.040772, 0.013848, 0.021959, -0.098096, 0.102625, 0.088171, -0.033075, -0.077865, -0.028666, 0.053516, -0.032395, -0.082110, 0.148120, -0.106320, 0.091587, 0.076031, -0.089672, 0.008065, 0.014965, 0.043371, 0.029610, -0.089033, 0.099837, 0.060473, 0.080797, 0.038792, -0.126900, 0.039049, -0.061472, -0.099415, -0.108183, -0.014084, -0.025877, -0.059014, -0.107581, 0.002775, 0.055145, -0.052844, -0.014360, 0.002821, 0.022648, -0.080872, -0.146261, -0.119231, 0.068442, -0.013959, -0.014614, -0.115112, -0.066207, -0.029659, 0.041972, 0.009531, -0.122435, 0.111345, 0.156626, -0.028465, 0.049471, 0.024469, -0.047477, -0.000822, 0.089820, 0.067616, -0.003679, -0.174184, -0.038705, 0.001698, 0.072704, 0.022379, 0.037092, 0.010756, -0.057781, 0.034313, -0.137001, -0.050844, 0.049024, -0.044966, -0.040611, -0.123474, -0.006584, 0.038612, -0.032282, -0.053024, 0.012522, -0.047301, -0.000457, 0.107221, 0.097009, -0.025198, -0.026044, 0.103744, -0.073748, -0.188477, -0.000339, -0.176897, -0.033291, 0.005391, -0.074852, 0.001019, 0.070812, -0.076747, -0.009815, -0.030073, -0.002263, -0.135372, -0.006332, -0.072931, -0.028908, -0.188092, 0.040396, 0.045847, 0.092113, 0.018608, -0.014198, -0.003873, -0.066499, 0.086409, -0.161540, -0.076233, -0.076086, 0.036506, 0.038537, -0.005506, -0.085917, -0.015750, -0.016660, -0.132194, -0.004701, -0.069917, 0.052334, 0.003427, 0.022700, -0.001680, -0.191259, 0.021505, -0.119922, -0.080723, 0.065534, -0.101042, 0.026181, -0.189031, -0.000008, 0.109426, 0.014977, -0.138109, -0.078973, -0.100937, -0.109388, 0.029062, -0.003310, 0.098511, -0.082434, 0.024442, -0.099696, -0.062676, 0.049473, -0.064733, -0.001523, -0.079023, -0.044859, 0.008931, 0.004935, -0.047060, 0.000639, -0.013373, 0.017397, -0.053300, 0.004407, -0.069163, -0.004273, 0.018060, -0.019713, -0.027411, 0.015182, -0.066947, 0.004168, 0.092465, -0.194798, 0.001175, -0.202827, -0.130120, -0.020418, -0.036108, -0.014631, -0.130692, 0.003724, 0.021786, 0.009742, 0.053012, -0.084449, -0.226047, -0.001453, -0.041015, -0.003750, 0.000140, 0.001990, 0.089294, -0.075073, 0.067840, -0.020904, -0.019967, -0.011991, -0.045896, 0.033816, -0.010617, 0.000937, -0.060671, -0.000980, -0.143152, -0.005548, -0.028808, -0.062778, 0.006621, 0.057738, 0.007624, 0.112217, -0.001473, -0.096579, -0.033633, 0.082440, -0.004733, 0.085985, -0.057671, 0.054243, 0.007450, 0.134345, 0.072412, -0.095194, -0.005367, -0.133565, 0.012832, -0.041984, 0.189676, 0.085304, -0.103683, 0.078320, 0.095922, -0.076724, -0.143005, -0.017117, 0.127220, -0.132935, -0.025391, 0.041676, -0.176257, -0.092869, 0.045798, 0.045453, 0.061930, -0.003891, -0.048404, -0.021371, 0.062262, 0.024971, 0.133720, -0.098442, -0.006167, 0.035307, 0.124363, -0.009043, -0.134279, 0.038677, 0.079874, -0.048983, 0.000680, -0.076530, -0.167782, -0.052468, -0.064319, -0.093197, -0.112892, -0.166951, 0.015254, 0.057779, 0.010376, 0.049640, 0.072667, -0.031385, -0.124081, 0.073859, 0.114004, 0.179066, 0.064773, -0.012476, 0.160592, 0.013733, -0.133319, -0.037048, 0.001258, -0.043518, -0.134599, -0.026223, -0.182918, -0.032603, -0.062536, -0.032159, -0.099695, -0.018250, 0.065164, -0.055990, -0.058842, 0.008333, 0.000677, -0.168985, 0.184933, -0.120906, 0.009984, -0.078182, 0.074421, 0.017506, -0.149458, -0.073666, -0.072457, -0.015044, -0.173394, -0.093435, 0.087690, -0.008936, -0.211412, 0.085046, 0.079149, 0.010506, 0.073142, -0.110963, 0.027479, -0.258566, 0.009940, -0.127825, -0.153263, 0.018751, -0.108733, -0.010645, -0.033418, -0.018725, 0.059710, -0.008703, -0.101553, -0.043005, -0.032821, -0.203018, 0.011860, 0.007065, 0.093172, 0.109578, -0.006876, -0.049754, -0.059854, -0.008835, -0.042873, -0.023675, 0.188646, 0.082592, -0.000998, -0.001660, 0.025571, 0.016655, 0.021532, 0.107008, 0.076953, -0.001376, -0.008778, 0.071971, -0.056050, 0.001949, -0.060126, 0.067419, -0.061579, 0.044611, -0.082258, -0.039525, -0.080519, -0.002311, 0.053779, -0.139349, 0.009818, -0.093510, 0.052662, 0.006020, -0.015895, 0.049636, -0.097771, 0.012082, 0.023800, -0.076651, 0.016035, -0.098801, -0.005567, 0.002543, 0.013794, 0.147647, 0.007000, 0.096868, 0.064574, 0.064730, 0.029236, 0.028259, 0.044251, 0.183939, 0.176614, 0.006678, -0.000427, -0.066721, 0.142320, 0.056916, -0.128026, -0.034901, -0.177755, 0.031286, 0.048773, -0.000401, 0.029317, -0.003408, 0.125889, -0.065117, 0.028130, 0.033644, -0.082356, -0.000264, -0.026128, 0.005212, -0.051109, 0.001416, 0.030442, -0.027741, -0.052133, -0.054799, 0.086188, -0.035173, -0.059457, -0.011837, -0.000412, -0.040937, 0.066899, -0.025444, -0.114707, 0.006890, 0.025658, -0.055140, 0.034538, -0.110436, 0.000042, -0.064187, -0.126033, -0.141764, -0.046800, 0.079022, 0.023968, 0.095852, 0.106338, 0.019837, -0.006842, -0.041318, -0.050515, 0.007435, 0.083679, 0.076995, 0.005077, -0.009326, 0.067073, -0.008432, 0.012026, -0.125907, 0.012366, -0.024911, -0.059352, 0.006660, 0.009794, 0.035550, -0.001546, 0.023332, -0.151588, -0.010834, -0.002591, 0.002308, 0.108472, -0.011237, -0.041818, 0.115364, -0.025083, 0.013042, 0.032295, 0.137278, 0.135174, 0.067477, 0.065274, -0.049135, 0.152057, -0.024139, -0.106737, 0.105219, 0.116707, 0.077568, 0.008140, 0.053958, 0.020108, 0.068349, 0.044808, -0.059097, 0.070621, -0.075781, -0.040540, -0.101665, -0.083627, -0.090230, 0.118546, 0.036105, -0.112782, -0.043929, -0.027978, -0.071344, -0.111375, 0.090848, 0.023736, -0.022544, 0.042258, 0.067965, 0.079563, -0.051033, 0.122673, -0.088427, 0.072487, 0.099759, -0.078840, -0.066481, -0.092791, 0.093934, 0.091591, -0.023817, 0.095786, 0.080949, 0.040450, -0.111229, -0.080596, 0.072203, -0.012550, -0.130834, -0.047937, -0.000517, 0.085312, 0.095902, 0.070218, 0.069161, 0.012228, 0.073389, 0.080168, -0.000913, -0.056718, 0.086245, 0.083814, -0.000280, 0.091520, -0.000926, 0.080218, -0.014851, 0.056563, 0.012474, -0.029319, -0.030121, -0.004977, 0.112103, 0.075877, 0.016649, 0.001697, -0.016614, 0.049722, 0.002337, 0.094805, 0.001592, 0.019225, 0.007427, 0.036591, -0.011129, -0.080561, 0.020608, 0.084673, 0.053222, 0.125817, 0.024823, -0.020064, 0.045009, 0.009360, -0.006019, 0.021530, 0.016534, 0.069237, 0.030060, 0.041962, -0.092399, -0.031510, 0.037493, -0.026448, -0.061879, -0.080926, -0.099510, -0.056329, -0.051876, 0.037527, -0.002264, 0.053990, -0.006312, 0.003723, 0.161950, 0.005429, -0.052184, 0.006186, -0.064567, -0.044882, -0.025334, -0.000572, -0.058138, -0.003923, -0.024885, -0.088474, 0.065229, 0.184930, -0.009061, -0.146630, -0.045502, -0.003575, -0.012876, -0.048363, 0.006490, -0.034943, -0.031886, -0.062095, 0.016351, -0.055771, -0.004030, -0.007004, -0.012217, 0.070125, 