//Numpy array shape [64, 64]
//Min -0.301503509283
//Max 0.268360495567
//Number of zeros 0

#ifndef W4_H_
#define W4_H_

#ifndef __SYNTHESIS__
model_default_t w4[4096];
#else
model_default_t w4[4096] = {0.101068, 0.025141, 0.186222, 0.168313, -0.010342, 0.113964, -0.114975, -0.165690, 0.043300, -0.144686, 0.203555, 0.148973, -0.059449, -0.058177, 0.164543, -0.004971, 0.122917, -0.006912, 0.114018, 0.099210, 0.132357, 0.058762, -0.034178, 0.051296, 0.067490, -0.062937, -0.120802, -0.121350, 0.095972, 0.105091, -0.064327, 0.085154, 0.169855, 0.210166, 0.080732, -0.060527, 0.064329, 0.161229, 0.170501, -0.067707, -0.068797, 0.120643, 0.027727, 0.083703, -0.190750, -0.070100, -0.110611, 0.205864, -0.058099, -0.161952, 0.006796, -0.180351, -0.004831, -0.188578, 0.143871, 0.108357, -0.193643, -0.111977, 0.006572, 0.016328, -0.174994, 0.188355, -0.147749, -0.029613, 0.123574, 0.067490, -0.024944, 0.182893, -0.102084, -0.021649, 0.003758, -0.046604, 0.079266, 0.134236, 0.010254, 0.085605, -0.089752, 0.094553, 0.079737, 0.077246, 0.145906, 0.174998, -0.145232, 0.022855, 0.067821, -0.166200, 0.075887, 0.200878, 0.041548, -0.163089, 0.070790, 0.045631, 0.011899, 0.048496, -0.230856, -0.112138, 0.168907, 0.119600, 0.214927, -0.018617, -0.146437, -0.055243, 0.022737, -0.118515, -0.083965, 0.129002, 0.234750, -0.083568, -0.021592, -0.172945, 0.057531, 0.155269, 0.002359, -0.114498, -0.142695, 0.204478, 0.223012, -0.098242, 0.135815, 0.006528, -0.026112, -0.133892, 0.074701, -0.036612, -0.129083, 0.037405, -0.084253, -0.155292, 0.161998, 0.143796, 0.209400, 0.199670, -0.143123, 0.077201, 0.057091, 0.170842, -0.099280, 0.183640, 0.187691, -0.045038, -0.094915, 0.205890, -0.157521, 0.013554, 0.063618, 0.069381, -0.089198, 0.121349, -0.142396, 0.184725, 0.079859, -0.135437, -0.213469, 0.201477, 0.145062, -0.192410, -0.134492, -0.126049, 0.184687, -0.112023, -0.165031, 0.065095, -0.019852, 0.168737, -0.158273, -0.156481, 0.134307, -0.191194, -0.001662, -0.116656, 0.013270, 0.165686, 0.014615, -0.106498, 0.078205, 0.201856, -0.006148, -0.033385, 0.092784, -0.109496, -0.066487, -0.146821, 0.018123, 0.161097, -0.056795, 0.047145, 0.174495, -0.138556, -0.096620, -0.021601, 0.008401, 0.188814, 0.085764, -0.129372, -0.090412, 0.156321, 0.017547, 0.155673, 0.118248, 0.091975, -0.107690, 0.091624, -0.014002, 0.008283, 0.032447, -0.105689, 0.153655, -0.206127, 0.179568, 0.022516, 0.127333, 0.147688, 0.194165, -0.031435, 0.145547, -0.177016, 0.067892, 0.062389, 0.126769, 0.134517, 0.098107, -0.023135, -0.054791, 0.009624, 0.098001, -0.108169, -0.043551, 0.048266, 0.210842, 0.182204, 0.167079, 0.166201, 0.086975, 0.170009, 0.102095, 0.049039, 0.009483, 0.070376, -0.131833, 0.057830, 0.052702, -0.133902, 0.124280, 0.106730, -0.027963, 0.004078, -0.072400, 0.135641, -0.117782, 0.204973, -0.138776, -0.037699, -0.195945, 0.137691, 0.176707, 0.070039, 0.046511, -0.079104, -0.175433, 0.090601, 0.055590, 0.000374, 0.019519, -0.093291, 0.026106, -0.087952, 0.109018, 0.079194, -0.071863, -0.101025, -0.086221, -0.138767, -0.040063, 0.005589, 0.024577, 0.160515, -0.085184, -0.109522, 0.224369, 0.081478, -0.083746, -0.070632, 0.089154, -0.166596, -0.077209, -0.024246, -0.153869, -0.018372, 0.038673, -0.028642, 0.073454, -0.135361, 0.139046, -0.042666, -0.038052, -0.008445, 0.142965, 0.053307, 0.162326, -0.102230, 0.014798, 0.167317, 0.118347, 0.042286, 0.075420, -0.091337, 0.115097, 0.101014, 0.099298, 0.048818, -0.093959, 0.226376, 0.153101, 0.073047, -0.134518, 0.114029, -0.000578, 0.154869, -0.071112, -0.094474, -0.158825, 0.144681, 0.014886, -0.107660, -0.099997, 0.043681, -0.164701, 0.216132, -0.200117, -0.170188, -0.008555, 0.183999, 0.100355, -0.173856, -0.149809, 0.119512, 0.044485, -0.153717, -0.033950, -0.034042, 0.193771, 0.129954, 0.069795, -0.217003, 0.079429, 0.184802, 0.038739, 0.188950, -0.037180, -0.082180, -0.005546, -0.165635, -0.222174, -0.137318, 0.053469, 0.141487, 0.194689, 0.014768, 0.122288, -0.195155, 0.201776, 0.090760, 0.084496, 0.230973, 0.148030, -0.045593, 0.031382, -0.044252, 0.167490, -0.096257, 0.110612, -0.034607, -0.220593, 0.216040, -0.009569, 0.100756, -0.027391, -0.212284, 0.057487, 0.196046, 0.050613, -0.113239, -0.161530, -0.178780, 0.052448, -0.000018, 0.063587, 0.054677, -0.127909, -0.049754, -0.048947, 0.013844, 0.071174, -0.191764, -0.142528, 0.092651, 0.057326, -0.084968, 0.024119, -0.105966, -0.026212, 0.026423, 0.189453, -0.094425, 0.168404, -0.186351, -0.074997, 0.113946, -0.010529, -0.105563, -0.190575, -0.196897, -0.104884, -0.019219, -0.004479, -0.112650, 0.153440, 0.187996, 0.113836, 0.066271, -0.099788, -0.097084, -0.171825, 0.175431, 0.070035, 0.147170, 0.033200, -0.198159, 0.203953, 0.165468, -0.119319, -0.035349, 0.036665, -0.210219, 0.027987, 0.120685, -0.199230, -0.160936, 0.137891, -0.138028, -0.074729, 0.086301, -0.120099, 0.024110, 0.143498, -0.195229, -0.107676, 0.185117, 0.021944, 0.084356, -0.013756, -0.115667, -0.022569, 0.023903, -0.082963, -0.045444, -0.029344, 0.119953, 0.122529, -0.188418, 0.221963, -0.168257, -0.216233, 0.192865, -0.206202, -0.055288, 0.118222, 0.020223, 0.135897, 0.049678, -0.117727, 0.145731, 0.167185, 0.151966, 0.057272, 0.076173, 0.171367, 0.134262, 0.024430, -0.154354, 0.100531, 0.194262, -0.042540, -0.157396, 0.061659, 0.120609, 0.005585, 0.092465, 0.114780, 0.056612, 0.046474, 0.185972, 0.115130, 0.143584, 0.165216, 0.174195, 0.002670, -0.177489, -0.040840, 0.128032, 0.109211, -0.109473, -0.133243, 0.226043, 0.175954, -0.075430, -0.059296, -0.112016, 0.153113, -0.196584, -0.075344, 0.145008, -0.137636, 0.022389, -0.202154, 0.088421, -0.165428, 0.125758, -0.150027, 0.026361, -0.097118, -0.049726, -0.054899, -0.026301, -0.100961, -0.151376, -0.111868, 0.015149, 0.141603, 0.044912, -0.071203, -0.144178, 0.097800, 0.112854, -0.211540, -0.036985, -0.140782, 0.180240, 0.082807, -0.105252, 0.140682, 0.003953, -0.061159, -0.138660, -0.127847, 0.170526, -0.051428, -0.151254, -0.021402, -0.004177, -0.142578, 0.022362, 0.094963, -0.172664, -0.199382, 0.008673, -0.165631, -0.138093, 0.155691, 0.187284, 0.155272, 0.167654, -0.144897, 0.160026, 0.020655, -0.172194, -0.186209, -0.027119, 0.008365, 0.162389, -0.043267, -0.026637, -0.114213, 0.114088, -0.104479, 0.047095, -0.185767, 0.158221, -0.013242, -0.032684, -0.084473, 0.155210, 0.119187, 0.008371, -0.117530, -0.032231, 0.184485, 0.013976, 0.090134, -0.002475, 0.029861, 0.013278, 0.161336, -0.159408, 0.066636, 0.042191, -0.129085, 0.097343, 0.117288, -0.149410, 0.099261, 0.161317, 0.003868, -0.080281, 0.094808, -0.051327, 0.091379, 0.057144, 0.011687, 0.109200, 0.002580, 0.199287, 0.081363, -0.160734, 0.050711, 0.073163, -0.022082, 0.015391, 0.049494, -0.027641, 0.093476, 0.048203, -0.006532, -0.095134, -0.082734, -0.100888, 0.140738, -0.080123, -0.128000, -0.157915, -0.141383, -0.160255, 0.171833, 0.056561, -0.072091, -0.068535, 0.067465, -0.181905, 0.168915, 0.049563, 0.166462, -0.175029, -0.042942, 0.179205, -0.151267, 0.107061, -0.044573, 0.120864, -0.126445, 0.073948, -0.172179, 0.131001, 0.117021, 0.059327, -0.105392, 0.248564, -0.148111, 0.099654, -0.020425, 0.108435, -0.060307, -0.073456, -0.185273, 0.066849, 0.156024, 0.145078, -0.137506, -0.128541, -0.047568, 0.111705, 0.101222, 0.045552, -0.165239, 0.191941, -0.130191, 0.082104, -0.182064, 0.165470, -0.080969, -0.065810, -0.039140, -0.062669, 0.171985, -0.072564, 0.173070, -0.123726, 0.125941, 0.116303, -0.147822, -0.180334, 0.082783, -0.098953, 0.072577, -0.002517, 0.168495, 0.073613, 0.085420, -0.152575, 0.134596, 0.046884, 0.000548, 0.135072, -0.142161, 0.133611, -0.149263, -0.132356, 0.224846, 0.003259, 0.064936, -0.041667, 0.030131, -0.157767, 0.017516, -0.107507, -0.212897, 0.187063, 0.013572, 0.157990, 0.253489, -0.054051, -0.061909, 0.087682, 0.208164, 0.130002, 0.041391, -0.135113, -0.186745, -0.018402, -0.190252, -0.188784, -0.002829, 0.113978, 0.030229, -0.041991, 0.095130, 0.062396, -0.097786, 0.105870, 0.102809, 0.009169, -0.080950, -0.133525, -0.019610, -0.016893, 0.063897, 0.172480, 0.053451, 0.181947, 0.203516, -0.032498, -0.113117, 0.134649, 0.132201, 0.039121, -0.057510, 0.163632, 0.160985, -0.155751, 0.194062, -0.073180, -0.083733, -0.171879, -0.205135, 0.116646, -0.159886, 0.190452, -0.145275, 0.080699, 0.005544, -0.194993, -0.030161, 0.015354, 0.185385, -0.163495, 0.118431, -0.011969, 0.113277, 0.044786, 0.101827, 0.007401, -0.060128, 0.167568, -0.020895, 0.152719, -0.107029, -0.074896, 0.040617, -0.205645, 0.039778, 0.046358, 0.050719, -0.099816, -0.151187, -0.088888, -0.039292, 0.058687, 0.049525, 0.048755, 0.025039, 0.025472, 0.134833, -0.225394, 0.058651, -0.209766, 0.000030, -0.175472, -0.056466, -0.009165, -0.007733, 0.157260, 0.119333, -0.169508, 0.201159, 0.148300, 0.070792, -0.164385, 0.003460, 0.153848, 0.049962, -0.071892, 0.012167, 0.164325, 0.204424, -0.168234, 0.066503, 0.179448, -0.123790, -0.161924, 0.050386, 0.141028, -0.072300, -0.137920, -0.168614, 0.096163, 0.096546, -0.097009, 0.091696, 0.104675, 0.069121, -0.054686, -0.040872, 0.173585, 0.017483, -0.108359, 0.073198, -0.073696, 0.135458, 0.119004, -0.026177, 0.085868, 0.133811, -0.113345, 0.181203, 0.044392, -0.095206, 0.199363, -0.221748, -0.111477, -0.116103, -0.109466, -0.179308, -0.173625, 0.081556, -0.087665, -0.171648, 0.130348, -0.057256, -0.055299, -0.115339, -0.054039, -0.040157, -0.159404, -0.061341, -0.003519, -0.179414, 0.116577, 0.150120, 0.078786, 0.074941, -0.168014, 0.007323, 0.090729, 0.066085, -0.003199, -0.107991, -0.146616, 0.109558, -0.013688, -0.178334, 0.028161, -0.226287, -0.185549, -0.104733, -0.066076, 0.179132, 0.108622, -0.069499, -0.083953, -0.150147, -0.010518, 0.017231, -0.163019, -0.030731, -0.162753, -0.162912, 0.154365, 0.111232, 0.054105, 0.125136, 0.144953, 0.028255, -0.162275, 0.146441, 0.176182, -0.145106, 0.036249, 0.166952, -0.166750, 0.091239, -0.027801, -0.155379, -0.044106, -0.095001, -0.143860, 0.176478, -0.022373, 0.021367, -0.103520, -0.065899, -0.133754, -0.047230, 0.049506, -0.077863, 0.213672, -0.024736, 0.154586, 0.055257, -0.091031, -0.140939, 0.198894, 0.104201, -0.197998, -0.037884, -0.200424, -0.061813, 0.105768, -0.084995, -0.016056, 0.092593, 0.150539, -0.172983, 0.207525, -0.033288, 0.092887, -0.044058, -0.082958, 0.157883, 0.047092, 0.133275, -0.151537, 0.012020, 0.063291, -0.137628, 0.091712, 0.240356, 0.033633, -0.031164, 0.129306, -0.019357, -0.005557, 0.193835, -0.201206, -0.118342, -0.193112, 0.161558, -0.117616, -0.076557, -0.160975, -0.201225, -0.179243, -0.164781, 0.047981, 0.069250, -0.046922, -0.122499, -0.192619, 0.053505, -0.065762, 0.112200, -0.015500, 0.046243, 0.186722, 0.148697, 0.041292, 0.067849, 0.053526, -0.148541, -0.064604, -0.036260, -0.028779, -0.019789, -0.002299, -0.004995, 0.070775, -0.095132, 0.162539, 0.114208, 0.082571, -0.030076, -0.133825, -0.153438, 0.157632, 0.177031, -0.177206, 0.132780, -0.164893, -0.069628, 0.045110, 0.037335, -0.097690, 0.125772, -0.116888, -0.142483, -0.226984, 0.112093, -0.197742, -0.098890, 0.026540, 0.179191, -0.021643, 0.005166, -0.093794, 0.075263, 0.037504, 0.147335, -0.088488, 0.003273, -0.111522, 0.200184, -0.144084, -0.180302, 0.144804, 0.005379, -0.014921, -0.237505, -0.080854, 0.093804, 0.169093, 0.154901, -0.141489, -0.292275, 0.062067, -0.024494, 0.125092, -0.301504, 0.077272, 0.195337, 0.135624, 0.093700, 0.026509, 0.005049, -0.230409, 0.194141, 0.136060, 0.065193, 0.015790, -0.068686, -0.118803, -0.175116, -0.023463, 0.106502, -0.134043, -0.185248, 0.069736, -0.118089, -0.003826, 0.241701, -0.007313, -0.101291, -0.182790, 0.130361, -0.199258, -0.114330, -0.227067, -0.027146, 0.156853, -0.213279, -0.025747, -0.185017, 0.109883, -0.197806, -0.162605, -0.223634, 0.115431, 0.147924, -0.076332, 0.072276, -0.229697, -0.103472, -0.206939, 0.122833, -0.191840, -0.084255, 0.047425, -0.010121, 0.025108, -0.116136, 0.232120, 0.101884, -0.129485, -0.186923, 0.049359, 0.048785, -0.082763, 0.096554, 0.069914, 0.141809, -0.204281, -0.051642, 0.006285, -0.111078, -0.090759, 0.047600, -0.006806, -0.100477, -0.023761, -0.117966, -0.007400, -0.020940, -0.143212, -0.064624, -0.095318, -0.148564, 0.150714, -0.189750, 0.076606, 0.057604, -0.144944, -0.025013, -0.195489, -0.158311, -0.104801, -0.138807, 0.008052, -0.183983, -0.146844, 0.150321, 0.005476, -0.126984, -0.080439, -0.003282, 0.104915, -0.113254, 0.111166, 0.004662, 0.132511, 0.009958, 0.066514, -0.075258, 0.191119, 0.046235, -0.165937, 0.089312, -0.094056, -0.045465, -0.127876, -0.019555, 0.150183, 0.101887, 0.057761, 0.007602, 0.134126, 0.093811, 0.147935, 0.131615, 0.063674, -0.058956, 0.115861, -0.172735, -0.153449, -0.183896, 0.060913, 0.109549, 0.013768, 0.172656, -0.041570, 0.001927, -0.143572, -0.059817, -0.013302, -0.000415, 0.153815, -0.187960, 0.167156, 0.127763, 0.016375, 0.103871, 0.077188, -0.018872, 0.185520, -0.153157, 0.111266, 0.001333, -0.137962, -0.019596, -0.076071, 0.110213, 0.053893, 0.000597, 0.014000, -0.022579, -0.007869, 0.035436, 0.058974, 0.100059, 0.085182, 0.136589, -0.040142, 0.154513, 0.035379, -0.123004, -0.068868, 0.177937, 0.027724, 0.063430, -0.059660, 0.076489, 0.161126, -0.028276, 0.187573, 0.089232, -0.197321, 0.000492, 0.053987, 0.149861, -0.143091, -0.147453, -0.190457, 0.011335, -0.094061, -0.194025, -0.094841, -0.163011, -0.046208, -0.208330, -0.178844, -0.001153, -0.091393, 0.028397, 0.117116, 0.239553, -0.108277, 0.002010, -0.126575, 0.100429, -0.086595, -0.193427, 0.057772, 0.102071, -0.176853, -0.067328, -0.058945, -0.189158, -0.060238, 0.000761, 0.103264, 0.119718, 0.184238, -0.002745, 0.014017, 0.085282, -0.103016, -0.095452, 0.074940, -0.159325, -0.177526, -0.036155, -0.095432, -0.055149, -0.026600, 0.020946, 0.202093, 0.193880, -0.077961, 0.022006, -0.145640, 0.063019, 0.193745, 0.015283, 0.007771, -0.182201, 0.144478, -0.060418, 0.201265, -0.071778, -0.200526, 0.090264, 0.104116, 0.127054, 0.050569, 0.030169, 0.108019, 0.010136, -0.012023, 0.200080, 0.002788, 0.140594, 0.139347, -0.193044, 0.047959, 0.144104, -0.146062, -0.066900, 0.093095, 0.002623, -0.037401, 0.000308, -0.181550, -0.201886, -0.104486, -0.066273, 0.170608, -0.135870, -0.102579, 0.017707, 0.070533, 0.175249, 0.081363, 0.032341, -0.045948, 0.198238, 0.085768, -0.085805, 0.148345, 0.027905, 0.185581, 0.142547, -0.006341, -0.123261, 0.218729, 0.167124, -0.003579, 0.204953, -0.162881, -0.090016, -0.213148, 0.032026, -0.002711, 0.231461, -0.056214, 0.007332, -0.085937, -0.009353, -0.169852, -0.126747, 0.056339, -0.037462, -0.091281, 0.172742, 0.102086, -0.137301, 0.161487, -0.004263, -0.124505, -0.030872, -0.240650, -0.025064, 0.142597, 0.035045, 0.141534, -0.025510, -0.147987, -0.177533, -0.076455, -0.047851, 0.081744, 0.107980, -0.130994, 0.267174, -0.078054, 0.121320, -0.179854, -0.101804, 0.085770, -0.224901, 0.161806, 0.015420, -0.140926, -0.094140, -0.146101, -0.171231, -0.126322, 0.049256, -0.133149, 0.174034, -0.074048, 0.125243, -0.002640, 0.154407, 0.135106, -0.077169, -0.177315, -0.239030, -0.074313, -0.012832, 0.043269, 0.047886, 0.021952, 0.082278, -0.135901, -0.087437, -0.082658, -0.218440, 0.168265, -0.133179, 0.234381, 0.144077, 0.088694, -0.014355, 0.173688, 0.096808, -0.082684, -0.223092, 0.185989, -0.118110, 0.059671, -0.027551, -0.116579, 0.031828, 0.127816, 0.107001, -0.084215, -0.161987, -0.103923, -0.052889, -0.030172, 0.117116, -0.183688, 0.154402, 0.161059, 0.134821, 0.018505, 0.141043, 0.182472, -0.204839, 0.186796, 0.135616, -0.083008, -0.090256, -0.147446, -0.020471, -0.138490, 0.119447, 0.228855, 0.107888, 0.161924, -0.046160, 0.046663, -0.010379, 0.166489, -0.231240, -0.184371, 0.150390, 0.119544, -0.105203, 0.033072, 0.167911, -0.059739, 0.133517, -0.050193, 0.045710, -0.180437, 0.005448, 0.159665, -0.181354, -0.152577, -0.040929, -0.139991, 0.024153, -0.055493, 0.140280, -0.060450, 0.161201, -0.095047, 0.174714, -0.112256, 0.031336, -0.106553, 0.176284, 0.109398, 0.041632, -0.083707, -0.060458, -0.057540, -0.035317, 0.096725, -0.084709, 0.074197, 0.195247, -0.040823, 0.166673, -0.177329, -0.059538, -0.122752, -0.130558, -0.138042, -0.129203, 0.039274, 0.093294, 0.163728, 0.028700, 0.003391, 0.128663, -0.095462, -0.143425, 0.212983, 0.161794, -0.000440, 0.024071, -0.036682, -0.089148, -0.110255, -0.089172, -0.033946, -0.112797, 0.103623, -0.065564, -0.147389, 0.141381, 0.175511, 0.160195, -0.038214, -0.093967, 0.034413, 0.151822, -0.104230, 0.148372, 0.015318, -0.140716, -0.034548, 0.146524, -0.009311, -0.148791, -0.060966, -0.239268, 0.179820, 0.196271, 0.062654, -0.083648, -0.229662, 0.088376, -0.115722, -0.067826, 0.060030, 0.054758, -0.110714, -0.148000, -0.004590, 0.048226, 0.159417, 0.212148, 0.093358, -0.004752, 0.037240, 0.165232, -0.134326, -0.248335, 0.106170, -0.198298, 0.080259, 0.174257, -0.048087, 0.095706, 0.065671, 0.037237, 0.160873, -0.058776, 0.155245, -0.101515, -0.167239, 0.099941, 0.074309, -0.001929, -0.169992, -0.013038, -0.026053, -0.072754, 0.193311, 0.038194, -0.180493, -0.121190, 0.171717, 0.177199, -0.019434, -0.065442, -0.042267, -0.107336, -0.075611, -0.196602, -0.046313, -0.159878, 0.047207, -0.038514, -0.084949, -0.010159, -0.031829, 0.142085, 0.108263, 0.002825, 0.142777, -0.057362, 0.129991, 0.083010, 0.017479, -0.087648, 0.108120, 0.202954, 0.100731, 0.086986, 0.187149, -0.046229, 0.103648, 0.092179, 0.098775, 0.107670, 0.060392, 0.118685, -0.160165, -0.008671, -0.022001, 0.008169, -0.133872, 0.024590, 0.034287, 0.097912, 0.200251, -0.132281, 0.130477, 0.184107, 0.177496, -0.110924, -0.190088, 0.153079, 0.175552, -0.152794, 0.161452, -0.076536, -0.069871, 0.096099, -0.185169, -0.072045, -0.161651, 0.177148, 0.210814, -0.165854, 0.075167, 0.152909, 0.061657, -0.192107, -0.121453, -0.025060, -0.103584, 0.089127, -0.034359, 0.005542, -0.178250, -0.153902, -0.067060, -0.066628, -0.087655, -0.161023, 0.078645, -0.119361, 0.200130, -0.125181, 0.119274, -0.039553, 0.124598, 0.127840, -0.152045, -0.190302, 0.056955, -0.092975, 0.145322, -0.017977, -0.192508, -0.225005, -0.144372, -0.144802, -0.200254, 0.052763, 0.193678, 0.166697, 0.029814, -0.241733, 0.053740, -0.157869, 0.017910, -0.145189, -0.234961, 0.181418, 0.160561, -0.186602, -0.036712, 0.090942, -0.113011, -0.147799, 0.176232, -0.093323, -0.068972, 0.086266, -0.189306, 0.159679, 0.133128, 0.144996, 0.051977, 0.100846, 0.030155, 0.194808, 0.139938, -0.214378, 0.012420, -0.129770, -0.065928, -0.175772, -0.134198, -0.151669, 0.103026, -0.025368, 0.194104, 0.228919, -0.156636, -0.170757, -0.060334, 0.120135, 0.032762, 0.053998, -0.179590, -0.183489, -0.030336, -0.183871, 0.070627, -0.153010, 0.065188, -0.037692, -0.075552, 0.187258, -0.107645, -0.004868, -0.108708, -0.184330, -0.044336, 0.001571, -0.171582, 0.056619, -0.149032, 0.070769, 0.165670, -0.045559, 0.169922, 0.034721, -0.072935, -0.076582, -0.065951, -0.139200, 0.046045, 0.153357, -0.167398, 0.181851, -0.139377, 0.184721, 0.106127, -0.014300, -0.027732, -0.188115, 0.130971, -0.119728, -0.046143, -0.147531, -0.110389, 0.062078, -0.139783, -0.013702, -0.044249, 0.034062, -0.225230, 0.028586, -0.066907, 0.035980, -0.001144, 0.065227, 0.172240, 0.176142, 0.070506, -0.087761, -0.104932, 0.134035, 0.036536, -0.196606, 0.145528, 0.062422, 0.008500, -0.004109, -0.058893, 0.123535, -0.208687, -0.190404, -0.048648, 0.132043, -0.167596, -0.118999, -0.052171, 0.119862, -0.048250, 0.213441, -0.093833, -0.198068, -0.102656, -0.105308, 0.094327, -0.000418, 0.129053, 0.065949, -0.164872, 0.048156, -0.087414, -0.099895, -0.113545, 0.002296, -0.093263, 0.005359, 0.004418, -0.165969, 0.086861, -0.099420, -0.217304, 0.085849, 0.144123, -0.068497, 0.101019, -0.140611, 0.173980, 0.088359, -0.089304, 0.000673, 0.020654, -0.180884, 0.112191, 0.197058, -0.151777, -0.101637, -0.187556, -0.062141, -0.087293, 0.170733, 0.082590, -0.116349, -0.184006, 0.155204, -0.228488, 0.165482, 0.148783, -0.042121, 0.063137, -0.262703, -0.085570, -0.218403, 0.020264, 0.104922, -0.101610, 0.177197, 0.133054, -0.113482, -0.180153, 0.139053, -0.075119, 0.088880, -0.012473, -0.151285, 0.118542, 0.062137, 0.030512, 0.029237, -0.085485, -0.104826, 0.149614, 0.040602, -0.159315, -0.156472, 0.043828, 0.066554, 0.134044, -0.028467, -0.202171, -0.061720, 0.192318, 0.043754, -0.206315, 0.057855, -0.051185, -0.048471, 0.110860, 0.070886, 0.068796, -0.113547, -0.143675, 0.175802, -0.186234, -0.130958, 0.094616, -0.002910, -0.128340, -0.024491, -0.047792, -0.093517, 0.134351, 0.143411, 0.056785, 0.159697, 0.072318, -0.042958, -0.179246, 0.055900, -0.195753, -0.048227, 0.177894, 0.029363, -0.206042, 0.074176, 0.062002, -0.022950, 0.049760, 0.207654, 0.095761, 0.185362, -0.124247, -0.096765, -0.138082, -0.013828, -0.187346, 0.058732, -0.075381, 0.037412, -0.159738, 0.063209, -0.197477, 0.085783, -0.068617, 0.075791, 0.133555, 0.074270, -0.028516, -0.111182, 0.041152, 0.096673, -0.077202, -0.054048, 0.060054, 0.067251, -0.138354, -0.017860, -0.090135, -0.135387, -0.177880, -0.013293, -0.120691, 0.030045, -0.126880, -0.142345, 0.115174, 0.040684, 0.045369, -0.108569, -0.148963, 0.130532, -0.145968, 0.173446, -0.182124, 0.090775, -0.204744, -0.188672, -0.109541, 0.084290, 0.109373, 0.097784, -0.187779, 0.074359, -0.082976, 0.133161, -0.170163, 0.111092, 0.014685, 0.123193, 0.040471, -0.011172, -0.116822, 0.122480, -0.149732, 0.125117, -0.011987, -0.066309, -0.113580, 0.208864, 0.100533, -0.030515, 0.130954, -0.183807, 0.067674, -0.145978, 0.096364, -0.147041, -0.089336, -0.180047, 0.087125, -0.065015, 0.021380, 0.175766, -0.167371, -0.139333, -0.096653, -0.104935, 0.097445, 0.022034, 0.086828, -0.022686, 0.047844, -0.043151, 0.061651, 0.115753, 0.010335, 0.177382, 0.026705, 0.060584, -0.037766, 0.026775, -0.164421, 0.189702, -0.095339, -0.034065, 0.040140, -0.199645, -0.065464, -0.182725, -0.076020, 0.039245, 0.171464, 0.021397, -0.062730, -0.009543, 0.082029, 0.069553, 0.221291, 0.178552, 0.204786, 0.044652, -0.050639, -0.096662, -0.087279, 0.004648, -0.048012, 0.004907, -0.162563, -0.183966, -0.146081, 0.014918, 0.015584, 0.198249, -0.074408, -0.170574, 0.035798, -0.175652, 0.082312, -0.176279, -0.121798, 0.041182, -0.126391, -0.010375, 0.043732, -0.054446, -0.084123, 0.072549, 0.114122, 0.101889, -0.054499, 0.011584, 0.049669, 0.154946, -0.128750, -0.136696, 0.011229, -0.139152, 0.045933, 0.174475, 0.044922, -0.035616, 0.124394, -0.040506, -0.132634, -0.155145, 0.102055, 0.056620, 0.176001, -0.068094, -0.027555, 0.110584, 0.022636, -0.138666, 0.009196, 0.157943, -0.179444, 0.168958, -0.044118, 0.180112, -0.169003, -0.007589, 0.048356, 0.076634, -0.134491, -0.081335, -0.059998, -0.010693, 0.131157, -0.033020, 0.114604, -0.115774, -0.125575, 0.195960, -0.221346, 0.078553, -0.091838, 0.168660, 0.017261, -0.144489, 0.034765, 0.029814, 0.190014, -0.089505, -0.172689, 0.061421, 0.065501, -0.149595, 0.148319, -0.173508, 0.007807, 0.123311, -0.208710, -0.082500, 0.006608, -0.217031, -0.145785, 0.067424, -0.168063, 0.157518, 0.125924, -0.097772, -0.002490, -0.122176, 0.198497, -0.043772, -0.043762, -0.238733, -0.043899, -0.123919, -0.071304, -0.050025, -0.165236, 0.011164, -0.120509, 0.078399, -0.069920, 0.092654, 0.112156, 0.182921, -0.041413, -0.240905, 0.066310, -0.202305, 0.089377, -0.110074, -0.139239, 0.014525, -0.127712, -0.147466, 0.233384, 0.035141, 0.135887, -0.075844, 0.095158, -0.000674, 0.148156, -0.064451, -0.077946, -0.062586, -0.104230, 0.139135, -0.151777, -0.088196, -0.158265, -0.032281, -0.039255, -0.086995, 0.190906, 0.009156, -0.114873, 0.094916, -0.025322, 0.072574, -0.095255, 0.160278, 0.055644, 0.101645, -0.113281, 0.094286, -0.127743, -0.094693, -0.021967, 0.153653, -0.194388, -0.136251, 0.131209, -0.151272, 0.170590, 0.070319, -0.123721, -0.040109, -0.205880, 0.178705, -0.116528, 0.032021, -0.209675, 0.077203, 0.125076, -0.133352, -0.155865, 0.178246, -0.112512, 0.167935, -0.096991, 0.002862, 0.095823, 0.041302, 0.039483, 0.117701, 0.011615, -0.108523, -0.132757, 0.203588, -0.189805, 0.048308, -0.030330, -0.161903, -0.150721, -0.184660, 0.087988, 0.093670, -0.082811, -0.126804, -0.100965, 0.148514, -0.161379, 0.026131, -0.234435, 0.032859, -0.053662, -0.006151, 0.047050, 0.102898, -0.051137, 0.027379, 0.210591, -0.042514, 0.026100, -0.135802, 0.151701, 0.206907, -0.090989, 0.127944, 0.105736, -0.049653, -0.145194, -0.166163, -0.175770, 0.104059, -0.007116, 0.158367, -0.154949, 0.148398, -0.105629, 0.080570, 0.080922, 0.194250, -0.000151, 0.086426, -0.062287, 0.173466, 0.019637, -0.109732, -0.143780, -0.195207, 0.133435, 0.056653, -0.022886, 0.142045, -0.091582, 0.104656, -0.007576, 0.070488, -0.006267, 0.205002, 0.157487, 0.117117, -0.236469, -0.151329, 0.214145, -0.003822, -0.054364, -0.123180, -0.149700, -0.052493, -0.095747, 0.208858, -0.167477, -0.178833, 0.198924, -0.224199, -0.113986, -0.045054, 0.111326, -0.157950, -0.098687, 0.134018, -0.203958, -0.173282, -0.156475, -0.100423, -0.038161, -0.086177, 0.164542, 0.006670, -0.184333, -0.151292, 0.149473, 0.151219, -0.164312, 0.096575, -0.058543, -0.167170, -0.078761, 0.145732, 0.061811, -0.090648, -0.129519, 0.113233, 0.171357, 0.149072, 0.077275, 0.092572, 0.163943, -0.149594, -0.052932, -0.037637, -0.010126, 0.092066, -0.017480, -0.096432, -0.169287, 0.104281, 0.116692, -0.047244, 0.039563, -0.038321, 0.126073, 0.025187, 0.035524, 0.144404, -0.206871, -0.117761, 0.032075, -0.008494, -0.108277, 0.020487, -0.004565, 0.004765, -0.008071, -0.051765, -0.021796, 0.149416, 0.073491, -0.179047, 0.054621, 0.022362, 0.117908, -0.088224, -0.072822, 0.112544, -0.077000, 0.116517, -0.064334, -0.014925, 0.000389, -0.066375, -0.001300, 0.161276, 0.118865, 0.012658, 0.157608, 0.056823, -0.178655, 0.003157, 0.042103, -0.078966, 0.066494, 0.086881, 0.122538, -0.031102, -0.172727, -0.223963, 0.133331, -0.063557, 0.043595, 0.223194, -0.179433, 0.105526, -0.134726, -0.092221, 0.092494, 0.035049, -0.061897, -0.184457, -0.043281, -0.118947, 0.123305, 0.174492, 0.095526, 0.172049, -0.015485, 0.102295, 0.218140, -0.241591, -0.007907, -0.047819, 0.143274, -0.048369, -0.152598, -0.163483, -0.003132, -0.056088, -0.017374, 0.041801, 0.033584, -0.017841, 0.147396, 0.102907, 0.021136, 0.007245, -0.040737, -0.109703, -0.100389, -0.104390, 0.205629, -0.018420, 0.040803, 0.165188, -0.009933, -0.002415, -0.179644, -0.184901, -0.117735, -0.180116, 0.038363, 0.096515, 0.035724, 0.044538, -0.088539, -0.030248, 0.156203, -0.051192, 0.006424, 0.055816, -0.196397, 0.128193, 0.110511, -0.193736, 0.091067, -0.124677, 0.073493, -0.143399, 0.001503, 0.144120, -0.115272, 0.048508, 0.018294, 0.068151, 0.062268, 0.025476, -0.016927, 0.018918, 0.028670, 0.144641, -0.086369, 0.072331, -0.008616, 0.019013, 0.122568, -0.068645, -0.052226, 0.124464, -0.170983, -0.184047, -0.036295, -0.060659, -0.019578, -0.152460, -0.029753, 0.185145, -0.023672, 0.008030, -0.137512, 0.181861, 0.209822, 0.054300, -0.065835, 0.200531, -0.015545, 0.141414, -0.072814, 0.019950, 0.212932, 0.194471, -0.153104, -0.063482, 0.096307, -0.168342, -0.204680, 0.141425, -0.111867, 0.150742, 0.124575, 0.110983, 0.106595, -0.078980, 0.003656, -0.026733, 0.029831, -0.008942, 0.049553, 0.005346, -0.023991, -0.057353, 0.073857, -0.180978, 0.001869, -0.015386, -0.025576, 0.073589, 0.062216, 0.069433, -0.184912, -0.161090, 0.214191, -0.048418, 0.127793, 0.183758, -0.165349, 0.101706, -0.143313, -0.039481, 0.116639, -0.118896, 0.144642, 0.018650, 0.162189, 0.100585, -0.194408, -0.032675, -0.105460, -0.143754, 0.010215, -0.145214, -0.165630, -0.009162, 0.126014, -0.121488, 0.143625, 0.041747, -0.010278, 0.080235, -0.176647, 0.007058, -0.085749, 0.160375, 0.132644, -0.188063, 0.159899, 0.114833, -0.088893, -0.084507, -0.120357, -0.127642, 0.157078, -0.119695, 0.006016, 0.201303, -0.197163, 0.128519, 0.074270, -0.128058, -0.013194, -0.111430, 0.124612, -0.014895, 0.162337, 0.180932, -0.217361, -0.015605, -0.195066, -0.120687, 0.063410, 0.115949, -0.212339, -0.014822, 0.172572, 0.080106, 0.139051, -0.082893, -0.009005, 0.051521, -0.121112, -0.204907, -0.085064, 0.036691, -0.023000, -0.099840, -0.180285, 0.020636, -0.180612, -0.038812, 0.104340, 0.019041, -0.185097, 0.054152, 0.045096, -0.025629, -0.080965, -0.071878, 0.191083, 0.099801, -0.062926, 0.092026, -0.117727, 0.139433, -0.110999, -0.011298, 0.002463, -0.068613, 0.198072, 0.066265, 0.061613, -0.144837, -0.136286, -0.085229, 0.144762, 0.106133, 0.183036, 0.215217, 0.077302, 0.075702, 0.134964, 0.143945, -0.176840, 0.161825, -0.186062, 0.023771, -0.189541, -0.196354, 0.031844, 0.097847, -0.037417, 0.067720, 0.164483, -0.179932, -0.152243, 0.150599, -0.155148, 0.162173, -0.193992, 0.163879, -0.017485, -0.142292, 0.056571, 0.032985, -0.110445, -0.217345, 0.107563, 0.031275, -0.045577, -0.127004, -0.052565, 0.008270, -0.194641, -0.095086, 0.039108, -0.061377, -0.014287, 0.047157, -0.037778, -0.201430, -0.083381, 0.192894, -0.058725, 0.153223, -0.206901, 0.163550, 0.089314, 0.123779, 0.049317, 0.039330, -0.208194, -0.008988, 0.009909, -0.021410, -0.127558, -0.224434, 0.061663, -0.162264, -0.087153, -0.142715, -0.183050, 0.137590, -0.240974, 0.165133, 0.011800, -0.103477, -0.007783, 0.034923, 0.139506, 0.142459, 0.099670, -0.049364, -0.006377, -0.010594, 0.103531, -0.076249, -0.083760, 0.096477, -0.039615, -0.162209, -0.156838, -0.152494, 0.072297, -0.018312, 0.107458, 0.028251, -0.174270, -0.090956, 0.071581, -0.033693, 0.053575, -0.077888, -0.108347, -0.191238, -0.003782, -0.030076, 0.184314, -0.032776, -0.165108, 0.181348, 0.123984, -0.133091, 0.149219, -0.168094, -0.128157, -0.086571, 0.219342, 0.143090, 0.101682, -0.169252, 0.086517, -0.027492, -0.175126, -0.066406, 0.003754, 0.025094, 0.160150, -0.191140, 0.099315, -0.087304, -0.119975, -0.166617, -0.107571, -0.017876, 0.041423, 0.174306, 0.224911, 0.040644, -0.163857, -0.088431, -0.184309, -0.163285, 0.115532, 0.174034, 0.002899, 0.116220, -0.111511, -0.055138, 0.147922, -0.018900, 0.032674, 0.217208, 0.126177, -0.021645, 0.051166, 0.069297, 0.156924, -0.126893, -0.035035, 0.074515, -0.034325, -0.152728, 0.074918, -0.002413, -0.010122, 0.104028, -0.113852, 0.057912, -0.066482, -0.160410, -0.016264, 0.062703, -0.128671, -0.080371, 0.127097, 0.074045, 0.174783, -0.087739, -0.094247, 0.017697, -0.027641, -0.076320, 0.114843, 0.144358, 0.140086, 0.220346, -0.140418, 0.008334, -0.129133, 0.135114, -0.080381, -0.197229, -0.158312, -0.139932, 0.052599, 0.000283, 0.176566, 0.055383, 0.055582, -0.079363, -0.031599, -0.073152, 0.009232, -0.118414, -0.013000, 0.143109, -0.205235, -0.103880, -0.145135, 0.071269, 0.052081, 0.071611, -0.064477, -0.050814, -0.099426, 0.102447, -0.024709, 0.122575, 0.155817, -0.088900, 0.112520, -0.202180, -0.075208, -0.071776, 0.143086, -0.026590, 0.166312, -0.094360, -0.028700, -0.045052, -0.046495, 0.063094, -0.000192, 0.142403, -0.080668, -0.056432, -0.005201, -0.212908, 0.161373, 0.163001, 0.154500, 0.073299, -0.190500, -0.048668, -0.030438, 0.160695, 0.152770, -0.098366, 0.205057, 0.180630, 0.164365, 0.185962, -0.047077, -0.049354, 0.165273, 0.161139, -0.161399, -0.228862, -0.021026, 0.104256, -0.205903, -0.053323, -0.114432, 0.150988, 0.051219, -0.096664, 0.159860, 0.041916, -0.069781, -0.113250, 0.161135, -0.065549, -0.181311, 0.065428, 0.106349, -0.070993, -0.121060, -0.198072, -0.052188, -0.101526, -0.202961, -0.058562, 0.197662, 0.116161, 0.053979, 0.199523, 0.149453, -0.133000, 0.153640, -0.168475, 0.054081, -0.010734, -0.139281, 0.056691, 0.132148, -0.258650, -0.077377, -0.132386, -0.092177, 0.127930, -0.130205, -0.087538, -0.074405, 0.198999, 0.169199, -0.171754, 0.178649, -0.103424, -0.043355, 0.064978, -0.176654, -0.105584, 0.102259, 0.211302, 0.018100, -0.072421, -0.132491, 0.105983, -0.173926, 0.031379, 0.157382, 0.092887, 0.190494, 0.095154, 0.077747, 0.154956, -0.236590, -0.048160, -0.073561, 0.040013, 0.158694, -0.139920, 0.219916, -0.125564, -0.105585, -0.008760, -0.192355, -0.030041, 0.038459, -0.188164, 0.122093, -0.043512, 0.090820, 0.130499, 0.094844, -0.175132, 0.215706, 0.189458, 0.122350, 0.185936, -0.134150, -0.068950, 0.224262, 0.130945, 0.151446, 0.014213, -0.132248, 0.175754, 0.040910, 0.230184, -0.012152, 0.170413, -0.083982, 0.041406, 0.157698, -0.135323, -0.028670, -0.166032, -0.104299, 0.009025, -0.232378, -0.099822, 0.153801, -0.170354, -0.022717, 0.117252, 0.169225, 0.098646, 0.189743, -0.147848, -0.012324, 0.171499, -0.108887, -0.165195, 0.082973, 0.041609, -0.052187, 0.092742, -0.166025, 0.045010, 0.139801, -0.023893, -0.055357, 0.117735, 0.021368, 0.005504, 0.071364, -0.063016, 0.071630, -0.180457, 0.015630, -0.090697, 0.029978, 0.105939, 0.238592, 0.081059, -0.056590, 0.208541, 0.025350, -0.137219, -0.151324, -0.031179, -0.039951, -0.046952, 0.022928, -0.103849, 0.130613, -0.143378, 0.156577, 0.153047, 0.002112, -0.177118, 0.196142, -0.185732, 0.129888, 0.170055, -0.011120, -0.122116, 0.176086, -0.139066, -0.072910, 0.032075, 0.094670, 0.000439, -0.177117, 0.187955, -0.068299, -0.087688, 0.066402, 0.128028, 0.080477, -0.192834, -0.150159, 0.027020, -0.106641, 0.036848, -0.081157, 0.105807, -0.050489, -0.108338, -0.169646, -0.026079, 0.166692, 0.106754, -0.067877, 0.127122, -0.012959, -0.001724, -0.117194, 0.130430, 0.230512, 0.152853, 0.169408, 0.119795, -0.004698, 0.181734, -0.042198, 0.053576, -0.132613, 0.041624, 0.071328, -0.174960, 0.121737, 0.132770, 0.029207, 0.020672, -0.048210, -0.024045, 0.061209, 0.002555, 0.028615, 0.172242, 0.064585, -0.102984, 0.139357, -0.138628, -0.220915, 0.009379, -0.017190, 0.065845, 0.158739, 0.029564, -0.129481, 0.067042, -0.082512, 0.000044, 0.203547, 0.178860, 0.013759, 0.040538, -0.015434, 0.016659, -0.158537, 0.003777, 0.128642, -0.201342, 0.132742, 0.024976, -0.007935, 0.157117, 0.183585, 0.143199, -0.164256, -0.067631, -0.187428, 0.116649, 0.077572, -0.193540, 0.071669, -0.048892, -0.065150, 0.093636, 0.058393, 0.113953, -0.177838, -0.113643, 0.140068, -0.047162, 0.195101, -0.212924, 0.161654, 0.094865, 0.021814, 0.248382, -0.146865, 0.098416, 0.096420, -0.107657, -0.037227, -0.110462, -0.039413, -0.246031, 0.210005, 0.144829, -0.131201, -0.199064, -0.013078, -0.204701, 0.048842, -0.028830, 0.035911, 0.047709, 0.058242, 0.055472, -0.016461, -0.090190, -0.065391, 0.104370, 0.098004, -0.052171, -0.055473, 0.143518, -0.080621, 0.028534, 0.139513, -0.116128, -0.108217, 0.055803, -0.078112, 0.015219, -0.172897, 0.144211, 0.160016, -0.121500, -0.063606, -0.079505, 0.015573, -0.126029, 0.080330, -0.159529, 0.128415, 0.128385, 0.034784, -0.185720, -0.090114, -0.019661, 0.164002, -0.011526, -0.076077, 0.150364, 0.058195, 0.224837, -0.065942, -0.175254, -0.192151, -0.083335, 0.167795, 0.086285, 0.117349, -0.108820, 0.150073, -0.113011, 0.111714, 0.013903, -0.047257, -0.200285, 0.108649, -0.075057, -0.051029, 0.115040, 0.107443, -0.151728, -0.047502, -0.124314, -0.040232, 0.139817, -0.082775, -0.137402, 0.016990, 0.163626, -0.186708, -0.080115, 0.088878, -0.107561, -0.090931, -0.182887, 0.193759, 0.153135, -0.036953, -0.089954, 0.116554, 0.013239, -0.019351, 0.058232, -0.024318, 0.231287, 0.029402, 0.128568, -0.205046, 0.050701, 0.070873, -0.202402, -0.113662, -0.105593, 0.152405, -0.135326, -0.191786, 0.082632, 0.104636, -0.103499, -0.137881, -0.039216, 0.014089, -0.131258, -0.186882, -0.028515, -0.236574, -0.090434, 0.124793, -0.006069, 0.187331, 0.003165, 0.213933, -0.179759, 0.091777, 0.040590, -0.122721, 0.175964, -0.141081, 0.069704, 0.048258, -0.132591, 0.149477, 0.187104, 0.029091, 0.094007, 0.112353, -0.071780, -0.045641, 0.089060, -0.126534, -0.145255, 0.197868, 0.025619, -0.089860, 0.142602, 0.055364, 0.105407, -0.165492, -0.054605, -0.078478, 0.149815, 0.024919, -0.231467, 0.054806, 0.178111, 0.162770, 0.167559, -0.069348, 0.144183, -0.077191, -0.134534, -0.082948, -0.004456, -0.099118, -0.113605, -0.246300, 0.019921, -0.090938, -0.085156, 0.174994, -0.030016, -0.088412, -0.151411, 0.009253, 0.054831, 0.085769, 0.079027, 0.121385, 0.138538, -0.182615, -0.169730, 0.041004, 0.126645, 0.159578, -0.104232, 0.185523, -0.045962, -0.203987, -0.105829, 0.129516, -0.170905, 0.117274, -0.046234, 0.230399, 0.007237, 0.087361, -0.118980, 0.026115, -0.003590, -0.165991, -0.119610, -0.117733, 0.072802, -0.154412, 0.095534, -0.193545, -0.174305, 0.087519, -0.054842, -0.161900, 0.051106, 0.109559, -0.145374, -0.000567, 0.074276, 0.097952, 0.138935, 0.145226, -0.114351, -0.037732, 0.088396, -0.098767, 0.192314, -0.067361, 0.076671, -0.015502, 0.162063, 0.103330, -0.032782, 0.027237, 0.101420, 0.056166, -0.148170, -0.068896, -0.165390, -0.082014, 0.015065, -0.085953, 0.026137, 0.108201, -0.024535, -0.021980, -0.123188, 0.059768, 0.143447, -0.179661, 0.137388, 0.175817, 0.098819, -0.093205, 0.004526, 0.007882, -0.016679, -0.008728, 0.129714, -0.032866, 0.034057, -0.136593, -0.179378, -0.053853, 0.111589, -0.105338, 0.072067, 0.023606, 0.151558, 0.052092, 0.219506, -0.170024, -0.081936, 0.107891, -0.030876, 0.191362, 0.163229, 0.134239, -0.084612, -0.033041, 0.114845, -0.015296, -0.036644, -0.154478, -0.119210, -0.129828, -0.092947, -0.118841, -0.106864, -0.103266, 0.167545, 0.048094, -0.083455, 0.037284, 0.169622, -0.094931, 0.148092, -0.095138, -0.031992, -0.179062, 0.195358, 0.090396, -0.181883, 0.079554, 0.094508, 0.032805, 0.025722, -0.155702, 0.169054, 0.138844, 0.132018, -0.014534, -0.083052, 0.006148, -0.161419, 0.141144, -0.038174, -0.089521, -0.097193, -0.118946, -0.025200, -0.140345, 0.157293, -0.135632, -0.047664, -0.025940, -0.078067, 0.053665, -0.170501, -0.111363, -0.005512, 0.009526, -0.120060, 0.153755, 0.049598, 0.094630, 0.115141, 0.023705, -0.113339, 0.100344, -0.131709, -0.063809, -0.164618, 0.179999, 0.113162, -0.060640, -0.133495, 0.075268, -0.006573, -0.076326, -0.025615, -0.106186, 0.093308, -0.137882, -0.176423, 0.020261, -0.175678, 0.117140, 0.158381, 0.172341, 0.095407, 0.190101, -0.159843, 0.155245, -0.168111, 0.020642, 0.000733, -0.080555, 0.019859, 0.109649, 0.000147, 0.105644, -0.127339, 0.167919, -0.077622, 0.104518, 0.072865, -0.161698, -0.062653, 0.017072, -0.176270, -0.120389, -0.116796, 0.097897, -0.224375, -0.136395, 0.030884, 0.066810, 0.021226, -0.123707, -0.103842, -0.128236, -0.201490, -0.053671, -0.218760, 0.174275, -0.133358, 0.068867, 0.163795, -0.059037, -0.072997, 0.050868, 0.152611, 0.098162, 0.130841, 0.132039, 0.205193, -0.008824, 0.121970, 0.073109, 0.008263, 0.035907, 0.026469, -0.114467, -0.185673, 0.012798, -0.097085, 0.090229, 0.052966, 0.123263, -0.042740, -0.092267, 0.028401, -0.137858, 0.076109, 0.085122, 0.046711, -0.041017, 0.101125, -0.036218, -0.028042, 0.128211, 0.067984, -0.066596, 0.053256, 0.159729, 0.004056, 0.124847, 0.173937, -0.127579, -0.038723, 0.040743, -0.218043, -0.096841, 0.133683, -0.060196, 0.072972, -0.068721, 0.022207, 0.193317, 0.158326, -0.095448, 0.096853, 0.016002, 0.268360, 0.121377, 0.193889, -0.193724, 0.185606, -0.081282, -0.021072, -0.089612, 0.151244, 0.213931, -0.040720, 0.082148, 0.088868, -0.003165, 0.079569, -0.061660, 0.008964, 0.041016, 0.136766, -0.135633, -0.043087, 0.094954, -0.124028, -0.064375, -0.091450, -0.146594, 0.150135, -0.015256, 0.149651, 0.195012, 0.063851, -0.161877, -0.155921, 0.076192, 0.139265, -0.001887, -0.005074, -0.165235, -0.032683, -0.111753, -0.162428, 0.028443, 0.193027, 0.161349, 0.192381, -0.143864, -0.067500, -0.184580, 0.051040, -0.148275, -0.118798, -0.009034, -0.061257, 0.097231, -0.053693, -0.066475, -0.027396, 0.062509, 0.146031, 0.161892, -0.172645, 0.020381, -0.234604, 0.017305, -0.055556, -0.188642, 0.189878, 0.017837, 0.053403, 0.092162, 0.115308, 0.071120, 0.044279, -0.034436, 0.144282, 0.042774, -0.135971, 0.018008, 0.180383, 0.012471, -0.146534, 0.163409, -0.058066, 0.108023, 0.009344, -0.155277, 0.006406, 0.049375, -0.027802, 0.173291, -0.088430, 0.161891, -0.172197, 0.115998, -0.200943, -0.004388, 0.237558, 0.097655, 0.000024, -0.171265, -0.040169, 0.096748, -0.084291, -0.073994, -0.202614, -0.055832, 0.102807, 0.008579, 0.097267, -0.045425, -0.060878, 0.091622, -0.096103, 0.211695, -0.144274, 0.071798, 0.166919, -0.065111, 0.068880, 0.061559, -0.110175, 0.127616, 0.185973, -0.250610, 0.070980, 0.173288, -0.171872, 0.115733, 0.054453, 0.215327, 0.111915, 0.053798, -0.039960, 0.004839, 0.034377, 0.151830, 0.058806, -0.001362, 0.077825, 0.061195, -0.058278, -0.055889, 0.054136, -0.131696, -0.127949, -0.001607, 0.017943, -0.034617, 0.093229, 0.045816, 0.068581, -0.065412, -0.051728, -0.034565, -0.011987, -0.012487, 0.114145, -0.049038, 0.090302, -0.138330, -0.037186, 0.174247, 0.004529, 0.071986, 0.117595, 0.023262, -0.028074, 0.089175, -0.092860, -0.210250, -0.020653, 0.022813, 0.000682, -0.109746, 0.076519, 0.138107, -0.183586, -0.141286, 0.013768, -0.217370, -0.097399, 0.067670, -0.096698, -0.145807, 0.032447, -0.175552, -0.080548, -0.052996, -0.181812, -0.022690, -0.001256, -0.070077, 0.208767, -0.051872, 0.028048, 0.195321, 0.125149, -0.015626, 0.133194, 0.068249, -0.091140, 0.143957, 0.063868, -0.054367, -0.082257, 0.052838, 0.119099, -0.183903, -0.002275, -0.023110, 0.051709, -0.092564, -0.115798, 0.055419, -0.080504, -0.082273, -0.174360, 0.132283, -0.070399, 0.188047, 0.177404, 0.015256, 0.099300, 0.161620, -0.070128, -0.113040, -0.146830, -0.094146, 0.120174, -0.065098, -0.028808, 0.139691, -0.039967, -0.130136, 0.202873, -0.078792, 0.024720, -0.184086, -0.171514, 0.160151, -0.092766, 0.221029, -0.161494, 0.209034, 0.040062, 0.085893, 0.185715, 0.032294, -0.026499, -0.190023, 0.023359, 0.162552, -0.223759, 0.242780, 0.038241, -0.043850, 0.062967, 0.040134, -0.149834, -0.031100, 0.014122, -0.041116, 0.092080, 0.128631, -0.125289, 0.046888, -0.001395, 0.138552, 0.028152, -0.187927, 0.171820, 0.000242, -0.171295, 0.025127, -0.061637, 0.047471, 0.048389, 0.034042, -0.061450, 0.057488, -0.090854, -0.120204, 0.060072, 0.103794, -0.102823, -0.151263, -0.026669, -0.082226, -0.110881, 0.015494, -0.092823, 0.080042, -0.029096, 0.038279, -0.121981, 0.179056, -0.208569, -0.094403, 0.096467, 0.136465, 0.112542, 0.068152, -0.157882, 0.203983, -0.064290, 0.030426, 0.163217, 0.161665, -0.149985, -0.108170, 0.210571, -0.078142, -0.151449, -0.043768, 0.226210, 0.082055, 0.062098, -0.064223, 0.191987, -0.200406, -0.189654, -0.026147, 0.132414, -0.038339, -0.026409, -0.091050, -0.119557, 0.136843, -0.075641, -0.216405, 0.195042, 0.020572, -0.057467, 0.169178, -0.090667, 0.037758, -0.184797, -0.241791, -0.016535, -0.013906, 0.143917, 0.130286, 0.099731, -0.191974, -0.189675, -0.082710, -0.104862, -0.178478, -0.043655, 0.123809, 0.174543, -0.177847, -0.229089, -0.033708, -0.130999, 0.163036, 0.182865, 0.153894, -0.112748, 0.157831, 0.004722, -0.164452, -0.090931, -0.001555, 0.080618, -0.042598, 0.115748, 0.053308, 0.151642, 0.113342, -0.125589, -0.214880, 0.052313, 0.074503, 0.153299, -0.202346, 0.174548, 0.190614, -0.190756, -0.093434, 0.135704, -0.051593, 0.100107, 0.154479, 0.079095, 0.137409, 0.041059, 0.056196, 0.049631, 0.133857, 0.054748, 0.018203, 0.139374, 0.085882, 0.174544, -0.008444, -0.105794, -0.014832, 0.149616, -0.019144, -0.112385, -0.003849, -0.126324, -0.058053, -0.105935, 0.067114, -0.047033, 0.045880, -0.163349, 0.095862, -0.107322, 0.148344, 0.212277, -0.091240, 0.014995, -0.192905, 0.120348, -0.050597, 0.096184, 0.169630, -0.017070, 0.064894, -0.135006, -0.099982, 0.073029, -0.082278, -0.161232, -0.234553, 0.118916, 0.154247, 0.087836, -0.145101, -0.090284, 0.236733, -0.026898, -0.045849, 0.091660, -0.144489, 0.097973, 0.048965, -0.053446, -0.179328, 0.105863, -0.053216, -0.067530, 0.043186, -0.186140, -0.205514};
#endif

#endif
