//Numpy array shape [64, 32]
//Min -0.298992812634
//Max 0.334609061480
//Number of zeros 0

#ifndef W6_H_
#define W6_H_

#ifndef __SYNTHESIS__
model_default_t w6[2048];
#else
model_default_t w6[2048] = {-0.174654, 0.073852, -0.122879, 0.061677, -0.038577, 0.019453, -0.153640, -0.152832, -0.101183, -0.088009, 0.095133, -0.224887, -0.203124, 0.114755, -0.177862, 0.162894, -0.065571, -0.063123, -0.208134, 0.205720, -0.194989, 0.056942, -0.014391, -0.101330, 0.103208, -0.063772, -0.247601, 0.216656, -0.220605, -0.053727, -0.210510, -0.127979, 0.201609, 0.170685, -0.231493, 0.026377, 0.082858, 0.167034, -0.163044, -0.071960, 0.075229, -0.153259, -0.023666, 0.088771, 0.247488, -0.212572, -0.077220, 0.032716, 0.081179, -0.213311, 0.063813, 0.054976, 0.055747, 0.145698, 0.111313, 0.289725, -0.009001, 0.115483, -0.019611, -0.227091, 0.306585, 0.334609, -0.060580, 0.090142, -0.178525, -0.144156, 0.195017, -0.187350, 0.155067, 0.009038, 0.152747, 0.054355, 0.120308, -0.110004, 0.150478, -0.231767, -0.222981, 0.144206, 0.206835, 0.032550, -0.008211, -0.099063, 0.123008, -0.120097, -0.041381, -0.201880, 0.093687, 0.136140, 0.185350, -0.132370, 0.131308, 0.135562, -0.215332, -0.173757, -0.064058, -0.233767, -0.038434, 0.124246, 0.142417, -0.036084, -0.180970, 0.126195, 0.042608, -0.053264, -0.012563, 0.133929, 0.273197, 0.064087, -0.076803, 0.102024, 0.198645, 0.236703, 0.153789, 0.122208, -0.088458, -0.055434, -0.173635, -0.057230, -0.100580, 0.160515, 0.023674, -0.142314, 0.017361, 0.000323, -0.130665, -0.081157, 0.197027, 0.228643, -0.057081, -0.129807, 0.239013, 0.231416, 0.011256, 0.198154, -0.047931, 0.074919, -0.075120, 0.150005, 0.163877, -0.198705, -0.104640, -0.109013, 0.190505, -0.042966, 0.214346, 0.137836, -0.074584, -0.079794, -0.191764, -0.167521, -0.028666, 0.027649, 0.243514, 0.103547, -0.164044, 0.080161, 0.153268, -0.106693, 0.039533, 0.013016, 0.094845, 0.135549, 0.197226, 0.078178, -0.184862, -0.096779, -0.054067, -0.069390, -0.139064, -0.087861, 0.103622, -0.006825, 0.233934, -0.124008, -0.174307, -0.005754, -0.105922, 0.073502, -0.085139, -0.037658, 0.162433, 0.104919, -0.050809, -0.026539, 0.027992, 0.053445, -0.115812, -0.086287, -0.163681, 0.207489, -0.137690, 0.231957, -0.051292, -0.195000, 0.239146, -0.045224, -0.158028, 0.180786, 0.095467, 0.099925, 0.020478, 0.106238, 0.275664, 0.087932, -0.165345, 0.113439, 0.110847, 0.258753, -0.029780, 0.161241, -0.034536, 0.048921, -0.087932, 0.086915, -0.123319, -0.013297, -0.068736, 0.197072, 0.112823, 0.220671, -0.021068, 0.122414, -0.129644, -0.195216, 0.101207, 0.140033, -0.152530, -0.141069, -0.165962, 0.122255, 0.054062, 0.084695, 0.029514, -0.038523, -0.127764, -0.177302, -0.006674, -0.054984, -0.235358, -0.174627, -0.115122, -0.126593, 0.078247, -0.140759, -0.099232, -0.071230, -0.229280, 0.050980, 0.160149, 0.130197, 0.148510, -0.184683, -0.067286, 0.068864, 0.226080, -0.073906, -0.107325, -0.215599, 0.056603, 0.114837, 0.074882, 0.078269, 0.012092, 0.175828, -0.167138, 0.072681, 0.267695, -0.075196, 0.138068, 0.022889, -0.180746, 0.236685, 0.048496, -0.049978, -0.175209, 0.040759, -0.081287, -0.091494, 0.025721, -0.086536, 0.224268, 0.043786, -0.108790, -0.133094, 0.075156, -0.095544, 0.012203, -0.191868, 0.033416, -0.068215, 0.139373, 0.199154, -0.011454, -0.059167, -0.087236, 0.198184, -0.103769, 0.158190, 0.185563, -0.141379, -0.047893, -0.174361, -0.234614, 0.042120, 0.036191, -0.119923, -0.142380, 0.133938, 0.043004, 0.113105, 0.009698, -0.087049, 0.135044, 0.154725, -0.092265, -0.202657, 0.019316, 0.055148, -0.090958, -0.025061, 0.096965, -0.137305, -0.115816, 0.207433, 0.048130, 0.080414, 0.063999, 0.146241, 0.054863, -0.043886, -0.032572, 0.172727, 0.030081, 0.073215, 0.095940, 0.197698, -0.183734, -0.130685, 0.133135, 0.094342, 0.011989, 0.191814, -0.080698, 0.074060, -0.091298, 0.006153, -0.059647, 0.125775, -0.177828, -0.194011, -0.052348, -0.005802, -0.006336, -0.008679, 0.192200, 0.028058, -0.071932, -0.027209, 0.154516, -0.080077, 0.020315, 0.039070, 0.250478, -0.076891, -0.005396, -0.089516, 0.028941, 0.205390, 0.110244, -0.140863, 0.120247, 0.042099, 0.000299, -0.160683, 0.008120, 0.014620, -0.084288, 0.127815, -0.223786, -0.154311, 0.017823, 0.102589, 0.059894, -0.195206, -0.003376, 0.221303, 0.167871, -0.080217, 0.107796, -0.066027, 0.174189, -0.048626, 0.095427, -0.019778, -0.171548, 0.021226, -0.128512, -0.028387, -0.074892, -0.027050, -0.030213, -0.066455, 0.085254, -0.211452, 0.141011, 0.218131, -0.156430, 0.171246, -0.238383, 0.189076, -0.083829, -0.049394, -0.091708, 0.075958, 0.138442, -0.117216, -0.071970, 0.136529, 0.095303, 0.105332, 0.005919, 0.122604, -0.179329, 0.155710, 0.155133, -0.146891, -0.186444, 0.028783, 0.138383, -0.151586, -0.154696, 0.171309, 0.029697, 0.012500, 0.115762, 0.112926, 0.060608, -0.029157, 0.121858, -0.187812, 0.173937, 0.054540, 0.083480, -0.002500, -0.198976, 0.001894, -0.040375, 0.191663, -0.043766, -0.078459, 0.188057, 0.054913, -0.067938, 0.126814, 0.000307, -0.078720, -0.063069, 0.025830, 0.029768, -0.052445, -0.096050, 0.071875, -0.002644, -0.001935, 0.105588, 0.208147, -0.081620, -0.028326, -0.124197, -0.158108, 0.126372, -0.202927, 0.208541, 0.091760, -0.181101, -0.044650, -0.187097, 0.046143, 0.027746, -0.130318, 0.044811, -0.058978, -0.238851, 0.033192, -0.079926, -0.209547, -0.075950, 0.242977, -0.010985, -0.086215, 0.019215, 0.019227, 0.029262, -0.120182, 0.011537, -0.131524, 0.161650, -0.051510, -0.001641, -0.135809, 0.032948, 0.046459, 0.169890, 0.160601, -0.219641, 0.000091, -0.161415, 0.178374, 0.090461, 0.130373, 0.069025, -0.096259, 0.107589, -0.013446, -0.103836, 0.159123, -0.028664, -0.208764, 0.037604, 0.004360, -0.171515, 0.013425, 0.079265, -0.112308, 0.192283, 0.153746, -0.087283, -0.071886, 0.087522, -0.125238, 0.154766, -0.142540, 0.027362, -0.052561, -0.100585, 0.134089, 0.050076, 0.038464, -0.069646, -0.208564, 0.241209, 0.239291, -0.139786, -0.046524, -0.023812, -0.132666, 0.081153, 0.086586, 0.130027, 0.204033, -0.049098, 0.023164, 0.046894, -0.069068, 0.005160, 0.202604, 0.140091, -0.080310, 0.128770, 0.111303, 0.101898, -0.052145, -0.045596, 0.022218, 0.009317, -0.177240, 0.232658, 0.093442, 0.044398, -0.138975, -0.114620, -0.054455, 0.066776, 0.065659, -0.068012, -0.021591, -0.161864, 0.029272, -0.156942, 0.067394, 0.021292, -0.086020, -0.047599, -0.127054, -0.039255, 0.041453, -0.119543, -0.254076, -0.127735, 0.121169, -0.165561, 0.208625, 0.245187, -0.008146, -0.132480, -0.165362, 0.009848, 0.063188, 0.071318, -0.134550, 0.177523, -0.009512, -0.106015, 0.043371, -0.168342, 0.018571, -0.091733, 0.030302, 0.059305, -0.155441, 0.047147, 0.070532, 0.055941, 0.034989, -0.053505, 0.041030, 0.073851, 0.129616, -0.153816, 0.026503, -0.138989, -0.130561, -0.156472, -0.052835, -0.170249, -0.133776, -0.153186, -0.177611, 0.170329, -0.007006, -0.151789, -0.066114, -0.115021, -0.210430, 0.141871, -0.018305, 0.109285, 0.165650, -0.165094, 0.118583, -0.072093, 0.100981, -0.146370, -0.156651, 0.046421, 0.123829, 0.059481, 0.074095, -0.096285, -0.207692, -0.131896, 0.162290, 0.131403, 0.027259, 0.104193, 0.150621, 0.111264, -0.152908, -0.077494, -0.153699, 0.168715, 0.239592, 0.054402, 0.094390, -0.170972, -0.094820, -0.178245, -0.003012, 0.051190, 0.194930, -0.145882, 0.260715, -0.163892, 0.053983, -0.024921, -0.098449, -0.164139, -0.201099, 0.136101, 0.130233, -0.077800, 0.060772, -0.224269, -0.189399, -0.045007, 0.138256, -0.076504, 0.087677, 0.042567, 0.005172, -0.020982, -0.173473, 0.195007, 0.258766, -0.044681, -0.005277, -0.011041, 0.139303, 0.038459, -0.145636, 0.234026, -0.050513, 0.241044, -0.079229, -0.190249, -0.018144, 0.029953, 0.051500, -0.181006, -0.101871, -0.099299, 0.076400, -0.168369, -0.179297, -0.083355, 0.151195, 0.193057, 0.080570, 0.055971, -0.015660, 0.093722, -0.053237, 0.174924, -0.185323, 0.080294, -0.070244, 0.103260, 0.025808, 0.045676, 0.093339, -0.137448, 0.037712, -0.138720, 0.190157, 0.025962, 0.109358, -0.110666, -0.103679, -0.092043, 0.063547, 0.102846, -0.136926, 0.141243, -0.119914, -0.210582, 0.009399, -0.028446, 0.175303, 0.139629, 0.013595, 0.166266, 0.097573, -0.044749, 0.078698, -0.023782, 0.030882, -0.173746, -0.154704, 0.024936, -0.105535, 0.153343, 0.127725, -0.044912, 0.120406, -0.242083, -0.026064, -0.170298, 0.175273, -0.197509, 0.198797, 0.144167, -0.047059, -0.062223, -0.053474, -0.030049, 0.048797, 0.141301, 0.170173, -0.136788, -0.125586, -0.070785, 0.073638, 0.122276, 0.184854, 0.089399, 0.130465, 0.082902, -0.193797, -0.120357, 0.018274, -0.203338, -0.048849, -0.246657, -0.174263, 0.209913, -0.219088, 0.173707, 0.034421, 0.224245, -0.137794, 0.191620, 0.005338, -0.043031, 0.122209, 0.057459, -0.049717, 0.132066, -0.055504, 0.189726, 0.111391, 0.053849, 0.009504, -0.135360, -0.197211, 0.104970, -0.046040, -0.127801, -0.143581, 0.010299, 0.140516, 0.152952, 0.070221, 0.116708, 0.009776, 0.036515, 0.145495, 0.202290, -0.220979, 0.017197, 0.184078, 0.091093, 0.112051, 0.007373, 0.076065, 0.016201, -0.093873, -0.228595, 0.010685, 0.024152, -0.135521, -0.155277, 0.122745, 0.071582, 0.135907, 0.131636, -0.059980, 0.072199, -0.022043, 0.054574, 0.189900, 0.143971, 0.116116, -0.014243, 0.058490, -0.100129, 0.221385, -0.168873, 0.104022, -0.032644, 0.145065, 0.204832, 0.096457, 0.180019, -0.024543, 0.076807, 0.073568, -0.105263, -0.021212, -0.087531, 0.018666, -0.081430, -0.147382, 0.195814, -0.208749, 0.134366, -0.050862, 0.129219, 0.134595, -0.098479, 0.220903, 0.155702, -0.105844, -0.106890, -0.132132, 0.044440, -0.106251, 0.075876, 0.101789, -0.174847, 0.126809, -0.187226, 0.114219, 0.154104, -0.171707, -0.056304, -0.070989, -0.010054, -0.009255, 0.112806, 0.120368, -0.185528, 0.183544, 0.174758, -0.136947, -0.207619, 0.005138, -0.142518, -0.133422, 0.078805, -0.118167, -0.008035, -0.193115, 0.152337, -0.055193, 0.236600, 0.176993, -0.102621, 0.005848, -0.096024, 0.203865, 0.102835, -0.019476, -0.037239, 0.141982, -0.086203, 0.147746, 0.162795, 0.050800, 0.027580, 0.077995, 0.176469, 0.097372, -0.047351, 0.177420, 0.219469, -0.145511, 0.107376, 0.010327, -0.068181, -0.028604, 0.156990, 0.225787, 0.218402, 0.226231, 0.191046, 0.174707, 0.007221, 0.109009, -0.237688, 0.145994, 0.209303, -0.136185, 0.060640, -0.025095, 0.178346, -0.247013, -0.110465, 0.044624, -0.124283, 0.162345, -0.036591, -0.019482, -0.243025, -0.058093, -0.000899, 0.054838, 0.036612, 0.136604, -0.082881, 0.131362, 0.027603, 0.107805, 0.136713, -0.071074, 0.027450, -0.122310, -0.026887, -0.096974, 0.046169, -0.253581, -0.153495, 0.070710, -0.021854, -0.046948, -0.207788, 0.008588, 0.178419, -0.200015, 0.169562, -0.069730, 0.106111, 0.137753, 0.051478, -0.111927, -0.134002, 0.139519, -0.054742, -0.055882, -0.216645, -0.155052, 0.015109, -0.004642, 0.067696, -0.157526, 0.075669, -0.143911, 0.217673, 0.002902, -0.034230, 0.149894, -0.109992, 0.182492, -0.082352, -0.127078, 0.173969, 0.064766, -0.007625, -0.188328, -0.179562, -0.055771, -0.098229, -0.036976, 0.178605, 0.016145, -0.064125, -0.059637, -0.077535, 0.097403, -0.038628, 0.240489, 0.208168, -0.164604, 0.057156, 0.091392, 0.130631, 0.095467, -0.117170, 0.134166, 0.189306, -0.016499, -0.097873, 0.094986, 0.116617, -0.131709, -0.074106, -0.041766, 0.178875, 0.134425, -0.015334, -0.063553, -0.144563, -0.077536, -0.142711, -0.246631, -0.069452, 0.140936, -0.006500, -0.033997, -0.008628, -0.089655, -0.142793, 0.078090, 0.065408, 0.000018, 0.204609, -0.151447, -0.122585, 0.161583, 0.165898, 0.085110, -0.186333, 0.124785, -0.119498, 0.108966, -0.165259, 0.013318, 0.053645, -0.142610, 0.087866, 0.166815, -0.166470, 0.059276, 0.136629, 0.044099, -0.059136, -0.117605, -0.198386, -0.194169, -0.180681, -0.068748, 0.181882, 0.093869, 0.179029, 0.169275, -0.193639, -0.162125, 0.215667, -0.004500, -0.088320, -0.115651, -0.231113, -0.003237, 0.220896, 0.204930, 0.128647, -0.008561, -0.049244, -0.120535, -0.046769, 0.126611, 0.169682, -0.100023, 0.242547, -0.125039, -0.216259, -0.138363, -0.077990, -0.163920, -0.208756, -0.128660, -0.078759, -0.012705, 0.121994, 0.069400, 0.046820, -0.218719, 0.098177, 0.203284, -0.208201, 0.144567, -0.150844, -0.089574, 0.213667, 0.025149, 0.095392, -0.215476, -0.081407, 0.110641, 0.036876, 0.081039, 0.068267, -0.158639, -0.151239, 0.133900, -0.196661, 0.098157, -0.089239, -0.168623, 0.158886, 0.151433, 0.111807, 0.062639, -0.112347, -0.137537, -0.108745, -0.142642, 0.034159, -0.087228, -0.019886, -0.048816, -0.115123, 0.009781, 0.219823, -0.123250, 0.209425, 0.105781, -0.066024, 0.173390, -0.057056, -0.128202, -0.067374, 0.218746, -0.022722, -0.056183, 0.081622, -0.149592, 0.030072, 0.068620, -0.091261, -0.077345, -0.148758, -0.095101, -0.151814, 0.230710, -0.145241, 0.159682, 0.101378, -0.132345, 0.063554, -0.005898, -0.143467, 0.230276, 0.061004, -0.209953, 0.128555, 0.012786, 0.097926, 0.082047, 0.003070, -0.149116, 0.032999, -0.056632, 0.255287, -0.072634, 0.016938, 0.034126, -0.088359, -0.038790, 0.103921, -0.126646, 0.220215, -0.010421, 0.218879, -0.134302, 0.027589, 0.006617, -0.103962, 0.228621, 0.058985, -0.155346, 0.024046, 0.029214, -0.071958, 0.140305, 0.075098, 0.083084, 0.110568, 0.098544, 0.135592, 0.043931, -0.152847, -0.234048, 0.071901, 0.025163, 0.081083, 0.097352, -0.169205, -0.114504, 0.208775, 0.202766, -0.036732, 0.037552, 0.154154, 0.165521, -0.163579, 0.004589, 0.178868, -0.134460, 0.097368, -0.245817, -0.040857, -0.054014, 0.107793, 0.032422, 0.055197, 0.190094, 0.048765, 0.107136, -0.187783, -0.099286, 0.049071, 0.090963, -0.194116, -0.039310, -0.149510, 0.189468, -0.003521, 0.181278, -0.087039, -0.172761, 0.060996, -0.138935, -0.059827, -0.020001, -0.162193, 0.174421, 0.183606, 0.082986, -0.041037, 0.083905, 0.059360, 0.079589, 0.155560, 0.085835, 0.038755, -0.111300, -0.056057, 0.018383, 0.070661, -0.085006, -0.183215, -0.080900, 0.124206, 0.075586, -0.118251, -0.071227, -0.223057, 0.004823, 0.087055, 0.068847, 0.171360, -0.120224, -0.172972, -0.121003, -0.172633, -0.115115, 0.104605, -0.166184, 0.219794, 0.015943, 0.212231, -0.060235, 0.119000, -0.133771, 0.068488, 0.087391, 0.116347, 0.056208, -0.142217, 0.002874, -0.040305, -0.113610, 0.165880, -0.237231, 0.212554, -0.054573, 0.083377, 0.205387, -0.150735, 0.033298, 0.028614, -0.000778, -0.084029, 0.052084, -0.053274, 0.022784, 0.157042, -0.004414, -0.019194, -0.078673, -0.260330, -0.036610, 0.025158, -0.203541, -0.039588, -0.078326, 0.154062, 0.112495, 0.084674, 0.179061, 0.122933, 0.097247, -0.165448, -0.004455, -0.017737, -0.098141, 0.043607, 0.077796, -0.176434, 0.153661, 0.039043, -0.112121, 0.085538, 0.216555, -0.173338, -0.019809, -0.043615, 0.127637, -0.044998, 0.265724, 0.015334, 0.216014, 0.178348, 0.099550, 0.140222, -0.187801, 0.084964, -0.181190, -0.124351, -0.046332, -0.295243, -0.020640, 0.059980, 0.117689, 0.030371, -0.047620, 0.037763, 0.049009, 0.028021, -0.169614, 0.011707, 0.003771, -0.099571, -0.237737, 0.009146, 0.173195, 0.015318, 0.208451, -0.050014, 0.106586, 0.096921, -0.188319, 0.034117, -0.079410, 0.014072, -0.011203, 0.177385, -0.121622, 0.050415, -0.109426, 0.016887, -0.038851, -0.033540, 0.028904, -0.155117, 0.257555, 0.132374, 0.088432, 0.182597, 0.030418, -0.134877, -0.189081, 0.145349, -0.076740, 0.058265, 0.119848, 0.210143, -0.109548, 0.128190, -0.188553, -0.095356, 0.166686, -0.120216, 0.240873, -0.192761, 0.057313, 0.040308, -0.177157, -0.192384, 0.016451, -0.185956, 0.087922, -0.116192, -0.163999, 0.035682, -0.136575, 0.149265, 0.112740, 0.025983, -0.076512, -0.097148, -0.160509, 0.252264, -0.181637, -0.011245, -0.038929, -0.042839, 0.011030, -0.102211, -0.076389, -0.087284, -0.014130, 0.156552, 0.198994, 0.054071, 0.086962, 0.261370, -0.083956, 0.173601, 0.195154, 0.029691, 0.014105, 0.034386, -0.164258, 0.124051, 0.045101, 0.146204, 0.134711, -0.100186, 0.214341, -0.245837, 0.200702, 0.038076, 0.011824, 0.135997, 0.199981, 0.163575, 0.020319, -0.238892, -0.252160, 0.145887, -0.058750, -0.053441, -0.121497, -0.079942, 0.127371, 0.074991, -0.096923, 0.081471, -0.033906, -0.070688, 0.090691, 0.038025, 0.014724, -0.127094, 0.014211, -0.223090, 0.137726, 0.196200, 0.127483, -0.087162, 0.184519, -0.231873, 0.156080, 0.178804, 0.127708, -0.028979, -0.032220, 0.081119, 0.029404, -0.158276, -0.160056, -0.083317, -0.005353, -0.102435, -0.091717, -0.067156, -0.109429, -0.167606, -0.164824, -0.070408, 0.147290, 0.062909, 0.130322, -0.186107, 0.180818, 0.049270, -0.155237, 0.000597, -0.024128, -0.061867, 0.063553, 0.241186, 0.217581, 0.019459, -0.156280, 0.110477, 0.220798, 0.172608, -0.059133, 0.041984, -0.169543, 0.036270, -0.105651, -0.044825, -0.079514, -0.134369, 0.172259, 0.219763, 0.023413, -0.295987, 0.027721, 0.147219, 0.035130, 0.116378, 0.124386, 0.006350, 0.062172, 0.013422, -0.179592, 0.194124, -0.118265, -0.033421, 0.049941, -0.083850, -0.079926, 0.081314, 0.190299, -0.127395, -0.026777, -0.101976, 0.217268, 0.144296, 0.037089, 0.131456, 0.040095, -0.242258, 0.115685, -0.082764, -0.121835, 0.080633, -0.115079, -0.055306, -0.110058, -0.086907, 0.111469, -0.017922, 0.160381, 0.129248, -0.209980, -0.018030, -0.051236, 0.015849, 0.007572, -0.203694, 0.075859, 0.090287, 0.017217, 0.086105, -0.197003, -0.108063, 0.053474, -0.127265, 0.011468, -0.106725, -0.047524, -0.168004, -0.107496, -0.207592, 0.017220, -0.051121, -0.118441, -0.182811, 0.081081, 0.245030, -0.103841, -0.070442, -0.095103, 0.218192, -0.215257, -0.048251, -0.016320, -0.202214, -0.110781, -0.079088, -0.138059, -0.054235, 0.082829, 0.044738, -0.116753, 0.159772, -0.012221, 0.124170, 0.032688, 0.012487, -0.098349, 0.253147, -0.126307, 0.082107, 0.193677, -0.054466, 0.240322, 0.060301, -0.210975, -0.081435, -0.056088, 0.268987, -0.103835, -0.097845, 0.168702, -0.196806, 0.070569, -0.060088, 0.129802, 0.084950, -0.034712, -0.176735, -0.017638, 0.134003, 0.195314, 0.190278, -0.092707, 0.204575, -0.065215, 0.201421, -0.213990, 0.063752, 0.124003, -0.084128, 0.134766, 0.138237, -0.050501, -0.169735, 0.131828, -0.195808, 0.091909, 0.010468, -0.246912, 0.290013, -0.035836, -0.175656, -0.075774, -0.177458, -0.165165, -0.147955, 0.055436, 0.187811, -0.198260, -0.193690, 0.021505, 0.075090, 0.080424, 0.135148, 0.110335, 0.102079, -0.116181, -0.164370, 0.150856, 0.076706, 0.061340, -0.064148, 0.203808, 0.184596, -0.145161, -0.012370, -0.106746, 0.143803, -0.080834, 0.176502, 0.083295, -0.199895, 0.145337, -0.127618, -0.076371, 0.019619, 0.195092, -0.153314, -0.146307, 0.107685, -0.243954, 0.138384, -0.139494, 0.210612, -0.030268, 0.070722, -0.009131, -0.075686, 0.199070, -0.036449, 0.098797, -0.255985, 0.006778, 0.034655, -0.193241, 0.052870, 0.007609, -0.236776, 0.220437, -0.117461, -0.133623, 0.186906, 0.009101, 0.072358, 0.206831, -0.140349, -0.063962, 0.094960, -0.121949, 0.027610, -0.135289, -0.015141, 0.216985, -0.088850, -0.184314, -0.077100, -0.246165, 0.176635, 0.091115, 0.144498, -0.062667, -0.181353, -0.018998, 0.110309, 0.206997, -0.173112, -0.198725, -0.207718, 0.013878, 0.070270, -0.190795, -0.176673, 0.027879, 0.181615, 0.121941, 0.000754, -0.047208, 0.215292, 0.004992, -0.054071, 0.183482, 0.002672, 0.133043, -0.085897, 0.051430, -0.057444, -0.214873, -0.046786, -0.131960, -0.096596, 0.046300, 0.019423, -0.102666, 0.052421, -0.043281, -0.055447, -0.136048, -0.112347, -0.113998, -0.050436, 0.053805, -0.078599, 0.004362, -0.114582, 0.143439, 0.173453, 0.205093, -0.086443, -0.215946, -0.036242, 0.005034, -0.099991, -0.074099, -0.047068, 0.136556, 0.080968, 0.039263, -0.122776, -0.082610, -0.208927, 0.067709, -0.097881, -0.010099, -0.192127, 0.178948, 0.124373, -0.207141, 0.167321, -0.161657, -0.160945, -0.007389, 0.032236, 0.084409, -0.160151, -0.234042, -0.103153, -0.199142, -0.129991, -0.154657, 0.092197, -0.249275, -0.184765, -0.055103, 0.039763, -0.112678, -0.037418, -0.076221, -0.077666, -0.011704, -0.087439, -0.134121, -0.025941, -0.084705, 0.156940, 0.170714, 0.011898, 0.147460, 0.162854, 0.210452, 0.126719, -0.127157, 0.107816, 0.250428, 0.161082, 0.005173, -0.006257, -0.168068, 0.024857, -0.010718, 0.071418, 0.092084, -0.057030, 0.004602, 0.032525, -0.183962, -0.051445, -0.069537, 0.020736, 0.070756, 0.215112, -0.142877, -0.173311, -0.100392, -0.243574, -0.188889, -0.001380, 0.060124, -0.105082, 0.042487, -0.030709, -0.102190, -0.123649, 0.077670, 0.006599, -0.100169, -0.052673, -0.216287, 0.150089, -0.051234, 0.056541, 0.085043, 0.055766, -0.039465, -0.001350, 0.167159, -0.079800, 0.195228, -0.039051, 0.022045, 0.193337, 0.159608, -0.100841, -0.099938, -0.124720, 0.060283, -0.190523, -0.012972, -0.101699, 0.219240, -0.122115, -0.024183, -0.191565, -0.016592, -0.040278, -0.039112, 0.106763, -0.044133, -0.192061, -0.132850, -0.098743, 0.039765, 0.024341, 0.171023, -0.106876, -0.103313, -0.114828, -0.174064, 0.205369, -0.028947, 0.010435, -0.077988, 0.003978, 0.303956, 0.109040, 0.165214, 0.123281, 0.189906, 0.198173, -0.098642, -0.195604, -0.151528, 0.075554, -0.100137, 0.196373, -0.034754, -0.188376, 0.082215, -0.114014, 0.164206, 0.177565, -0.116018, -0.059099, -0.082773, 0.116659, -0.102806, -0.039638, 0.172150, 0.212991, 0.093271, 0.138456, 0.113489, -0.179913, -0.030091, -0.154728, -0.128001, 0.248850, -0.147767, -0.117317, -0.091932, -0.111772, -0.226137, -0.085999, -0.004148, -0.167203, -0.186518, -0.298993, 0.015919, -0.084762, -0.170021, -0.092194, -0.106058, 0.080669, 0.073453, -0.083549, -0.052391, 0.219052, 0.069668, -0.059579, -0.032541, -0.193410, -0.124651, 0.175867, -0.212467, -0.042897, -0.127590, 0.190010, -0.050649, -0.094593, -0.193434, -0.080679, -0.234925, -0.152529, -0.036499, 0.095634, -0.068877, -0.140605, -0.131633, 0.156636, -0.061362, -0.017043, -0.106361, 0.009612, 0.111115, 0.146631, -0.104008, -0.023172, 0.167743, 0.035500, 0.079835, 0.112037, -0.107285, 0.129664, -0.081910, -0.113064, 0.012727, 0.170472, 0.205702, 0.193427, -0.159136};
#endif

#endif
