//Numpy array shape [32, 16]
//Min -0.443383991718
//Max 0.358281135559
//Number of zeros 0

#ifndef W8_H_
#define W8_H_

#ifndef __SYNTHESIS__
model_default_t w8[512];
#else
model_default_t w8[512] = {0.004149, -0.039266, 0.228428, 0.051248, -0.249045, 0.127053, -0.141312, 0.000038, 0.174228, -0.172914, -0.175841, 0.097934, 0.101473, 0.084972, -0.077005, 0.266651, 0.190091, 0.001874, 0.221411, -0.223268, 0.110665, -0.154965, -0.147394, 0.104968, -0.138948, -0.043376, -0.238673, 0.170151, 0.224445, -0.107854, -0.109605, 0.203042, -0.156463, 0.321920, 0.057192, -0.082895, 0.185359, -0.103154, 0.036697, -0.313780, 0.180328, 0.141365, 0.155581, 0.116299, -0.110917, -0.158837, -0.102635, -0.000340, 0.054894, 0.241095, 0.115491, -0.249436, 0.027861, -0.252063, 0.283672, -0.058731, -0.022374, -0.106111, 0.330486, 0.241688, -0.183222, 0.190708, -0.032779, 0.141458, -0.209789, -0.125450, -0.039004, 0.129742, -0.154150, 0.146458, 0.234465, -0.282706, 0.210245, 0.290382, 0.230701, -0.056184, -0.131015, -0.049113, -0.020446, 0.158852, -0.028567, 0.318967, -0.123168, 0.084149, -0.011143, 0.265149, 0.301899, 0.007521, 0.096155, -0.193968, 0.230942, 0.176951, -0.233368, 0.049435, 0.014405, 0.089741, 0.166680, 0.140230, -0.045523, 0.024833, 0.060140, -0.093733, 0.086237, 0.233059, 0.142944, 0.041655, -0.267311, 0.096406, -0.026638, -0.321480, 0.094477, -0.096564, 0.263806, 0.054128, 0.096833, -0.183549, -0.022648, 0.008620, -0.377943, -0.050052, -0.203215, -0.143480, -0.395003, -0.193370, -0.084001, 0.031891, -0.159903, 0.117782, -0.087478, 0.207639, -0.266357, 0.236674, -0.199062, 0.110507, 0.110894, 0.282631, 0.015131, 0.169102, 0.054891, 0.068629, 0.130972, -0.076515, 0.072323, -0.254998, 0.157371, 0.319716, -0.177403, 0.172549, -0.197956, -0.004932, 0.122168, -0.336206, -0.027816, 0.285275, -0.258544, -0.222953, 0.031304, 0.023468, -0.048957, 0.149567, -0.243298, 0.120924, -0.046710, -0.178068, 0.170347, -0.081744, 0.008590, -0.250906, 0.115604, 0.162268, 0.059452, 0.180152, -0.194276, 0.146710, -0.376798, 0.179439, 0.004145, -0.117954, 0.048845, 0.054904, 0.192770, -0.077838, -0.089793, -0.039017, -0.155862, 0.139334, -0.080566, -0.121750, -0.088012, -0.266883, 0.191021, -0.284156, -0.135207, -0.150874, 0.008895, 0.032791, -0.170440, -0.006990, -0.195371, 0.075194, -0.166486, -0.185449, -0.112154, -0.240927, 0.123247, -0.191643, 0.247284, -0.139547, 0.086529, 0.112158, 0.146761, 0.039015, 0.039609, 0.011837, 0.120721, -0.084958, 0.157863, 0.199087, 0.271687, 0.146261, -0.059659, 0.173738, -0.247708, 0.121166, 0.195990, 0.189092, 0.141286, -0.170474, 0.130977, 0.104169, 0.154059, -0.286586, 0.025144, 0.318674, 0.020961, 0.257049, -0.045631, 0.013056, -0.146887, -0.267105, -0.219630, 0.358281, -0.111903, -0.101409, 0.133013, 0.100532, 0.209601, -0.186282, 0.105777, 0.049032, 0.324063, -0.069908, -0.095142, 0.236231, -0.107315, -0.130335, -0.070274, -0.031853, 0.110195, 0.040569, 0.261675, -0.024074, 0.250433, 0.011114, 0.247580, 0.260271, -0.193311, 0.136342, 0.073786, 0.261148, 0.067301, -0.245359, -0.236329, -0.095905, -0.064442, 0.194302, -0.178435, 0.327119, -0.128026, 0.223790, -0.030407, 0.100233, 0.310499, 0.009782, -0.173182, -0.044405, -0.287832, 0.225361, -0.144826, 0.076015, 0.026369, 0.043308, -0.216615, -0.278004, -0.443384, 0.154172, -0.271007, 0.083965, -0.191840, -0.179125, 0.001081, -0.203954, -0.184948, -0.052473, 0.007641, 0.098093, -0.033164, -0.211151, -0.005008, 0.297493, -0.021255, 0.199845, 0.060294, 0.260411, 0.095884, 0.236440, -0.031836, 0.207477, -0.217072, 0.220180, 0.230739, -0.098922, 0.245452, 0.048361, -0.272919, 0.012906, 0.062103, 0.103852, -0.085356, -0.273653, -0.117035, -0.284240, -0.154145, -0.141203, 0.040281, 0.240561, 0.118501, -0.263614, -0.014059, -0.178482, -0.131970, 0.025183, -0.337816, -0.113601, 0.003125, -0.064709, -0.309072, -0.214678, 0.009098, -0.051972, 0.073333, -0.025162, 0.090831, 0.068062, 0.106187, 0.153370, 0.221022, -0.084944, -0.060471, -0.334914, 0.131193, 0.104392, 0.334399, 0.290850, 0.168342, -0.012525, -0.126024, 0.295541, 0.256430, 0.167814, 0.206643, 0.176574, 0.139788, -0.079824, 0.073631, 0.207266, -0.096311, -0.323783, -0.274531, -0.302455, 0.185988, 0.092983, 0.201831, 0.007414, -0.016835, 0.005273, -0.070992, 0.054818, 0.106274, 0.124451, 0.200657, -0.140713, -0.016462, 0.080964, -0.051921, 0.155816, -0.206295, 0.307060, -0.076859, -0.188471, 0.035218, -0.219384, -0.211356, -0.035511, 0.034820, 0.083600, 0.185160, -0.171252, 0.252276, -0.087336, 0.034891, 0.012433, 0.159580, 0.192200, 0.143880, -0.128289, 0.167201, -0.087835, 0.136273, -0.298333, -0.174302, 0.055135, -0.067800, 0.090194, -0.050044, 0.050537, -0.021723, -0.282794, -0.039848, -0.204131, -0.079718, 0.247126, -0.110308, -0.236980, -0.120326, 0.140474, -0.126272, 0.141628, 0.100368, -0.159896, 0.171571, 0.219399, -0.014413, 0.255373, -0.103669, 0.116386, 0.033844, 0.084831, -0.058006, -0.121508, 0.008990, -0.033040, -0.255496, 0.115089, -0.170813, 0.321114, -0.136003, -0.135668, -0.238804, -0.164873, 0.189008, -0.273278, -0.065970, 0.055692, 0.236449, -0.115179, 0.051479, 0.126167, -0.312143, -0.350686, -0.098543, 0.036479, -0.088531, 0.041335, -0.272136, 0.180226, 0.097302, 0.054403, -0.047575, 0.087092, 0.046481, -0.264087, 0.160046, -0.079713, 0.060248, -0.090037, 0.000860, 0.064828, 0.031512, 0.071961, 0.070273, -0.226833, 0.315220, -0.121906, 0.257835, 0.223335, 0.247781, -0.151747, -0.002552, -0.156865, -0.314252, -0.128800, 0.054946, -0.042081, -0.084304, 0.211456, -0.094121, -0.272079, -0.005479, -0.028750, 0.011516, -0.020693};
#endif

#endif
