//Numpy array shape [64, 256]
//Min -0.513304650784
//Max 0.562514841557
//Number of zeros 0

#ifndef WR2_H_
#define WR2_H_

#ifndef __SYNTHESIS__
model_default_t wr2[16384];
#else
model_default_t wr2[16384] = {-0.086949, 0.115796, -0.041138, 0.036803, -0.174511, -0.123765, 0.001756, 0.144007, 0.194086, -0.179150, 0.081749, -0.044947, -0.106805, 0.017269, -0.193244, -0.168604, -0.049136, 0.076776, 0.080878, -0.181119, -0.201060, -0.155591, -0.078268, -0.071038, 0.028309, -0.107763, -0.160056, -0.045914, -0.089598, 0.070798, -0.161102, -0.193173, -0.013539, 0.049846, -0.256154, 0.266317, -0.042923, 0.131160, -0.019422, 0.025623, -0.112365, 0.041802, -0.115402, 0.041255, 0.039748, -0.060299, 0.106910, 0.181168, -0.092403, -0.077209, 0.214272, 0.011759, -0.059810, -0.152709, -0.200478, 0.183867, -0.259826, 0.226520, 0.012760, -0.226403, -0.046310, 0.103326, -0.190780, 0.063855, -0.100534, 0.174321, -0.083931, -0.117069, 0.025866, 0.098476, -0.090938, 0.171050, 0.002386, 0.111427, 0.159233, 0.091707, 0.035128, -0.056803, -0.013537, -0.069827, 0.200303, -0.040750, 0.068552, -0.044177, 0.122138, -0.100839, -0.042028, -0.072658, 0.020194, -0.093072, 0.062698, 0.093665, 0.019610, 0.003577, -0.056310, 0.092909, 0.026460, 0.169728, 0.007046, -0.018375, -0.103931, 0.192127, 0.044257, 0.094069, -0.043242, -0.062185, -0.001508, -0.069535, 0.177388, -0.099365, 0.034143, -0.039576, 0.000890, 0.003540, 0.111330, -0.031818, 0.000149, -0.083195, -0.068673, 0.126834, 0.062754, -0.248412, -0.049048, -0.068441, -0.069870, 0.212641, -0.080133, 0.023226, 0.034179, 0.037236, -0.152672, 0.035893, -0.035278, -0.001407, -0.175457, -0.144480, -0.070170, -0.094059, 0.039612, -0.118354, -0.063702, -0.003686, 0.024866, 0.089309, 0.047284, -0.007080, 0.032301, -0.106018, 0.108476, -0.070681, -0.001262, 0.014267, -0.002295, 0.009552, -0.173039, 0.037781, 0.058016, -0.057733, -0.007154, 0.072051, 0.064630, 0.039301, -0.078096, -0.047141, 0.033025, -0.093973, -0.091440, 0.083947, 0.049722, 0.050366, -0.095656, -0.021376, -0.081805, 0.123167, 0.199268, 0.060638, 0.100892, -0.033318, 0.112416, -0.079319, -0.019330, 0.044968, 0.053749, -0.072744, 0.136754, -0.023875, -0.106226, -0.027775, -0.010917, -0.073228, 0.030504, -0.003771, -0.160607, 0.098396, -0.107137, 0.086505, 0.055558, 0.044934, -0.050312, 0.143413, 0.014284, -0.084324, 0.111398, -0.038740, -0.037730, -0.018403, -0.208926, -0.107026, -0.045741, 0.076690, -0.097244, -0.146063, -0.018281, -0.085504, -0.020290, -0.102650, 0.085335, -0.244768, -0.216903, 0.092302, -0.019723, 0.088174, -0.084753, -0.108068, -0.019228, 0.096497, -0.226414, 0.185470, 0.005842, 0.163510, 0.122778, 0.023836, -0.221463, 0.021164, 0.059616, -0.053139, -0.035267, 0.019898, -0.074810, 0.095118, 0.060739, -0.060443, 0.151674, -0.047355, -0.047415, -0.229450, -0.200867, 0.037171, -0.071129, -0.019793, 0.047494, -0.162784, 0.056170, 0.164775, -0.086893, -0.070979, 0.092924, -0.072289, -0.027619, 0.024024, -0.065361, -0.119490, 0.115908, -0.204967, 0.096577, 0.105478, 0.232209, 0.133846, -0.130858, -0.058846, -0.007367, -0.138097, 0.070317, -0.076000, -0.092541, 0.075145, 0.046932, 0.066828, 0.043705, 0.193438, 0.046330, -0.131647, -0.015740, 0.011615, 0.206269, 0.168011, -0.210166, -0.155012, -0.101944, 0.116745, 0.226583, -0.163899, 0.088967, -0.150321, 0.004208, -0.053635, 0.000632, -0.118311, 0.013261, 0.025148, 0.120409, 0.112018, -0.040975, 0.045411, -0.019394, 0.097201, 0.077990, -0.122875, -0.063613, 0.164941, 0.142755, -0.032365, 0.122639, 0.004411, -0.062686, 0.126419, 0.087311, -0.038925, 0.186880, -0.026691, -0.015508, 0.051901, 0.181309, -0.026387, 0.090341, -0.163833, 0.112615, -0.063907, 0.066112, -0.078062, 0.080117, -0.000718, -0.236561, -0.116525, -0.106479, -0.107761, -0.028734, -0.217622, 0.095917, -0.186175, -0.039640, -0.020415, -0.031614, -0.048444, 0.059565, -0.084053, -0.179328, 0.041090, -0.163329, 0.143386, -0.095927, -0.102522, 0.022899, 0.034389, 0.086753, -0.126809, 0.141259, 0.075080, 0.034444, -0.101541, -0.080124, 0.097485, 0.003439, 0.114826, -0.227342, 0.026370, 0.037952, -0.020649, 0.095043, 0.225854, -0.000437, -0.036787, 0.082309, 0.062031, -0.268679, 0.041751, -0.071512, 0.034446, -0.207502, -0.261892, -0.007090, -0.010773, -0.121601, -0.021475, -0.003473, 0.125949, 0.123177, 0.057092, -0.045852, 0.013985, 0.010311, -0.083623, 0.067980, -0.014866, -0.158499, -0.156598, 0.018033, 0.017950, 0.085512, 0.154659, 0.109688, 0.093963, -0.010601, 0.081310, -0.048605, -0.019913, 0.106978, 0.281973, -0.064667, -0.026704, 0.017801, 0.009548, 0.025215, 0.155803, -0.077399, -0.087404, -0.080356, 0.069432, -0.163842, 0.222218, 0.012755, 0.011280, -0.089111, -0.081074, -0.026364, -0.041647, -0.085329, -0.000305, -0.006526, -0.175658, -0.141081, -0.008227, -0.031656, -0.023955, -0.054074, -0.013811, 0.040878, 0.108085, -0.043789, 0.040292, 0.169233, 0.033086, 0.042204, -0.097533, 0.010831, 0.091470, 0.186905, 0.040264, 0.070499, -0.005028, 0.066840, 0.046886, 0.003534, -0.200403, 0.103159, -0.070030, 0.035522, 0.071841, 0.102765, 0.251102, -0.110479, -0.308957, -0.141486, -0.175810, -0.031407, -0.073020, 0.170785, -0.118212, -0.022520, 0.071175, 0.020592, 0.218983, -0.111670, -0.185830, -0.222241, 0.101245, 0.056317, 0.264600, -0.134352, -0.146712, -0.061666, 0.043293, 0.169296, -0.022662, 0.029548, 0.264889, 0.029697, -0.072078, -0.156064, -0.097145, 0.007604, 0.069014, -0.064930, 0.026945, -0.072983, 0.031878, -0.031070, 0.186057, -0.134165, 0.063391, 0.127250, 0.129674, -0.022877, -0.026659, 0.070593, -0.129033, -0.153656, 0.130134, 0.072155, 0.175098, 0.108614, 0.050050, 0.013460, 0.131823, -0.003397, 0.005880, 0.082093, 0.034425, 0.030113, 0.029178, -0.091704, -0.224000, -0.191919, -0.136572, -0.160482, -0.024037, -0.190878, -0.227179, 0.093535, 0.074630, -0.040613, 0.322206, 0.165276, -0.042046, 0.004872, -0.170167, -0.094105, -0.121141, 0.048886, -0.163201, -0.409300, -0.290280, -0.214156, 0.024294, 0.093630, -0.091510, -0.083733, 0.148198, -0.128336, -0.109050, -0.011067, 0.150591, -0.300828, -0.045095, -0.027555, 0.049814, 0.133863, -0.044435, -0.184179, -0.079997, -0.063787, -0.184914, 0.003737, 0.063577, -0.044623, -0.070710, 0.019935, -0.170336, -0.107841, -0.024334, 0.092062, -0.266957, -0.206589, -0.032037, -0.151406, -0.190156, 0.004941, -0.031808, 0.043457, 0.101039, -0.036533, -0.033539, 0.075482, -0.108260, 0.019698, -0.128155, 0.064038, -0.004809, 0.048945, -0.123036, 0.033174, 0.080452, 0.054613, 0.060433, 0.072448, 0.092526, 0.266421, 0.059346, -0.004808, -0.070779, 0.010896, -0.048107, 0.062322, -0.046338, -0.146358, -0.220305, -0.035511, 0.062467, 0.088084, -0.028417, 0.096438, 0.125542, 0.054374, -0.021578, 0.028495, -0.045696, 0.033936, -0.061225, -0.093105, 0.020883, 0.110881, -0.086322, 0.029002, -0.069018, -0.131229, -0.099795, 0.007872, 0.043991, 0.105560, 0.166772, 0.048426, 0.067257, 0.038612, -0.162314, -0.061128, 0.168245, -0.021365, -0.177193, 0.043776, 0.112204, -0.018336, 0.004223, 0.116707, 0.078814, -0.040984, 0.039822, 0.177400, 0.171634, 0.087841, -0.181012, 0.062948, 0.022878, -0.024281, 0.074032, -0.086897, -0.021416, -0.019415, 0.052374, 0.035853, 0.102407, -0.156896, -0.035731, 0.109642, -0.129436, 0.058092, -0.039678, 0.127331, -0.020663, -0.017859, 0.103494, -0.102353, -0.020476, 0.125384, -0.025665, 0.229724, 0.090542, 0.041518, 0.118530, 0.016449, 0.045263, -0.039120, 0.005273, 0.249707, 0.048321, -0.158883, 0.188033, -0.056392, -0.102168, 0.090961, 0.098596, -0.009448, 0.016411, 0.193447, -0.056602, 0.078283, -0.200628, -0.179031, -0.096826, -0.030714, 0.186461, -0.179617, 0.092208, 0.012680, 0.059724, 0.046572, 0.051204, 0.132925, 0.050117, -0.043024, 0.024326, -0.080006, -0.105260, 0.002734, -0.332016, -0.017426, -0.005884, 0.090400, -0.163693, -0.135473, -0.258296, -0.112901, -0.030207, 0.032364, 0.225946, 0.163650, 0.018688, -0.156740, -0.135121, -0.083201, 0.017594, -0.115522, -0.071263, -0.430245, -0.200346, -0.022848, 0.115163, -0.072370, -0.100148, -0.069909, 0.088354, -0.014090, -0.137762, 0.015629, 0.161529, -0.006500, -0.065444, -0.048477, 0.023612, 0.002439, 0.000527, -0.242573, -0.088389, -0.053207, -0.151552, -0.016021, 0.011114, 0.011027, -0.072876, -0.030505, 0.016304, -0.141663, -0.219846, 0.172335, 0.160670, -0.054699, 0.105164, -0.191792, -0.129297, 0.234412, -0.073809, 0.130508, 0.143662, 0.289209, 0.048260, -0.191299, 0.118661, -0.136938, 0.128582, 0.004020, -0.145946, -0.144986, -0.065646, 0.250596, 0.183447, -0.125671, -0.077152, 0.009373, -0.137879, -0.029710, 0.096540, -0.021371, -0.009834, 0.069640, -0.025634, 0.002086, 0.104368, 0.144739, 0.376417, 0.028788, -0.028505, 0.033657, 0.224933, 0.207557, 0.108458, 0.168218, 0.105479, 0.058149, -0.101584, 0.248307, 0.103597, 0.206373, 0.011434, -0.239428, -0.092459, -0.064023, 0.266119, 0.036337, -0.203736, 0.287544, -0.057404, 0.182169, 0.031093, 0.039263, 0.229147, 0.219057, -0.010986, -0.282343, 0.199907, -0.063881, -0.097624, 0.235900, 0.125058, 0.025177, -0.176118, -0.064608, -0.005872, -0.048097, 0.078889, 0.082473, 0.027421, -0.152578, 0.037963, -0.048884, 0.082710, -0.009385, 0.086589, 0.045854, 0.018856, 0.078020, -0.036393, -0.033124, -0.023371, -0.123188, -0.039264, 0.024710, -0.052806, -0.052386, 0.033919, -0.046187, 0.022061, 0.152262, 0.205984, -0.027614, -0.044168, 0.122660, 0.195403, 0.119173, -0.063245, 0.037674, 0.033800, -0.062497, 0.085980, -0.120418, 0.117940, 0.076546, -0.147312, -0.150601, 0.108556, -0.042828, -0.097809, 0.132425, -0.122901, -0.056065, -0.107177, 0.122151, 0.110055, 0.333537, 0.203550, 0.080757, -0.244906, -0.049351, 0.133418, 0.125798, -0.030184, 0.071891, -0.117198, 0.071353, 0.001573, -0.028850, 0.052609, -0.069613, 0.020689, -0.096383, -0.018071, 0.034718, -0.101694, 0.055004, 0.030543, -0.001254, 0.012504, -0.179159, -0.078193, 0.117766, -0.085661, 0.015778, 0.028326, 0.066210, 0.160957, -0.127803, 0.000536, -0.121143, -0.036344, -0.050735, 0.039125, 0.024547, 0.005647, 0.034243, -0.013596, 0.011097, 0.162891, 0.029447, 0.037069, 0.015492, 0.121561, 0.192289, 0.063723, -0.126059, 0.123637, 0.100720, 0.016547, 0.135276, 0.071875, 0.037598, 0.015442, -0.012352, 0.024898, -0.107304, 0.054432, -0.011658, -0.011284, 0.233101, 0.151747, -0.068209, -0.130660, 0.026732, 0.022963, -0.012710, -0.064381, 0.115348, 0.102728, 0.208239, -0.117125, -0.038493, -0.088072, 0.160587, -0.045361, -0.037806, 0.159729, 0.042126, 0.117963, 0.084363, 0.005569, -0.080038, 0.228367, 0.175184, 0.066428, -0.045585, 0.093749, -0.066910, -0.090155, 0.151394, 0.093853, 0.024991, -0.033919, -0.045546, 0.056366, -0.139612, 0.111933, 0.196878, 0.076114, -0.104033, -0.094251, 0.035216, 0.188474, 0.096488, 0.011464, 0.207314, 0.047156, -0.019630, -0.024428, 0.006156, 0.156457, 0.209080, -0.182932, -0.114332, 0.046862, -0.117532, 0.011590, 0.066645, -0.131856, 0.094679, -0.094657, 0.015069, 0.080208, 0.152748, -0.008700, 0.294048, -0.098863, -0.072111, 0.110206, 0.029896, -0.027119, 0.266932, -0.025210, 0.020200, 0.180392, 0.127816, 0.079539, 0.007565, 0.037449, 0.133911, 0.117692, -0.043361, -0.081979, 0.066255, 0.037521, -0.155333, 0.106858, -0.041988, -0.239064, -0.210218, -0.011663, 0.030718, -0.028828, -0.083401, -0.102082, -0.145178, -0.290389, -0.045815, -0.121728, -0.174692, 0.152390, -0.223392, 0.309955, 0.014260, -0.098107, -0.122502, 0.112193, -0.362689, -0.000213, 0.017039, 0.082981, -0.074561, -0.185622, -0.256977, 0.048307, -0.055966, 0.000062, -0.067501, -0.147193, 0.232316, 0.247132, -0.006249, 0.042937, 0.117835, 0.020627, 0.172868, -0.239323, -0.142038, -0.044699, -0.301479, 0.125718, -0.292735, -0.439467, 0.080830, 0.097955, -0.128666, -0.063131, -0.060856, 0.303702, 0.134990, 0.097173, 0.229870, -0.047097, -0.131687, 0.209108, -0.064425, 0.043333, 0.015141, -0.108172, 0.020021, 0.010824, -0.112748, -0.035233, -0.143141, -0.190354, -0.079030, 0.050467, 0.046267, -0.012771, -0.099908, -0.060027, 0.002609, -0.077076, 0.029647, 0.187535, -0.148251, 0.144339, 0.078871, -0.062219, -0.089931, 0.137129, 0.063149, 0.003518, 0.007673, 0.075747, 0.036145, -0.009265, 0.034733, -0.103717, 0.197467, 0.089064, 0.118286, -0.101095, 0.229881, -0.004271, 0.055272, 0.034426, -0.026898, 0.008650, 0.002398, -0.188553, 0.009361, 0.082945, -0.114510, 0.003923, -0.003499, -0.064849, -0.106714, 0.032681, -0.018787, 0.077731, -0.046449, -0.004784, -0.130957, -0.052953, 0.080916, 0.013640, -0.103905, -0.060601, -0.035114, -0.031587, 0.061841, -0.188529, 0.126216, 0.062618, 0.072828, -0.027192, -0.069686, -0.015057, -0.225947, -0.138511, 0.078928, -0.006050, 0.029668, 0.077891, 0.000131, -0.049309, 0.029175, 0.024876, 0.058632, -0.122879, -0.020561, 0.075370, 0.129422, 0.025886, -0.153881, -0.099481, 0.100843, 0.175405, -0.051897, 0.041709, 0.159698, -0.030026, -0.065097, 0.018447, 0.161968, -0.095179, 0.089774, -0.051700, -0.051055, -0.031575, -0.115550, 0.147766, -0.156177, 0.056877, -0.083162, 0.183232, 0.178312, -0.078010, 0.093304, -0.167626, -0.015618, -0.148386, -0.067266, -0.013899, -0.045635, 0.152233, -0.041942, 0.073084, 0.072383, -0.215924, -0.060060, -0.056394, 0.089056, 0.042519, -0.095531, -0.122658, -0.024494, 0.098562, 0.089501, -0.078921, -0.129896, -0.061554, -0.056750, -0.039704, 0.110216, 0.006845, 0.018840, -0.090568, -0.000068, -0.131582, -0.100329, 0.101701, -0.071185, 0.145806, -0.135994, -0.034004, -0.094122, 0.058177, -0.185172, 0.108545, -0.175495, 0.076631, 0.004111, 0.026790, -0.130989, -0.162502, -0.086201, 0.100356, 0.020347, -0.037247, 0.306670, 0.222744, 0.104230, -0.069550, 0.027784, -0.013062, 0.092142, -0.264137, -0.175235, -0.045158, -0.222418, 0.104017, -0.214557, -0.426339, 0.049585, 0.171646, -0.159028, 0.101000, 0.249692, 0.250205, -0.293770, 0.253956, 0.146204, 0.038087, -0.039483, -0.060635, 0.229840, -0.011685, 0.139828, -0.009827, -0.085136, -0.182936, -0.058105, -0.139471, -0.066952, 0.121200, 0.108386, -0.087086, 0.113957, -0.231142, 0.036930, 0.020981, 0.086011, -0.046598, -0.117473, 0.178082, -0.250021, 0.095427, -0.035287, 0.042667, -0.061761, 0.326306, -0.069750, 0.069437, 0.006630, 0.096009, 0.028670, 0.065308, -0.025383, -0.084973, -0.224628, -0.079794, 0.237193, 0.131081, 0.182815, -0.061759, -0.050638, -0.089768, -0.032481, 0.232012, 0.034833, 0.076398, -0.048127, 0.028372, -0.043219, 0.132333, 0.052096, -0.125534, 0.060506, -0.075119, -0.170070, 0.114252, -0.031805, -0.019942, -0.105262, 0.012387, 0.010898, 0.014761, -0.065671, 0.023296, 0.028456, -0.001954, -0.183501, -0.125730, -0.162027, -0.036441, -0.123689, -0.000443, -0.102952, 0.015885, 0.118889, 0.004472, -0.028135, -0.034051, 0.027372, -0.047427, -0.067027, 0.078421, -0.153711, 0.147292, -0.120028, 0.103460, 0.061670, -0.005476, -0.058381, 0.051195, -0.128158, 0.025123, 0.060107, -0.012376, 0.066110, 0.148422, 0.311472, -0.080886, 0.024738, 0.048371, 0.101928, -0.114044, 0.051194, 0.128829, 0.009749, -0.068466, 0.090642, 0.241888, -0.000527, -0.023537, -0.052243, 0.128989, -0.031868, -0.062737, 0.012423, 0.020351, -0.043281, 0.161059, 0.037687, 0.045899, 0.084479, -0.014742, 0.188033, -0.011187, -0.115216, 0.020722, -0.022556, 0.058585, 0.074603, -0.112798, 0.056508, -0.009185, -0.021974, 0.065886, 0.091933, 0.072238, -0.047664, 0.043027, -0.101806, -0.068900, -0.042943, 0.010365, 0.026313, 0.248165, 0.013140, -0.012921, 0.082005, -0.046465, 0.163455, 0.066588, -0.084361, -0.021559, 0.012613, 0.044922, 0.054092, 0.004020, 0.030584, 0.089704, 0.114414, -0.010555, 0.038192, 0.018801, -0.019057, -0.022106, -0.002604, -0.080774, -0.183782, -0.162909, 0.160256, -0.088714, 0.008496, 0.099717, 0.001756, 0.132558, 0.068450, -0.054008, 0.086324, -0.027995, 0.094326, -0.186542, -0.061928, -0.017405, -0.003963, -0.029703, 0.148742, -0.012290, -0.034949, 0.218049, 0.136098, -0.059082, 0.004208, -0.079697, 0.140032, 0.041008, 0.142197, -0.085722, -0.139073, -0.074352, -0.233003, -0.089538, -0.036620, 0.070659, 0.066721, 0.019879, -0.056850, -0.233922, 0.197287, -0.100249, 0.005054, 0.001479, -0.032677, 0.077184, -0.215927, 0.153297, -0.140091, 0.167309, 0.074055, 0.141773, 0.065516, -0.036312, 0.057892, 0.096254, 0.269558, 0.054467, 0.116906, -0.149318, -0.031363, 0.064291, 0.126515, -0.074626, 0.084516, 0.042363, 0.038674, -0.072840, 0.114735, 0.188920, 0.188556, 0.015917, 0.055983, 0.013384, 0.009400, -0.007167, -0.036191, 0.081692, 0.089784, 0.041292, -0.079927, 0.128510, 0.125110, 0.142602, 0.274688, 0.040633, 0.214171, 0.004777, -0.083438, 0.108787, -0.137231, -0.104910, -0.260316, -0.065630, -0.164683, 0.204656, -0.131268, -0.152445, -0.194006, 0.080913, -0.101186, 0.225515, -0.011443, 0.157527, 0.007934, -0.099618, -0.176946, -0.176985, 0.041699, 0.074185, -0.351043, -0.175230, -0.152255, -0.024501, 0.105065, -0.109157, -0.011375, 0.115227, -0.053557, 0.024631, 0.034885, 0.175968, -0.358251, 0.099571, 0.093567, -0.164585, 0.071631, -0.078357, 0.204878, 0.346199, 0.151167, -0.011616, 0.065114, 0.108844, -0.094563, -0.167290, -0.138442, 0.117302, -0.213521, -0.017325, -0.076260, -0.200474, -0.092141, 0.074951, -0.228152, -0.090510, -0.028943, 0.139183, 0.098559, 0.007915, -0.115874, -0.111346, -0.009327, 0.149429, 0.048541, -0.056712, -0.176224, 0.157883, 0.080473, 0.022243, -0.012241, 0.028833, -0.096147, -0.079389, -0.072200, 0.172013, 0.197622, 0.066227, -0.014862, -0.011706, 0.069937, 0.110853, 0.032030, 0.016166, -0.031744, -0.253096, 0.038631, -0.101288, 0.024625, -0.046333, 0.083610, 0.061481, 0.074770, 0.016590, -0.157265, 0.046789, -0.020309, 0.059263, 0.062605, -0.029601, 0.095478, 0.112942, 0.051878, 0.041315, 0.013805, -0.153748, 0.050594, -0.090598, -0.007416, -0.108461, 0.066648, 0.102897, -0.143228, -0.176053, -0.050252, 0.029310, -0.086577, 0.137496, -0.040117, -0.044304, -0.090600, 0.024924, -0.149313, 0.036637, -0.147127, 0.026176, 0.164088, 0.108849, -0.103869, 0.047442, -0.026775, 0.023466, -0.093542, -0.161436, 0.014006, -0.124672, -0.076357, 0.043947, -0.066416, 0.168439, 0.101592, 0.081861, -0.031665, -0.096469, -0.113897, -0.029971, -0.007964, 0.194221, -0.166472, 0.072009, -0.189078, 0.041811, -0.031328, -0.114529, 0.122477, 0.085613, -0.089138, -0.089392, 0.064842, -0.007425, -0.098717, 0.020736, 0.101411, -0.046256, -0.053677, 0.059574, -0.013576, 0.003875, -0.040016, 0.030560, -0.072594, -0.014590, 0.122208, -0.017067, -0.047587, -0.115224, -0.049275, -0.029107, -0.001151, -0.013316, -0.033493, 0.054509, -0.030981, -0.106087, 0.005640, 0.169418, 0.204656, 0.037517, -0.056384, 0.022439, -0.131851, 0.200092, 0.116920, -0.050459, -0.123908, -0.021239, -0.089270, 0.126640, 0.015839, -0.105660, -0.093348, 0.009248, -0.121683, 0.028621, 0.111232, 0.204447, -0.086297, -0.138245, -0.036635, 0.032734, -0.171240, -0.259676, -0.316598, -0.239483, 0.051664, -0.103182, -0.047745, -0.066293, 0.018731, 0.088872, 0.053090, -0.176425, -0.055735, 0.076076, -0.073232, 0.080114, 0.140355, -0.076312, -0.120899, 0.065844, 0.018124, 0.175177, -0.147203, -0.139223, 0.075466, -0.043861, -0.095678, -0.066468, -0.004164, 0.204611, -0.096315, 0.041200, -0.045863, -0.193086, -0.130311, 0.082047, -0.175915, -0.112566, -0.048089, 0.006622, -0.152006, -0.051004, 0.081402, -0.022469, 0.144972, -0.005325, -0.185277, -0.186301, 0.081925, 0.027476, -0.173651, -0.026797, -0.027643, -0.247487, -0.085219, -0.124377, 0.154505, 0.100053, 0.064885, 0.038545, 0.148903, -0.054726, 0.067924, 0.071253, 0.068246, 0.134645, -0.091574, 0.039164, -0.307868, -0.106874, 0.156079, 0.058070, -0.035472, 0.066172, -0.121881, -0.129397, 0.131023, -0.008022, -0.067881, 0.027802, -0.245408, 0.044879, 0.225492, -0.078793, 0.160082, 0.035941, 0.090767, 0.061267, -0.020295, 0.102080, 0.069026, -0.178653, 0.023249, 0.172108, -0.015662, 0.174651, -0.227225, -0.202528, -0.093241, 0.109136, -0.068294, 0.047850, 0.054782, -0.005859, -0.069820, 0.016849, 0.057875, -0.015497, -0.063291, -0.111462, -0.016836, -0.067171, -0.011526, 0.036689, 0.002436, -0.002856, 0.093754, 0.182903, -0.062131, -0.148426, -0.079752, -0.002987, 0.097537, 0.066299, -0.019945, 0.103188, -0.104072, -0.154741, 0.126389, 0.052166, -0.056626, -0.118840, 0.137399, 0.076735, 0.122506, -0.003333, 0.131826, -0.091800, 0.111656, -0.104370, 0.062832, -0.012512, -0.085484, -0.134250, -0.111244, 0.083227, 0.119266, -0.123038, 0.080571, 0.042410, 0.053691, -0.059125, 0.032419, 0.027771, 0.018500, 0.027783, 0.051748, -0.153163, 0.097697, 0.093683, 0.004550, -0.101545, 0.046075, 0.025549, 0.098430, 0.159198, 0.044177, -0.191244, -0.107999, 0.129729, 0.120779, -0.140782, 0.027406, 0.178379, 0.017527, -0.035189, 0.098327, -0.076024, 0.019206, -0.096683, -0.094847, -0.260699, -0.056316, -0.070438, 0.032705, -0.044038, 0.044004, 0.017074, 0.023887, -0.133422, 0.024767, 0.000112, 0.079481, -0.067769, -0.122374, -0.009165, 0.009952, 0.134783, -0.025436, 0.128862, -0.106700, -0.038452, 0.001944, 0.037006, 0.115868, 0.151987, -0.126913, 0.069052, -0.009080, 0.139293, 0.204710, -0.124075, 0.086419, -0.057292, -0.119113, 0.014757, -0.062416, -0.027032, -0.133100, -0.078366, 0.072675, -0.076640, -0.039559, -0.177010, -0.031701, 0.214812, -0.022002, -0.100325, 0.097204, -0.129025, -0.036264, 0.001365, -0.165273, 0.054889, 0.101122, -0.099394, 0.068680, -0.048562, -0.070421, 0.032204, -0.008619, -0.041927, -0.103159, 0.075387, 0.045615, -0.121285, -0.066225, 0.006156, -0.095629, 0.315028, 0.127029, -0.018430, 0.096532, -0.001954, 0.008202, 0.030945, 0.146523, -0.016546, -0.011964, -0.076448, -0.130530, 0.174576, 0.019803, 0.039464, 0.332775, -0.071636, -0.028407, -0.042218, 0.003065, 0.045774, -0.031197, -0.088081, -0.121372, 0.069925, 0.253547, -0.008414, 0.180583, -0.014403, 0.126978, 0.126694, -0.021980, 0.030900, -0.025696, -0.128651, 0.122460, 0.005666, 0.007398, 0.144433, 0.039838, -0.102734, -0.164662, 0.017203, 0.055799, 0.126203, 0.015747, 0.193983, -0.078597, -0.231199, -0.097007, 0.063260, 0.214275, 0.239561, -0.270423, -0.435880, -0.051307, 0.006883, 0.031584, -0.164209, -0.071120, -0.209268, 0.169591, 0.037518, 0.072891, 0.118399, -0.073583, -0.125071, 0.178949, -0.078775, 0.053064, 0.086725, 0.056409, 0.054125, -0.157203, -0.020843, -0.048084, 0.009279, 0.043614, 0.058764, -0.052934, -0.010651, -0.053662, -0.350621, 0.141004, 0.276345, 0.097832, 0.053682, -0.114185, -0.198173, 0.172500, 0.035630, 0.175316, -0.121818, -0.102411, 0.332522, -0.147892, -0.032316, -0.096258, -0.378414, -0.388131, 0.120167, -0.305657, 0.166671, 0.153476, -0.184473, -0.037749, 0.248683, -0.198236, -0.012228, -0.124328, 0.005833, 0.095680, -0.080102, -0.023686, 0.029211, 0.124347, -0.013976, -0.094264, -0.089694, 0.105423, 0.168359, 0.000210, 0.061452, 0.064426, 0.061746, 0.052470, 0.015302, -0.105566, -0.172844, -0.115245, -0.087730, 0.015138, 0.007781, -0.033700, 0.171973, -0.009767, -0.002842, -0.003271, -0.088490, 0.098777, -0.036378, -0.073007, 0.088414, -0.090164, -0.144803, -0.030407, -0.106821, -0.005017, -0.067278, 0.067455, 0.146521, 0.033708, 0.001590, -0.048037, -0.054277, -0.085966, 0.036439, -0.127569, 0.022651, -0.174670, -0.091272, -0.049729, 0.164744, 0.072334, -0.094205, 0.109846, -0.094873, 0.080762, -0.118277, 0.134133, 0.134165, 0.071747, -0.156306, -0.009665, -0.072733, -0.133570, -0.049629, 0.071324, -0.225650, 0.049695, 0.011892, -0.045693, 0.144969, -0.095781, -0.026558, 0.001748, 0.041561, 0.095991, 0.189651, -0.104247, -0.110864, 0.202315, 0.063418, -0.045368, 0.086827, 0.003178, -0.053457, 0.007256, -0.118454, 0.111598, 0.171687, -0.079830, 0.050540, -0.046875, -0.008325, -0.075026, 0.051408, -0.025416, -0.057993, 0.028057, -0.136870, 0.066829, -0.092854, 0.031635, -0.076996, -0.035752, 0.067147, -0.038187, -0.029210, 0.019312, 0.157502, -0.000025, -0.087912, 0.004019, -0.141994, -0.000684, -0.030038, 0.084545, -0.141817, -0.148465, 0.034505, -0.025957, 0.047534, -0.077146, -0.101200, -0.074981, 0.174305, -0.212276, 0.157091, -0.155288, -0.014336, -0.182240, 0.042186, 0.065532, 0.149389, -0.070054, -0.217112, 0.114065, 0.149964, 0.028433, -0.068882, 0.050575, 0.147016, -0.007735, -0.109756, 0.028164, -0.095788, -0.247882, -0.184040, 0.111553, -0.056165, 0.020887, 0.093377, 0.168760, 0.028421, 0.037371, 0.031617, 0.078688, -0.102962, 0.080931, 0.233239, -0.222050, 0.030254, 0.145360, -0.234645, 0.050488, 0.112304, 0.036365, 0.207342, 0.032393, -0.103534, 0.009072, 0.071829, 0.187188, 0.144127, 0.033946, 0.044316, -0.098001, 0.082886, -0.124257, -0.044497, -0.267885, -0.033638, -0.140544, 0.026702, 0.023512, -0.076423, 0.085410, 0.127784, -0.050252, -0.020897, -0.138715, -0.057718, -0.065448, -0.290436, -0.211496, -0.050261, 0.105409, -0.033549, -0.214417, 0.052564, 0.113586, 0.186910, -0.145032, 0.124553, 0.100762, 0.061800, -0.110612, 0.105678, 0.109685, -0.292021, -0.164427, 0.007904, 0.130264, 0.061633, 0.163220, -0.069208, -0.054073, 0.166145, 0.233533, 0.438930, -0.025446, -0.342698, -0.158747, 0.319354, -0.043479, 0.290147, -0.067681, -0.061124, 0.025248, 0.223337, 0.060296, -0.073126, 0.081324, -0.012767, -0.035340, 0.021465, -0.050133, 0.109770, 0.008157, 0.059632, -0.074418, -0.042362, 0.043894, -0.195044, -0.141639, -0.074437, -0.238251, -0.271881, -0.084474, -0.057143, 0.070768, 0.194667, -0.184772, 0.072141, -0.063252, 0.116803, -0.023626, -0.048782, -0.122902, -0.042128, -0.121231, -0.043845, -0.209176, 0.014879, -0.087022, 0.033028, -0.085746, 0.364443, -0.117698, 0.094706, -0.050246, 0.026667, -0.013063, -0.067785, -0.108234, -0.185565, -0.054209, -0.101373, 0.093374, 0.060907, -0.009875, -0.009503, -0.136705, -0.015778, -0.173564, -0.078920, 0.007808, -0.051215, -0.037335, 0.076865, -0.040683, -0.175435, -0.096794, -0.000134, 0.106791, 0.084142, -0.056161, 0.026949, 0.198659, 0.065504, 0.178609, -0.023591, 0.235953, -0.028665, -0.040723, -0.037951, -0.118989, 0.043092, 0.146818, 0.066172, 0.034573, 0.158611, 0.167735, -0.095375, -0.087668, 0.125407, 0.075995, -0.032273, 0.000915, 0.095911, -0.140501, -0.106048, 0.079485, -0.085006, 0.083475, -0.026956, 0.006123, 0.060726, -0.023504, -0.161464, -0.015842, 0.057598, 0.265530, 0.245718, 0.035622, -0.035423, -0.038319, -0.009636, 0.042543, 0.004073, 0.111391, 0.343482, -0.097161, 0.078415, -0.086647, -0.070694, 0.164249, -0.037939, -0.104248, 0.166649, 0.000035, -0.122107, -0.135250, -0.083922, 0.001091, -0.051076, -0.043243, 0.124921, 0.228983, 0.009080, -0.301937, 0.041691, 0.009544, 0.005201, -0.179816, 0.066978, 0.010534, 0.042650, -0.060242, -0.097393, -0.226788, -0.026740, -0.087158, 0.072185, 0.143800, 0.054355, 0.037563, -0.203815, -0.057394, 0.042209, -0.170254, -0.043091, -0.083076, -0.068198, -0.054963, -0.242785, -0.082492, -0.146727, -0.037654, 0.016536, -0.171320, -0.069960, 0.041059, 0.049262, -0.103113, 0.159827, -0.010041, 0.003994, 0.006743, 0.062526, 0.124897, -0.102438, -0.228208, 0.010963, 0.139600, 0.127912, 0.089312, 0.129614, -0.008860, 0.160512, 0.041259, 0.159179, 0.039307, -0.084317, -0.129397, 0.068009, -0.124718, 0.094632, 0.048309, -0.106366, 0.087435, -0.022540, -0.051248, -0.015185, 0.024156, -0.064140, -0.014776, 0.000941, 0.127367, 0.049025, 0.191475, 0.042902, 0.027423, 0.121037, -0.078020, -0.026338, -0.077545, -0.065357, -0.003762, 0.099127, 0.014669, -0.166634, -0.143510, 0.074806, 0.091217, 0.050842, 0.222346, 0.132623, 0.164990, 0.118695, 0.125459, 0.116032, -0.127643, -0.005837, -0.159951, 0.318670, 0.050015, 0.037283, -0.004964, -0.053411, 0.120547, 0.218190, -0.048601, -0.087893, -0.006868, 0.059973, 0.096992, 0.288581, 0.110602, 0.147649, -0.079619, 0.057124, 0.075677, 0.028728, 0.001891, 0.063443, 0.091411, -0.076072, 0.016696, 0.111447, 0.227824, 0.073160, 0.141698, -0.043522, -0.037134, -0.186621, 0.312676, 0.080886, 0.239973, -0.324078, -0.089338, -0.214991, 0.037057, 0.080641, 0.033333, -0.131536, -0.070595, 0.037688, 0.128264, 0.165329, 0.307911, 0.072063, 0.486350, -0.115841, -0.040460, 0.210135, -0.213867, -0.149897, 0.187774, -0.046087, 0.077340, -0.039644, -0.141059, 0.269971, -0.173112, -0.102083, 0.165050, -0.091411, -0.025213, 0.020099, -0.019700, 0.146240, -0.034531, -0.038921, 0.026863, 0.009022, -0.109472, -0.013225, -0.004888, -0.127091, -0.021386, 0.052676, -0.174208, 0.094682, 0.004294, -0.006285, 0.004568, -0.003590, 0.002033, -0.012899, -0.014997, -0.010343, 0.103560, 0.029099, -0.037681, 0.006921, -0.007481, 0.089776, 0.027093, 0.086205, -0.015532, 0.046344, -0.039726, -0.172009, -0.080301, -0.038826, -0.062364, -0.078446, -0.070794, -0.043203, 0.105793, -0.006019, 0.032507, -0.088549, -0.081933, 0.167723, -0.159708, 0.095839, 0.249726, 0.013783, -0.037697, -0.131814, 0.103542, -0.071112, 0.021478, 0.071568, -0.060077, -0.054475, 0.015243, -0.025768, -0.003298, 0.022130, 0.123077, -0.093667, -0.043928, 0.040031, 0.103187, -0.086459, 0.030904, 0.097337, -0.092989, -0.066857, -0.064782, -0.013890, -0.094374, -0.008997, 0.050182, 0.032116, 0.007892, -0.176119, -0.101450, -0.094222, -0.141688, 0.033519, 0.060898, -0.171009, 0.009440, 0.101181, -0.093729, 0.034074, -0.074969, 0.207622, -0.006341, 0.023179, -0.072418, -0.126336, -0.133915, -0.050708, 0.124933, -0.049664, 0.009285, -0.036912, -0.076384, -0.019945, -0.064711, 0.062770, -0.045305, 0.054526, 0.046331, 0.074429, 0.037315, 0.043115, 0.220905, -0.101250, 0.046797, -0.043876, -0.020630, -0.029245, 0.125311, 0.037074, 0.033209, -0.111144, 0.110256, -0.068182, 0.047463, -0.026094, -0.282006, 0.044090, -0.071407, 0.078625, -0.170831, -0.148751, 0.106851, 0.109367, -0.098664, -0.057039, -0.048277, 0.047311, 0.189819, 0.353789, 0.129556, 0.200342, 0.001147, -0.097762, 0.036209, 0.004053, 0.099324, 0.142576, 0.145789, -0.075781, 0.062199, 0.140075, 0.206916, -0.046624, 0.146268, -0.094814, -0.065831, 0.014292, -0.050201, -0.010454, 0.229811, -0.099531, -0.200277, -0.094552, 0.101363, -0.049717, 0.217569, -0.109054, -0.071879, 0.032539, 0.038787, 0.070900, 0.169538, 0.101585, 0.228377, 0.075055, 0.030729, 0.023916, -0.008979, -0.139457, 0.077323, 0.072213, 0.076732, -0.121768, -0.085227, 0.104313, 0.077942, 0.130445, -0.001922, -0.079600, 0.070131, -0.068206, 0.090434, -0.161430, 0.093895, 0.064425, -0.037510, -0.073682, 0.086942, -0.017593, -0.072128, 0.071255, 0.071806, -0.090240, -0.041509, -0.033194, -0.064784, 0.158275, 0.070609, -0.117516, 0.074080, 0.023749, 0.025744, -0.054674, 0.006833, -0.053634, 0.068817, -0.006229, -0.005712, -0.071646, -0.001297, -0.148416, -0.037942, -0.022170, -0.030690, 0.162310, 0.082084, -0.079808, -0.140477, -0.077838, -0.161507, -0.024512, 0.177984, 0.028298, -0.036546, 0.200376, -0.138094, 0.032946, -0.011048, 0.029655, 0.108427, 0.059098, -0.020407, 0.040529, -0.035060, -0.028916, 0.031074, 0.015185, -0.020286, 0.002046, -0.114140, 0.035756, 0.147142, -0.242122, -0.188623, -0.144729, 0.005768, -0.058224, 0.152660, 0.022482, -0.187654, -0.005967, 0.076419, 0.134024, -0.005963, 0.174538, -0.076274, 0.179365, 0.096090, 0.055729, -0.076278, -0.050974, 0.063192, -0.010359, -0.019542, -0.062382, -0.029502, 0.072506, -0.076640, -0.174682, 0.104272, 0.060995, 0.078186, -0.046854, -0.150872, -0.085342, 0.124279, -0.089772, -0.235599, -0.086376, -0.060346, 0.140619, 0.053501, -0.106782, -0.182458, -0.032818, 0.035052, 0.122550, -0.035180, 0.088071, 0.058977, 0.033032, 0.188908, -0.112382, -0.017216, 0.052466, -0.076414, -0.093136, 0.090438, -0.046231, 0.076017, -0.135428, 0.021569, 0.110707, 0.125303, 0.023162, 0.105486, 0.260504, -0.020031, -0.008437, -0.027078, 0.182298, 0.071375, -0.006294, -0.153439, -0.234516, -0.008293, -0.132151, 0.105395, 0.111396, 0.037431, -0.028968, 0.031861, -0.032188, 0.043495, -0.147421, 0.223768, -0.016952, -0.222626, -0.033313, 0.132681, -0.062199, -0.098685, 0.127153, 0.219916, -0.212105, -0.043229, -0.047617, -0.021353, 0.053540, -0.226539, 0.003094, 0.148652, 0.139178, 0.016225, 0.000417, 0.043359, -0.031043, 0.104858, 0.033538, 0.065995, 0.054958, 0.035896, -0.148990, -0.015933, 0.030873, -0.200341, -0.246095, 0.044389, 0.292273, 0.080621, -0.133295, 0.119211, -0.018102, -0.098868, -0.086755, -0.145628, 0.101676, -0.163438, 0.157654, -0.008709, -0.146837, -0.080283, -0.102816, 0.172245, -0.001088, 0.116447, 0.178468, -0.198663, -0.067729, 0.014840, 0.047758, 0.009829, 0.151770, -0.015302, 0.047543, -0.015595, -0.147556, 0.084047, 0.168799, 0.102503, -0.032034, 0.064715, -0.156601, -0.002620, 0.122794, 0.176203, -0.002215, -0.039603, 0.048817, -0.042516, -0.211558, -0.199732, -0.030972, 0.124845, 0.131441, -0.167434, 0.049407, 0.161088, -0.038746, -0.223143, -0.069372, -0.101505, -0.034976, -0.121298, 0.132570, 0.021119, 0.169396, 0.180315, -0.011794, 0.123951, -0.121980, 0.138502, -0.012051, -0.107262, -0.083822, -0.111601, -0.137338, -0.003614, 0.165388, -0.129212, -0.041452, 0.011562, 0.233019, -0.218389, -0.095920, 0.006617, 0.241018, -0.107148, 0.061543, -0.116372, -0.019908, -0.070653, 0.048426, 0.010898, -0.074787, 0.041034, 0.082946, 0.151558, 0.130325, 0.149191, 0.263775, 0.111853, -0.143874, 0.035847, 0.040754, -0.019569, -0.052005, 0.027021, 0.157236, -0.117789, 0.117789, 0.156907, -0.004068, -0.015676, 0.227107, 0.055208, 0.013242, -0.032028, 0.027327, -0.096282, -0.189720, 0.116817, 0.003210, 0.047598, -0.010396, 0.030500, -0.138519, 0.027817, 0.014449, 0.076620, 0.072738, 0.058901, -0.161017, 0.278420, 0.244537, 0.143784, 0.063377, 0.026449, 0.124623, -0.030991, 0.053062, 0.067567, 0.034811, -0.230532, -0.045841, -0.128820, -0.006136, -0.004411, -0.201980, -0.068668, -0.133759, -0.187017, 0.137165, 0.004526, 0.024352, -0.187195, 0.106360, -0.004292, -0.062025, 0.035278, -0.160549, 0.014275, -0.074597, 0.002077, 0.183196, 0.000156, -0.103248, 0.089793, -0.011301, 0.001949, -0.050792, 0.003094, -0.044701, 0.066140, -0.009094, -0.017879, -0.062440, 0.056598, 0.187654, -0.006400, 0.030886, -0.191867, -0.121258, 0.126714, 0.009157, -0.043228, -0.062736, -0.072028, 0.012845, -0.001592, 0.127187, -0.003385, 0.040817, -0.012081, 0.025060, 0.003986, -0.174707, -0.018728, 0.103813, -0.060226, -0.222601, -0.096876, -0.051663, 0.031060, -0.066537, -0.150381, -0.100281, -0.101455, -0.042505, 0.055883, -0.078998, -0.099354, 0.130469, -0.073499, 0.112598, -0.091892, 0.092264, 0.047929, 0.065902, -0.095089, -0.011943, -0.055812, -0.003900, -0.072455, -0.005522, -0.033083, 0.057087, 0.027838, -0.122373, 0.002904, -0.032444, 0.019748, -0.115997, 0.008484, 0.067554, -0.053949, -0.017795, -0.056387, 0.250555, -0.109561, -0.146523, 0.045246, 0.161894, -0.030921, 0.027326, -0.087990, -0.040015, -0.080595, -0.010044, 0.008425, -0.006972, -0.046754, 0.077511, -0.038053, 0.007058, -0.017903, 0.009077, -0.025837, -0.046832, -0.013370, 0.120346, 0.045063, -0.086352, -0.090783, -0.078057, -0.047368, -0.085937, -0.044352, 0.054220, 0.084089, 0.271018, -0.120689, 0.021655, -0.040837, 0.189857, -0.095293, -0.189707, -0.103341, 0.031625, -0.164166, 0.253983, -0.042222, -0.050790, -0.116791, 0.050420, -0.054707, 0.029239, -0.014441, 0.037626, -0.105904, -0.028030, 0.174381, 0.250195, -0.034416, -0.131644, -0.005084, -0.011853, -0.095392, -0.096098, -0.013949, -0.002787, -0.068715, 0.156472, 0.056187, -0.013931, 0.061115, 0.243737, 0.010114, -0.028771, -0.105204, -0.016735, -0.153242, 0.016330, 0.162717, 0.041708, 0.218125, 0.169617, -0.087553, -0.046919, 0.013577, 0.021850, 0.057287, 0.106557, 0.137470, 0.076315, 0.278058, 0.092617, 0.008840, -0.031042, -0.112603, 0.203350, -0.060603, -0.017996, 0.057362, -0.099206, 0.203489, -0.114062, 0.167345, -0.105197, -0.131195, 0.163086, -0.017777, 0.047540, -0.069025, 0.001419, 0.021294, 0.003583, 0.250752, 0.165308, -0.074743, 0.024229, -0.336981, -0.014574, -0.163529, 0.146486, 0.025177, -0.161810, -0.257518, 0.110977, 0.052570, -0.013478, 0.091726, 0.016260, 0.078361, -0.007830, -0.141250, -0.009673, -0.063817, 0.118735, -0.084568, -0.126786, 0.170824, 0.253093, 0.005948, -0.028134, 0.043634, -0.031325, -0.212635, -0.160833, 0.083353, 0.266158, 0.004381, -0.014252, -0.116354, -0.053833, -0.091207, -0.137964, -0.025448, -0.047509, -0.094830, -0.125369, -0.295640, 0.035085, -0.111015, -0.093465, 0.116067, -0.116753, -0.052820, -0.016373, 0.101190, -0.063448, -0.059533, -0.039853, -0.047014, 0.134086, -0.039070, 0.294399, 0.032169, -0.018949, -0.054402, 0.061241, 0.037775, 0.163852, 0.051170, -0.005404, -0.048008, -0.092215, -0.208980, -0.022664, -0.177225, -0.034506, -0.032267, 0.095819, 0.013090, -0.031728, 0.231131, 0.045867, 0.132703, -0.106107, -0.023720, 0.027768, 0.024625, 0.080750, -0.021941, -0.157180, 0.079158, -0.077251, -0.057504, 0.082154, 0.220331, 0.045084, -0.109134, -0.117903, -0.061400, 0.071790, 0.006961, -0.002673, 0.234438, -0.085727, -0.171442, -0.036485, 0.124844, 0.091836, -0.243367, -0.047717, 0.183923, -0.113634, -0.072901, -0.260745, -0.098971, -0.029542, -0.046368, -0.140057, -0.005744, 0.000366, 0.013882, -0.028210, 0.118671, -0.025911, 0.171986, 0.040007, -0.015964, -0.089088, -0.021041, 0.184823, 0.019118, -0.111667, 0.005668, -0.089456, 0.025211, 0.093838, 0.083836, -0.082168, 0.074470, -0.028032, -0.136199, -0.062943, -0.048164, 0.065094, 0.015924, 0.225652, -0.085678, -0.024596, -0.075058, -0.108209, -0.096168, -0.008310, -0.001545, 0.008747, 0.083436, 0.036563, -0.026876, -0.083662, 0.162997, 0.084191, 0.114281, 0.034454, 0.019157, 0.115775, 0.057760, -0.033387, -0.117745, 0.065622, -0.092526, -0.025734, 0.220854, -0.012219, -0.103103, 0.112286, 0.005467, -0.157905, -0.013139, -0.151217, 0.009704, -0.055470, -0.109767, 0.060679, 0.110199, -0.136827, -0.040836, -0.150726, -0.166494, 0.199912, -0.104466, 0.075411, -0.091987, -0.075138, 0.059665, 0.102093, 0.211636, 0.183382, -0.051489, -0.023507, -0.224162, -0.181369, -0.143620, 0.100422, 0.002971, -0.092491, -0.100204, 0.176977, 0.146910, 0.044991, 0.250662, -0.042900, 0.096013, -0.087257, -0.154592, 0.127062, -0.047514, 0.150861, -0.156585, -0.217446, 0.026348, -0.044415, -0.144735, -0.011478, 0.150366, -0.109023, -0.376579, -0.068203, 0.067914, -0.065328, -0.061782, 0.109659, 0.079081, -0.008583, -0.215085, -0.098248, 0.081076, 0.048891, -0.149022, -0.027273, -0.109569, 0.083425, -0.167180, -0.247422, 0.154391, 0.076772, -0.145297, -0.174870, -0.011531, -0.227385, -0.298424, -0.087043, 0.131034, -0.137580, 0.096123, 0.075229, 0.090002, 0.041563, 0.217264, 0.119481, -0.026007, 0.174646, 0.123918, 0.128673, 0.010573, 0.012834, -0.078126, 0.071361, 0.037055, 0.054801, -0.053536, 0.120384, -0.051228, 0.048413, 0.046376, -0.149294, 0.050268, 0.040914, 0.101700, -0.135391, 0.023445, 0.115078, -0.194886, 0.149582, -0.072424, -0.101622, 0.047068, -0.054626, 0.120914, 0.084445, -0.088545, -0.052452, -0.158092, -0.084200, 0.059973, -0.034753, -0.205022, -0.094564, -0.025159, 0.091578, 0.115067, -0.045352, 0.118405, -0.213088, 0.011787, 0.092852, 0.056331, -0.035364, 0.050156, 0.018527, -0.048133, -0.093310, 0.017028, -0.149885, 0.087965, -0.078811, -0.050736, -0.066981, 0.008758, 0.010181, 0.037003, 0.078712, 0.093144, 0.070620, 0.018821, 0.082092, -0.011888, 0.159218, 0.018967, 0.044276, 0.022844, -0.126848, 0.022063, -0.053941, 0.065316, 0.175290, 0.098998, 0.086638, -0.069922, 0.100197, 0.007893, -0.043489, 0.042474, -0.095801, 0.000255, 0.211443, -0.109270, -0.101530, -0.113150, -0.067228, 0.116074, 0.059954, -0.030061, 0.162992, 0.075895, 0.024873, -0.195165, 0.001042, 0.072409, 0.004816, 0.104825, -0.046548, -0.161602, -0.185623, -0.150258, 0.135421, -0.134555, 0.050003, 0.143706, 0.059858, 0.051598, 0.083257, 0.007071, 0.022147, 0.073703, -0.021113, 0.080135, 0.029496, -0.078316, -0.000503, 0.083776, -0.165911, -0.051870, -0.073829, -0.093375, 0.048018, -0.153171, 0.116651, 0.159631, 0.101087, 0.003229, -0.083709, 0.019816, 0.062618, 0.097833, 0.113228, 0.049201, 0.004194, -0.003171, 0.142130, -0.023816, -0.059607, -0.018566, -0.052549, 0.039948, 0.024203, -0.048304, -0.069755, -0.004964, -0.051316, 0.004238, -0.024156, -0.230302, -0.156192, 0.173778, -0.039557, 0.036741, -0.087666, 0.006112, -0.038929, 0.034716, -0.076125, 0.110419, -0.102775, -0.077677, -0.160690, -0.057903, 0.040713, -0.031020, 0.075615, 0.028245, 0.043739, 0.091449, 0.019881, 0.006049, 0.108126, 0.004666, -0.042817, -0.031368, -0.182206, -0.059900, -0.176915, -0.261348, -0.086752, 0.067907, -0.153195, 0.019413, 0.116716, -0.045208, 0.123945, 0.179184, 0.054971, 0.110852, -0.025409, 0.105636, -0.008702, -0.074276, 0.048996, 0.075052, 0.016458, -0.019228, -0.088948, -0.041152, 0.181691, -0.087716, -0.070985, -0.020750, -0.024487, 0.153132, -0.145784, -0.123572, -0.120517, -0.024680, 0.214977, -0.150029, -0.013615, -0.147394, -0.050678, -0.021349, -0.048541, -0.002115, 0.106871, -0.000164, -0.045132, -0.070017, -0.005266, 0.092990, -0.041317, 0.058198, -0.114610, -0.082965, 0.044509, 0.246150, 0.032157, 0.062188, 0.020790, -0.009703, -0.010672, -0.136149, 0.111062, -0.141803, -0.000684, -0.191096, -0.173375, 0.055651, -0.088698, -0.294327, 0.009535, 0.154382, -0.056516, 0.059811, 0.195552, 0.097042, 0.076581, -0.015286, -0.196078, 0.147275, 0.019335, -0.162982, -0.015038, -0.106916, -0.319508, -0.001152, -0.073857, -0.041682, -0.031584, 0.222236, -0.076087, 0.046009, 0.147405, 0.102744, -0.048704, 0.048483, -0.171245, 0.113096, 0.113374, -0.155049, 0.163508, -0.035356, 0.057709, 0.070639, -0.033047, 0.177337, -0.031478, 0.049012, 0.073343, -0.055678, -0.142339, 0.031569, 0.043178, 0.052300, 0.058200, 0.000385, 0.006015, -0.074472, -0.091827, 0.003049, 0.071171, -0.154068, -0.194817, 0.024068, -0.022901, 0.015443, -0.084673, -0.105887, -0.024254, 0.058091, 0.011382, 0.089694, -0.016774, 0.033297, -0.187748, -0.027290, 0.006385, 0.047406, 0.058333, -0.028926, 0.043096, -0.009630, 0.134589, 0.044967, 0.118929, 0.080383, 0.050408, 0.062055, -0.081125, 0.011541, -0.060577, -0.089270, -0.119185, -0.044814, 0.051123, -0.066431, 0.000669, -0.089359, 0.053894, -0.167750, -0.081589, -0.098841, 0.023160, -0.074044, 0.065876, -0.039879, 0.072911, -0.015032, 0.086941, 0.097126, 0.065631, -0.012551, -0.041660, 0.018343, -0.054931, -0.035076, -0.035627, 0.047214, 0.106811, -0.019548, 0.135224, -0.073236, -0.067677, 0.031710, -0.068783, -0.123255, 0.048200, 0.054217, -0.062665, -0.030949, 0.090184, -0.043972, 0.103089, -0.012988, 0.106579, -0.047353, 0.006369, -0.103758, -0.009243, 0.010840, -0.262428, -0.028416, 0.068708, 0.070771, -0.339393, -0.105561, 0.149810, 0.253760, 0.255108, 0.117804, -0.076818, -0.065388, -0.001639, 0.030422, 0.106235, 0.011645, 0.203046, -0.042335, 0.137204, -0.035646, 0.114110, 0.200532, 0.053267, 0.000480, 0.009137, 0.135985, -0.116715, -0.052625, -0.028297, 0.156660, -0.046421, -0.071340, -0.081167, 0.331273, -0.022819, -0.141674, -0.246165, -0.029048, 0.039939, 0.043017, 0.170085, -0.043258, 0.061780, -0.099655, -0.040984, -0.022510, 0.237550, -0.066438, 0.011002, 0.139415, 0.072998, 0.032128, -0.119990, -0.025139, 0.105201, -0.176934, -0.009063, -0.128908, -0.109091, 0.128939, -0.130325, -0.065487, -0.149269, -0.030309, -0.038664, 0.112299, -0.000222, 0.047770, 0.018468, 0.083628, 0.061966, 0.106246, 0.018118, 0.121208, 0.143760, 0.047927, -0.138761, -0.098350, -0.068328, 0.015589, 0.021815, -0.067681, 0.047055, -0.023856, 0.027985, -0.034569, 0.159692, -0.057622, -0.102110, 0.065215, 0.058307, -0.136275, 0.038015, -0.138389, 0.125479, 0.084784, -0.052411, -0.078007, -0.009537, -0.014253, -0.110103, 0.040395, 0.010330, 0.004850, 0.025002, 0.052367, 0.191149, 0.028844, 0.006411, 0.152794, 0.024396, 0.015635, -0.057431, -0.106254, -0.012687, 0.041469, -0.109294, 0.023494, 0.017789, -0.036821, 0.043261, 0.091811, 0.014390, -0.046764, 0.030694, 0.151668, -0.014388, -0.177236, 0.084221, 0.146541, 0.017186, -0.016902, -0.074109, 0.056443, 0.106524, -0.020227, 0.185922, -0.001232, -0.059175, -0.163104, 0.064763, 0.202373, 0.035970, 0.057382, -0.051993, -0.004740, 0.096400, -0.246697, -0.035234, 0.030387, 0.028059, -0.038979, 0.127385, 0.065067, -0.038427, 0.028504, -0.139931, 0.037497, -0.018795, -0.009331, -0.027057, 0.126730, -0.134720, 0.118059, -0.074441, -0.005693, -0.072206, -0.090758, -0.013364, -0.008974, -0.105962, 0.053699, -0.065086, 0.175793, 0.140638, 0.151679, -0.171728, 0.124571, -0.205112, -0.078577, 0.021670, -0.072683, -0.180911, 0.112606, -0.033386, -0.006469, -0.142440, -0.066274, -0.012696, 0.195232, 0.131819, -0.091702, 0.144230, 0.094510, 0.191903, -0.038403, -0.094604, -0.050997, 0.053900, 0.038784, 0.089571, -0.125195, -0.071708, -0.007885, -0.057834, -0.020562, -0.160651, 0.033687, 0.033873, 0.026823, -0.134049, -0.145276, -0.103070, -0.032488, 0.058147, 0.118355, -0.016091, -0.017084, 0.034321, -0.023484, -0.070519, 0.025429, 0.006219, 0.047076, -0.070666, 0.123637, -0.089658, 0.029794, -0.070153, 0.009626, -0.070994, -0.013737, 0.089389, -0.178365, 0.020910, -0.030098, 0.083065, -0.024591, 0.007565, -0.027689, -0.064746, 0.020175, 0.053190, -0.021365, -0.050993, -0.005757, -0.010179, -0.060193, -0.023561, -0.086832, 0.264150, 0.201258, 0.003133, -0.138271, 0.020477, 0.021957, 0.070035, 0.069885, -0.011917, -0.024198, 0.028758, 0.012731, 0.163906, -0.011095, -0.017010, 0.062302, 0.045204, 0.047786, 0.017321, 0.086035, 0.083171, 0.048238, -0.023583, -0.002512, 0.092549, -0.063838, 0.092103, 0.077740, 0.024356, -0.016046, 0.029948, 0.103533, 0.065348, 0.006240, 0.043884, 0.062141, 0.025132, -0.152472, -0.153305, 0.087853, 0.035152, -0.072415, 0.007121, -0.207392, -0.014520, -0.080205, -0.183886, 0.059802, 0.031101, 0.092441, 0.175387, 0.064736, 0.053706, -0.150123, -0.119735, -0.017319, -0.114254, 0.132257, 0.035909, 0.035117, -0.032456, 0.054960, -0.139755, 0.128562, -0.002539, -0.131019, 0.014499, 0.242131, -0.133818, -0.201470, 0.122913, 0.147151, 0.068243, 0.146962, -0.122295, -0.107766, -0.067218, -0.062462, 0.049462, 0.061728, -0.183906, -0.059385, -0.081777, -0.019037, -0.119722, 0.026404, 0.030182, -0.032519, 0.050013, -0.075748, -0.008774, -0.145638, 0.119224, 0.128944, 0.004215, 0.113587, -0.030991, 0.007709, -0.066855, 0.061529, -0.063201, 0.067430, -0.039537, 0.156484, -0.061486, 0.172207, -0.011078, 0.072855, -0.021040, -0.079591, -0.113280, -0.027948, -0.039377, 0.013168, 0.049942, -0.028662, -0.042416, 0.090258, 0.007422, 0.009191, -0.131730, -0.017261, 0.051466, 0.007633, 0.096036, -0.171245, -0.081608, -0.009254, 0.084645, -0.053718, 0.114787, -0.053100, -0.044055, 0.063482, -0.176961, 0.000067, -0.115129, 0.065622, 0.124798, 0.001673, 0.078787, -0.099834, 0.041384, 0.148266, 0.012634, -0.102084, -0.060597, 0.069190, 0.058345, 0.124372, 0.017833, -0.033079, -0.154314, 0.001058, 0.043541, -0.106541, 0.098038, -0.043757, -0.017087, 0.090552, 0.010222, -0.024458, 0.055895, 0.142617, 0.009864, -0.180850, -0.061870, -0.100287, -0.092220, 0.002028, -0.206636, 0.169069, 0.126572, 0.086083, -0.077333, 0.148508, 0.282877, -0.071030, 0.135377, 0.048138, -0.035916, 0.053982, -0.058227, 0.021952, 0.001393, 0.002720, -0.010436, -0.017842, -0.064826, 0.121402, 0.067712, -0.028287, -0.001452, 0.133520, -0.033289, 0.118459, -0.085490, 0.184213, 0.051086, -0.025735, -0.032633, 0.039590, -0.157022, -0.058485, -0.026445, 0.071299, -0.039055, 0.048855, 0.034801, 0.101482, -0.019997, -0.020062, -0.024071, 0.046329, -0.048245, -0.033379, -0.039924, -0.084917, 0.001545, -0.207663, 0.084766, -0.112139, 0.142066, -0.143899, -0.012479, -0.000901, -0.078765, -0.016562, -0.065543, 0.057317, 0.018506, -0.058237, -0.036804, -0.029047, 0.090624, -0.159230, 0.066694, 0.091245, -0.033200, 0.052566, 0.122606, 0.049768, -0.149240, -0.015114, -0.082363, -0.230705, -0.175892, 0.045137, 0.047100, -0.122284, -0.166756, 0.135762, -0.114925, -0.007176, 0.024107, 0.003887, 0.053074, 0.053226, 0.083445, 0.031711, -0.045520, 0.066729, -0.069824, -0.086104, 0.071924, 0.051934, 0.070618, 0.189824, -0.104947, 0.178336, -0.006783, -0.040742, -0.088619, 0.043214, 0.075844, 0.050198, -0.040110, -0.061397, 0.015405, 0.114608, -0.083133, -0.053449, 0.024617, -0.037124, -0.092895, 0.089803, 0.081879, -0.073933, -0.038066, -0.048107, 0.088989, 0.063593, 0.095847, 0.007992, 0.039117, 0.022171, -0.048075, -0.028776, 0.105654, -0.026621, 0.016827, -0.027123, -0.073446, 0.021342, -0.037001, -0.212552, -0.020780, -0.139229, 0.069137, -0.043575, 0.121785, 0.116705, 0.000300, 0.067654, 0.001169, 0.035819, 0.044371, -0.081934, -0.053916, 0.096408, 0.102269, -0.079181, -0.004224, 0.036841, -0.138842, 0.096791, -0.203482, -0.038555, -0.116676, -0.058330, -0.004999, 0.028895, -0.128291, -0.067264, -0.011405, -0.168435, 0.085124, 0.094800, -0.093983, -0.023916, -0.097475, 0.048995, -0.077922, -0.102310, 0.079173, 0.065558, -0.055417, -0.167828, 0.084548, -0.176676, -0.001887, 0.019706, 0.037788, 0.037356, -0.038318, 0.133569, -0.220865, -0.055680, 0.026160, 0.107938, -0.031626, -0.019501, -0.029374, 0.023527, 0.161320, 0.099416, -0.141266, 0.201402, 0.184754, 0.057332, -0.012678, -0.008661, -0.233586, -0.086832, 0.062514, -0.153524, 0.016914, -0.108069, 0.103684, -0.064377, -0.068635, -0.044212, 0.003158, -0.009264, 0.183908, 0.011347, -0.016296, -0.080860, 0.143174, 0.019282, 0.305679, -0.008154, 0.173692, 0.085785, 0.355973, -0.138066, 0.015591, -0.116180, 0.213161, -0.209001, -0.082128, -0.006555, 0.058516, 0.010719, 0.251891, -0.073392, 0.082658, -0.072554, -0.122358, -0.032032, -0.081213, -0.070807, -0.032778, -0.027597, 0.003318, -0.064493, 0.249240, 0.128350, -0.037695, 0.167357, 0.169464, -0.033760, -0.131443, -0.018460, 0.155061, 0.182784, 0.187840, -0.061177, 0.059465, 0.133895, 0.091141, 0.119827, 0.048780, 0.122321, 0.074886, 0.024047, 0.214291, 0.307668, 0.052252, 0.118828, 0.055971, 0.027642, -0.007112, -0.065875, 0.129289, 0.059042, 0.028735, -0.107012, 0.232092, -0.109072, -0.046848, -0.145383, -0.025607, -0.019908, 0.051567, -0.019515, -0.173552, -0.060719, 0.041779, -0.039491, -0.076458, 0.051464, 0.085616, -0.105527, 0.001434, -0.057826, -0.074393, 0.001758, -0.037307, -0.020753, 0.035283, 0.140697, -0.045488, 0.118577, -0.020024, -0.008019, -0.259281, -0.022976, 0.091085, -0.008803, -0.065875, 0.103745, 0.004501, 0.043668, 0.080174, 0.049927, 0.053981, 0.055101, -0.004404, 0.118713, -0.027922, 0.030792, 0.079044, -0.163605, -0.055417, 0.030665, -0.079944, 0.046716, -0.051756, 0.010659, 0.157130, 0.187671, -0.041652, 0.028582, -0.144703, -0.092811, -0.180532, 0.093496, 0.053981, -0.010933, 0.004106, 0.064411, 0.124897, -0.065227, -0.009125, 0.130678, -0.102995, -0.043718, 0.120428, 0.044393, 0.014855, 0.021662, 0.046201, 0.125231, -0.062414, -0.024932, -0.205619, 0.029625, -0.081453, 0.090668, 0.057353, -0.079910, -0.005406, 0.068528, -0.141284, -0.008012, -0.028890, 0.025738, 0.019183, -0.070713, 0.180205, 0.022819, -0.096779, -0.094321, 0.126129, 0.103507, 0.051672, 0.026464, -0.008377, -0.096652, -0.108632, -0.364348, -0.042282, 0.022250, 0.139632, -0.092467, -0.006203, 0.062289, 0.048178, -0.084867, 0.015223, -0.031874, 0.070605, -0.072025, -0.073707, 0.081184, -0.096869, -0.076896, -0.005514, 0.036268, 0.056483, 0.057720, 0.086036, 0.021584, 0.265351, 0.048573, 0.215964, -0.022862, 0.005015, -0.068838, 0.063420, 0.072333, 0.166834, -0.063392, 0.146560, -0.016094, 0.324021, -0.058260, -0.031095, -0.096327, 0.178121, 0.005527, 0.057032, 0.024512, 0.038047, 0.061367, 0.178107, -0.022613, 0.003170, 0.048364, -0.016321, 0.011794, -0.131879, 0.017026, -0.150752, 0.056761, -0.137960, -0.028195, 0.176708, 0.397449, 0.062944, 0.184020, 0.079932, -0.042772, -0.119855, 0.043204, 0.258602, 0.081387, -0.039213, -0.053456, 0.045100, -0.030372, 0.096176, -0.010028, -0.004812, 0.024949, 0.065200, 0.035155, 0.003915, 0.334390, 0.001643, 0.091834, 0.010230, -0.014174, -0.045480, 0.143608, 0.157942, 0.150999, 0.016206, 0.089049, -0.055073, -0.079155, 0.176444, 0.000545, 0.230622, 0.033824, -0.002128, -0.110323, -0.161148, -0.007613, -0.151494, 0.137998, -0.017414, 0.250837, -0.012269, 0.176294, -0.151771, -0.099704, -0.096849, -0.057353, 0.014580, -0.097223, 0.016909, -0.081772, 0.331561, 0.099254, -0.066304, 0.071459, -0.019213, -0.024620, -0.044104, -0.067115, -0.103011, -0.023499, -0.174413, -0.036175, -0.018757, -0.003888, -0.044621, 0.306188, 0.025833, 0.229149, -0.071228, 0.050247, 0.005549, -0.263414, -0.075315, -0.089568, -0.005981, 0.098385, 0.114420, -0.099365, 0.211955, -0.113218, -0.091484, 0.057630, 0.058814, -0.067520, 0.156940, 0.004355, -0.207789, 0.176235, -0.117914, 0.035444, -0.144586, 0.016150, 0.121019, -0.083814, 0.101054, 0.074682, -0.104764, -0.021267, -0.050249, 0.219387, 0.097837, -0.000004, -0.091174, 0.007587, 0.112783, -0.097790, 0.185232, -0.061935, -0.069307, -0.077520, 0.198575, -0.170904, 0.017922, 0.008769, -0.004441, -0.040127, -0.055233, 0.231174, 0.029159, 0.077006, 0.052519, 0.034771, 0.096724, 0.196698, -0.066430, -0.014786, 0.048603, -0.033295, -0.031485, 0.069011, 0.029665, -0.027090, -0.072189, -0.224075, 0.032546, -0.099912, -0.012711, 0.020413, 0.165407, 0.003374, 0.046491, 0.037231, 0.214503, 0.033857, -0.065344, 0.203660, -0.208609, -0.232878, 0.226031, 0.086124, -0.181489, 0.119324, -0.070149, -0.050947, -0.074718, 0.021500, -0.072482, -0.082715, -0.141224, -0.052069, -0.054519, 0.206129, 0.105834, -0.071472, 0.088319, 0.051937, 0.029662, -0.112320, -0.197500, 0.090404, -0.087341, 0.213096, 0.084109, -0.179525, -0.080858, 0.000672, -0.113552, 0.005746, -0.143244, 0.061053, -0.002456, -0.218708, 0.097340, 0.001235, -0.030793, 0.049419, -0.040455, 0.267317, 0.116713, -0.083394, -0.072955, -0.088589, -0.045224, -0.243062, 0.049822, 0.040243, -0.215002, -0.150277, 0.031295, -0.028493, -0.015442, -0.043873, -0.183213, -0.057694, -0.100653, 0.085931, -0.062958, 0.258253, -0.233935, -0.203061, -0.034932, 0.025440, 0.234767, -0.013458, 0.087936, 0.032589, 0.048074, 0.050189, -0.008531, -0.046413, -0.007790, -0.136434, 0.116526, 0.066361, 0.124345, 0.162759, -0.057632, 0.069298, 0.059639, 0.026670, 0.030749, 0.003843, 0.042621, -0.136514, -0.095229, -0.061637, -0.049652, -0.128545, -0.108102, -0.187471, 0.002743, -0.086255, 0.038191, 0.098801, -0.124739, 0.182491, 0.074804, 0.200039, 0.023072, -0.026004, 0.016838, 0.009247, -0.094503, 0.024039, 0.117879, -0.066315, -0.028860, 0.157648, 0.086525, -0.163448, -0.040537, -0.121005, 0.029458, -0.083759, -0.049391, -0.083995, 0.028478, -0.162965, 0.114695, -0.099291, 0.010358, 0.183291, 0.040455, 0.281952, -0.342088, -0.087112, 0.256086, 0.062192, -0.234656, 0.145945, -0.065551, 0.004151, -0.061597, -0.021425, 0.059709, -0.039910, 0.084679, -0.080808, -0.003667, 0.094423, 0.102189, -0.072657, 0.038366, 0.019856, -0.007417, 0.037532, 0.120368, -0.150160, 0.133137, 0.142108, -0.110663, 0.013973, -0.096840, -0.071455, 0.011496, 0.072796, -0.014484, 0.025910, -0.026918, 0.004305, -0.073305, 0.104853, 0.109866, 0.144415, 0.067962, 0.156832, 0.241423, -0.136339, 0.147189, 0.029940, -0.015015, 0.181418, 0.056534, 0.065702, -0.048305, -0.179310, -0.033966, -0.130027, -0.029135, 0.052957, -0.332433, 0.007821, 0.045263, -0.009482, 0.180750, 0.202716, 0.280319, 0.025904, -0.140651, 0.160397, -0.030626, 0.077230, -0.211698, -0.048449, -0.039576, 0.123401, -0.012357, -0.014204, -0.129801, -0.121760, -0.044381, -0.318784, -0.060761, 0.092384, 0.137295, -0.049547, -0.114333, 0.002927, 0.187292, -0.159321, 0.121937, 0.113580, -0.134453, 0.031785, 0.061077, -0.020796, -0.104319, 0.074580, -0.105931, 0.087729, 0.022392, 0.048478, 0.012504, 0.093922, -0.012652, -0.019129, 0.151391, 0.119564, -0.141149, -0.158036, 0.187536, -0.030032, 0.098163, -0.072678, -0.023177, 0.176225, -0.093857, -0.028728, -0.023751, 0.143633, -0.018453, 0.007649, -0.087009, 0.106706, -0.140643, 0.163225, 0.252993, 0.090721, -0.050570, 0.258090, 0.137212, 0.055092, 0.112359, -0.044342, 0.170010, -0.082826, 0.031707, 0.138664, 0.008349, -0.117604, 0.028618, 0.039434, 0.118902, -0.163602, 0.149104, 0.068702, -0.053611, -0.027457, -0.131750, 0.178224, -0.144445, -0.014942, 0.039571, 0.068173, 0.237065, -0.002031, 0.016878, -0.069490, -0.060108, 0.106082, 0.019867, 0.043661, 0.111178, 0.034132, 0.055075, -0.036341, 0.119025, 0.050752, -0.055763, -0.056052, 0.063463, -0.099395, -0.112391, -0.125461, 0.126533, -0.028379, 0.154916, 0.004922, -0.012579, 0.121865, 0.082335, -0.159676, -0.055586, -0.071523, -0.066956, 0.186523, -0.017717, 0.009320, 0.032989, 0.122419, 0.052197, -0.035193, 0.068440, 0.002842, 0.031314, 0.220942, 0.021300, 0.012241, -0.232345, -0.070119, -0.067682, -0.214781, -0.258533, 0.070230, -0.277140, 0.078623, 0.069206, 0.088668, 0.087343, -0.132742, -0.036293, 0.243277, 0.210832, -0.064116, -0.028926, 0.026623, 0.038311, -0.014998, 0.178615, 0.028995, -0.099300, 0.011469, -0.020258, 0.115553, 0.016721, -0.065322, 0.029490, 0.133674, 0.209257, -0.145326, 0.038412, -0.062804, 0.003404, 0.031559, -0.041198, 0.045831, -0.087964, -0.111504, 0.330351, -0.133825, 0.192444, 0.117219, -0.107104, 0.248985, -0.158800, -0.015571, 0.087491, -0.033887, -0.092085, -0.053930, -0.126148, 0.188412, -0.234014, 0.179103, 0.181266, -0.036752, 0.031884, 0.069632, 0.071263, 0.116106, 0.130338, 0.033982, -0.059508, -0.103023, 0.047194, 0.030427, 0.085943, 0.069451, 0.140862, 0.062383, -0.029081, -0.156666, 0.168719, 0.115349, -0.075060, 0.040804, 0.218661, 0.176506, 0.272162, 0.040316, -0.075573, 0.000352, 0.306012, 0.123382, -0.101440, 0.226616, -0.235637, 0.034299, -0.007811, 0.133434, 0.260150, 0.075646, 0.008831, 0.022887, 0.034577, 0.227875, 0.047575, 0.164612, -0.062345, -0.070452, 0.246038, 0.031560, 0.073845, -0.000381, -0.080224, 0.057875, 0.105531, 0.242093, 0.125993, 0.199693, -0.010671, -0.185641, -0.063777, -0.143237, 0.008866, -0.027712, 0.062701, -0.054225, -0.073286, -0.009076, 0.242403, 0.239405, 0.120466, 0.381903, -0.038292, -0.003075, 0.207759, 0.193245, -0.022443, -0.027326, 0.217125, -0.085567, -0.066221, 0.044111, 0.045265, -0.184407, 0.020582, -0.068225, 0.018217, 0.035100, -0.016431, -0.024304, 0.142033, -0.099023, 0.355586, -0.033904, 0.041058, 0.101544, 0.098393, -0.034072, -0.088270, -0.154555, -0.032744, -0.110955, 0.002205, 0.030861, 0.114282, 0.099809, 0.118862, 0.133020, 0.077141, -0.081793, 0.002700, 0.148883, 0.028619, 0.013646, 0.021931, -0.052021, 0.077247, -0.063410, -0.109669, -0.053987, -0.078215, -0.137835, -0.001760, 0.072757, -0.055003, 0.195657, 0.053228, 0.079949, -0.086774, 0.079220, 0.189960, -0.012699, 0.000914, 0.149818, -0.098085, 0.068641, 0.085615, 0.163003, -0.087528, -0.115714, -0.013194, 0.108823, 0.006078, 0.008728, -0.117129, -0.040651, -0.031342, 0.005265, 0.074728, -0.080147, -0.170424, 0.115711, 0.026512, 0.067910, -0.165716, -0.059881, -0.086041, 0.067394, 0.147242, 0.037140, 0.018276, -0.197139, -0.096104, 0.005157, 0.030045, 0.091135, 0.125872, -0.010411, 0.071227, 0.049139, 0.152900, 0.296202, 0.070231, -0.088335, 0.003222, 0.030387, -0.126819, -0.206440, 0.081633, 0.128297, -0.018192, -0.115046, -0.089073, 0.237133, 0.019326, -0.124041, 0.053241, -0.028803, 0.102273, -0.110151, -0.044400, 0.000520, -0.031085, -0.059776, 0.070738, -0.057248, 0.125594, -0.022749, 0.188027, 0.028322, 0.066160, 0.027653, -0.228344, -0.008068, 0.038514, -0.171587, -0.036784, -0.127427, -0.076254, 0.023975, -0.258913, -0.167091, -0.041167, -0.052970, 0.127735, 0.000872, 0.114419, -0.017554, 0.132583, -0.101196, 0.085915, 0.010131, 0.132614, 0.120377, -0.017065, 0.150171, -0.049136, -0.029248, 0.105706, 0.068950, 0.019774, 0.104665, 0.135976, -0.120277, 0.075803, 0.106094, -0.089409, 0.048290, -0.009455, 0.033784, 0.100674, 0.012183, 0.076642, 0.145627, -0.021097, -0.037609, 0.041820, 0.168565, -0.004242, 0.057776, -0.128686, -0.039130, 0.060234, -0.102396, 0.026893, 0.214450, -0.011201, 0.000509, 0.145273, 0.086661, 0.173227, 0.238588, 0.047085, 0.252703, 0.150897, 0.151538, 0.055723, -0.002429, 0.122928, 0.130513, 0.178706, 0.100026, 0.184042, 0.063091, 0.042186, -0.010499, 0.100962, -0.090463, -0.102272, 0.084900, -0.026136, 0.003766, 0.269411, 0.039177, -0.139025, 0.049807, 0.265849, 0.020014, -0.091035, 0.066942, 0.308634, 0.146054, 0.181975, -0.011216, 0.226789, 0.103164, 0.133701, -0.046974, -0.118881, 0.002164, -0.177612, -0.017236, 0.098722, 0.142538, -0.077540, 0.333066, -0.126109, 0.156023, 0.074968, -0.092251, -0.007277, 0.130308, 0.009734, 0.017374, 0.161721, -0.000280, 0.097036, -0.063606, -0.010574, 0.090901, -0.008887, -0.080038, -0.023924, 0.230533, 0.251693, 0.218547, -0.023777, 0.526540, 0.331389, -0.019038, 0.186592, 0.012552, -0.089212, 0.090890, 0.131767, 0.001441, 0.097068, -0.016852, -0.009640, -0.237907, 0.003366, 0.116482, -0.085471, 0.082420, 0.000833, -0.006801, 0.062354, 0.188432, -0.094436, 0.042495, 0.050349, 0.150014, 0.049527, -0.039938, 0.015196, 0.058590, 0.115773, -0.018560, -0.008023, 0.019906, -0.054403, 0.113773, -0.114571, 0.008354, -0.082284, 0.070545, 0.025415, 0.054192, 0.072351, -0.000088, 0.014009, -0.019508, 0.194846, -0.110500, -0.112463, 0.182632, 0.093835, 0.114539, -0.046847, -0.024702, -0.030395, -0.046368, 0.002052, -0.111303, -0.096575, 0.005364, -0.014921, 0.160265, 0.264898, 0.050885, 0.214671, 0.151300, -0.170095, -0.227086, 0.138680, 0.072179, -0.090507, 0.151855, 0.088379, 0.085619, 0.070811, -0.025072, -0.114038, -0.165743, 0.154582, 0.025316, -0.061806, 0.017033, -0.011733, -0.116410, 0.126880, 0.027016, 0.046164, -0.063797, -0.088688, 0.074554, 0.041557, 0.132188, -0.092816, -0.049675, -0.100947, -0.101283, -0.116819, -0.016006, 0.082882, -0.100353, -0.086990, 0.025879, 0.128829, 0.194427, -0.034859, 0.077480, -0.058498, 0.123350, 0.138898, -0.076301, -0.002452, -0.005214, -0.089139, -0.169701, -0.041081, 0.055649, -0.005908, -0.037287, -0.048305, 0.074609, 0.010670, 0.111602, 0.003326, -0.028802, 0.034972, 0.152930, -0.028166, -0.048484, -0.131992, 0.039864, 0.039104, -0.180598, 0.106162, -0.058065, 0.093801, 0.102642, 0.011156, 0.093074, 0.062966, -0.085039, 0.119027, -0.043060, -0.042463, -0.031325, -0.264778, 0.179910, 0.103461, -0.055945, 0.270391, 0.051892, -0.029062, 0.046408, 0.099342, 0.055842, -0.083843, -0.027819, 0.097461, 0.278148, 0.265630, 0.015399, 0.124251, 0.050753, 0.028140, 0.079673, -0.084046, 0.016430, -0.201651, 0.165986, 0.035024, 0.035484, -0.003735, 0.296694, -0.005931, -0.099347, 0.216491, -0.110411, -0.033277, 0.207702, 0.271346, 0.045761, -0.059649, 0.181355, 0.060872, -0.103725, 0.100982, -0.039608, -0.043661, -0.130572, -0.014799, 0.119060, 0.164172, 0.234232, 0.256940, 0.431825, 0.086747, -0.102791, 0.225710, 0.153335, 0.189717, 0.036662, 0.043332, -0.065019, 0.243554, -0.136491, -0.143778, -0.057686, 0.026008, -0.019223, 0.034285, 0.114112, 0.202858, 0.074263, 0.027632, -0.077999, -0.037035, -0.066831, -0.121763, -0.226802, 0.024371, -0.047627, -0.096183, 0.137440, -0.045678, 0.053480, 0.017084, -0.041982, -0.158719, -0.129569, 0.159857, -0.177774, 0.097655, -0.033618, -0.034211, 0.049961, 0.001124, -0.114161, 0.236633, 0.039218, -0.018281, 0.173831, -0.010859, -0.099813, -0.151591, 0.065840, -0.172569, -0.053647, -0.060581, -0.109404, 0.005563, 0.051074, -0.010890, -0.019746, -0.056125, -0.143922, -0.018407, -0.018632, -0.097174, -0.041518, -0.341063, 0.018857, -0.224008, -0.005177, -0.006786, -0.106955, 0.020935, 0.060745, -0.095664, -0.072119, -0.000938, 0.098140, -0.036817, -0.210804, -0.137196, 0.142099, 0.146703, 0.054253, -0.033674, -0.088416, -0.012167, 0.030677, -0.081174, -0.003656, -0.070103, 0.009468, 0.046254, -0.177597, -0.184560, 0.041578, 0.006832, 0.090496, 0.021803, 0.061037, 0.021045, -0.059738, 0.172824, 0.094210, -0.006549, 0.032124, 0.031971, -0.211075, 0.095837, 0.019061, -0.105917, -0.002368, -0.022104, -0.012622, -0.139172, -0.006564, 0.134818, 0.090664, 0.003192, -0.058687, -0.013391, 0.096171, -0.102524, 0.080054, 0.103087, -0.026873, -0.120909, -0.186406, -0.087712, -0.075730, 0.340741, 0.105509, -0.035312, -0.024817, 0.133150, -0.112598, 0.045893, 0.044615, 0.170885, 0.110500, -0.051040, -0.049733, -0.083831, 0.051304, -0.130676, -0.095707, 0.106148, -0.015669, -0.202915, 0.118484, 0.021272, 0.133318, 0.131775, 0.051294, -0.103041, 0.020093, -0.034237, -0.009015, 0.035376, 0.136065, 0.215276, 0.065199, -0.014432, -0.054133, -0.004496, 0.173413, -0.009158, -0.082400, -0.019320, 0.087015, -0.264193, -0.125264, -0.086202, 0.025747, -0.051810, -0.141268, -0.001947, 0.147647, 0.155221, 0.014847, -0.138177, 0.034182, 0.006027, -0.016010, -0.022262, 0.034702, 0.049649, 0.032260, 0.020150, 0.061881, 0.171146, -0.136639, -0.011226, 0.005022, 0.042198, 0.015395, -0.128940, -0.049638, -0.179585, -0.131044, 0.008816, -0.085934, 0.085442, 0.053675, -0.192130, 0.042230, -0.116574, -0.113547, -0.243274, 0.089922, 0.142033, -0.021096, -0.131143, -0.054112, 0.010733, -0.128992, -0.016847, -0.121105, 0.007606, 0.076878, -0.177572, 0.008116, 0.077830, 0.145217, -0.036298, -0.041714, -0.050348, -0.080338, 0.135729, -0.194445, 0.070414, -0.079533, 0.008953, -0.033743, 0.111874, 0.010031, 0.110338, 0.029207, 0.180067, 0.143972, -0.022609, -0.135071, -0.199242, 0.079804, 0.015650, 0.043912, -0.042183, 0.079977, -0.062024, -0.073612, -0.028866, 0.118783, 0.147012, -0.041533, 0.072097, -0.192172, -0.161706, -0.042807, 0.138358, 0.070754, -0.235325, -0.159157, 0.037349, -0.093388, -0.112735, -0.049482, -0.022351, 0.123938, -0.053006, 0.086167, 0.044052, 0.179617, -0.018325, 0.027734, 0.011656, -0.029051, 0.039344, -0.005008, -0.168939, 0.182551, -0.186280, 0.024635, -0.081862, -0.276078, 0.017394, 0.108289, 0.029668, 0.055043, 0.031405, -0.140455, 0.013244, 0.001597, 0.004059, -0.125266, 0.099712, -0.083061, 0.167104, -0.127539, -0.157311, 0.074485, -0.002460, 0.019556, -0.089898, 0.088071, 0.005862, -0.101219, 0.003052, 0.070786, 0.003661, -0.044500, -0.008344, 0.104761, 0.007833, -0.023884, -0.004196, 0.036597, -0.213141, -0.077751, -0.157427, 0.032058, -0.024518, 0.073771, -0.082548, -0.047527, 0.109989, 0.074731, 0.074434, 0.311032, -0.041139, 0.075314, -0.243415, -0.003718, 0.125241, 0.033037, 0.114076, 0.139262, 0.128168, -0.055583, -0.005605, -0.198356, -0.086282, 0.012384, -0.208797, 0.189620, -0.081812, -0.048521, -0.112467, -0.027838, -0.124899, -0.111657, 0.173234, -0.212340, 0.127844, -0.055317, -0.138961, -0.178015, 0.096945, -0.015768, 0.001207, 0.094219, -0.054167, -0.077951, -0.042976, 0.049978, -0.096898, 0.030426, -0.032896, -0.122214, -0.179827, -0.162211, -0.054050, -0.032526, 0.019628, -0.016002, 0.031109, -0.082964, -0.143060, -0.026276, 0.123081, 0.045339, -0.073956, -0.011638, -0.031370, 0.130582, -0.154055, -0.193729, 0.051760, 0.069665, -0.031612, 0.150156, -0.146307, -0.026588, 0.034588, 0.066510, -0.126973, -0.002721, 0.135436, -0.013157, -0.030340, -0.031468, -0.083305, -0.087704, -0.135464, 0.019993, -0.039766, 0.216393, 0.052814, 0.111973, -0.133077, -0.137620, -0.016519, 0.019522, 0.055748, -0.019560, -0.085756, 0.010953, -0.109485, -0.091916, -0.022756, -0.041446, -0.110512, -0.083119, 0.041814, -0.040417, -0.017492, -0.042231, 0.015895, -0.058994, 0.106500, -0.010155, 0.070238, 0.085513, -0.030062, -0.085853, -0.068667, 0.049363, 0.143288, 0.065979, -0.100375, 0.010388, -0.070947, 0.055955, 0.024977, 0.057398, 0.011691, -0.067973, -0.003647, -0.075395, 0.141087, -0.087771, -0.086362, -0.082624, 0.177776, -0.000364, 0.141989, 0.164658, 0.076108, -0.028688, -0.112696, 0.061946, -0.096363, -0.082915, -0.001402, 0.100408, 0.148591, -0.042344, 0.031337, -0.089101, 0.151815, 0.145347, 0.003727, 0.232848, 0.000711, -0.068624, -0.090145, -0.066793, 0.078423, 0.031384, 0.139338, -0.176601, 0.088834, -0.007061, -0.112440, -0.018173, 0.047240, 0.134599, 0.277264, 0.016249, -0.044474, -0.024985, 0.036407, 0.040866, -0.123631, -0.008872, -0.084488, -0.173398, -0.042186, -0.048140, -0.084989, 0.009928, 0.060938, -0.044923, 0.021010, 0.056796, 0.015245, -0.005044, 0.043759, 0.018227, -0.036329, 0.066145, -0.056069, 0.018063, 0.031184, -0.078799, -0.155002, -0.057419, -0.002407, 0.098392, -0.171521, 0.066851, -0.058074, -0.070663, -0.104460, 0.162307, 0.073182, -0.008951, -0.078231, 0.206552, 0.039395, 0.137200, -0.224749, 0.042561, -0.137690, -0.098707, 0.113961, 0.057406, -0.017128, 0.091345, 0.062429, -0.162744, 0.007800, 0.101454, -0.255879, -0.106462, -0.170262, -0.015719, 0.166529, 0.068879, 0.070654, -0.020829, -0.150534, -0.152708, -0.061952, 0.012275, 0.050404, 0.012931, 0.091149, -0.056643, -0.213635, 0.033021, 0.175019, -0.124887, -0.066741, -0.082072, 0.106053, 0.087747, -0.217175, 0.047612, 0.014429, -0.050728, 0.012969, 0.184667, -0.035961, -0.108552, -0.132684, -0.108801, 0.036663, -0.229251, -0.056688, 0.127397, 0.044277, 0.030370, 0.223744, -0.112178, -0.015713, 0.075578, -0.084313, 0.055658, -0.105763, -0.031282, -0.016861, 0.046909, 0.176559, 0.159217, 0.151059, 0.171615, -0.002873, 0.021259, 0.016936, 0.047379, -0.009440, 0.037878, -0.109551, -0.155486, -0.012912, -0.044395, 0.058173, -0.036772, -0.043341, 0.031780, 0.012753, -0.012458, -0.028859, 0.062296, 0.034399, -0.033078, -0.162874, -0.080348, 0.086806, 0.106047, 0.081910, -0.215628, 0.025376, 0.011270, 0.027846, 0.118760, -0.066874, -0.212900, -0.033003, 0.131315, -0.107936, 0.032177, -0.016539, -0.025802, -0.134284, -0.135504, 0.000041, -0.060490, 0.002933, 0.052523, -0.025218, 0.125450, -0.051014, -0.074158, 0.103456, -0.034962, -0.043207, -0.023567, 0.068731, -0.002807, 0.023795, 0.112727, 0.054037, 0.009701, 0.088810, -0.040540, 0.034845, -0.049965, -0.121157, 0.060486, -0.036140, -0.180723, 0.034602, 0.103891, 0.087876, -0.060309, -0.004898, 0.004833, 0.016908, -0.062857, 0.027244, -0.029704, 0.063456, 0.161632, 0.210073, -0.053508, 0.055037, -0.078067, 0.062709, 0.049922, -0.037246, 0.041849, -0.091888, 0.000556, 0.033685, 0.050587, 0.124423, -0.130172, -0.105818, 0.087885, 0.123935, 0.045047, -0.103559, -0.160045, -0.052213, -0.058854, -0.013210, 0.162268, -0.099308, -0.077185, -0.002642, 0.009921, -0.039542, 0.019592, -0.006501, 0.115593, 0.020424, -0.068054, 0.026633, -0.028674, 0.047465, -0.086068, -0.054709, 0.043239, -0.246775, 0.275006, 0.074623, 0.057980, -0.107038, -0.089330, 0.141078, 0.257299, 0.112970, 0.028984, 0.027070, 0.030959, -0.079144, -0.094631, -0.109175, 0.162047, -0.037342, -0.117796, -0.024972, 0.198499, 0.047957, -0.110095, -0.003389, 0.133872, -0.077449, -0.057993, 0.029680, -0.115033, 0.079253, 0.015313, 0.094649, -0.070869, -0.021177, -0.098449, 0.113568, -0.006260, -0.031420, 0.023298, 0.121320, -0.035790, -0.055110, -0.108355, -0.035714, 0.066889, -0.062386, -0.133350, -0.206810, -0.089544, -0.001285, 0.141559, -0.104099, -0.035308, -0.129395, -0.189604, -0.020107, -0.035208, -0.267585, 0.104603, 0.066654, -0.024610, 0.049387, -0.036369, 0.084582, 0.130425, -0.081340, 0.078699, -0.005702, 0.085631, 0.012206, 0.174001, -0.036160, 0.137436, -0.195281, 0.088277, -0.294963, -0.170005, -0.378096, 0.036760, -0.371056, -0.149351, -0.007474, -0.089197, 0.095053, -0.058707, -0.327565, -0.041001, -0.123129, -0.082929, -0.121831, 0.001238, 0.006510, -0.117852, -0.202802, -0.038357, 0.118537, -0.094640, 0.027267, -0.300143, 0.217192, -0.211396, 0.068451, 0.105453, 0.085742, -0.343033, -0.017759, -0.312994, -0.001120, -0.050256, -0.078516, -0.034329, -0.027375, -0.145728, 0.012723, -0.090018, 0.064279, -0.316253, -0.299051, -0.513305, 0.030981, -0.411052, 0.110471, 0.110127, -0.311917, 0.101130, 0.153313, -0.149150, -0.074394, 0.061641, -0.043495, 0.087554, -0.181728, -0.051241, 0.009713, 0.250034, 0.116847, -0.026107, -0.168826, -0.009733, -0.166161, 0.173621, -0.113966, 0.030588, -0.105339, 0.009181, 0.114172, -0.130239, -0.005477, -0.108938, 0.080440, -0.020461, -0.164310, 0.048272, 0.162039, 0.010186, 0.007885, 0.092338, -0.150934, 0.113203, -0.004123, -0.084806, -0.069180, 0.067864, -0.065693, -0.054595, -0.085614, -0.073746, 0.003898, -0.039306, -0.069779, 0.028698, 0.046662, 0.084615, 0.066732, 0.054844, -0.142112, -0.068556, 0.059462, 0.034238, -0.068479, -0.033873, -0.038702, 0.006312, -0.010609, -0.206202, 0.044841, 0.072775, -0.129293, 0.190678, -0.174220, -0.116675, -0.145816, -0.010114, 0.032436, -0.097152, -0.040716, 0.059278, 0.045720, -0.075860, -0.026851, -0.025379, 0.014131, -0.055545, -0.004019, 0.081635, -0.123090, -0.061055, -0.081691, -0.049713, 0.044547, 0.020382, -0.075524, -0.008894, -0.187155, 0.049548, -0.115563, 0.105961, -0.158701, 0.013509, 0.074984, -0.218225, 0.063138, 0.104090, 0.157778, 0.032835, 0.124898, 0.057531, 0.061148, 0.067607, -0.052257, 0.222655, -0.004861, 0.068950, -0.110105, 0.124101, 0.006134, 0.033764, 0.055880, -0.056636, -0.039097, -0.062575, -0.088893, 0.136609, -0.090043, 0.046429, 0.010439, 0.087427, 0.089846, -0.067637, -0.131258, -0.138487, -0.099327, 0.026937, -0.102218, 0.044321, -0.029192, -0.094460, 0.065727, 0.101593, -0.007088, 0.009218, -0.111214, 0.004454, -0.049836, 0.036953, -0.250941, -0.038744, -0.155059, 0.075786, -0.052527, 0.013665, -0.168022, -0.101654, 0.046825, -0.096005, 0.025363, -0.079543, -0.241509, -0.038125, -0.278755, -0.210552, 0.094220, 0.133960, -0.148300, 0.141372, -0.075186, -0.079612, 0.047394, 0.029637, -0.059062, -0.217073, 0.009156, -0.192748, -0.239133, -0.094985, -0.057382, -0.387369, -0.129692, -0.046993, -0.155681, 0.041106, -0.088181, 0.064738, -0.089153, -0.232026, -0.044552, -0.021680, -0.026050, -0.242881, -0.113577, -0.226386, -0.056214, -0.459055, -0.161153, 0.085545, -0.193697, 0.048600, -0.101122, -0.374007, -0.076666, 0.054152, -0.083157, 0.119381, -0.034653, 0.133324, 0.125930, 0.046407, -0.001576, 0.356288, -0.105838, 0.044013, -0.025899, -0.228992, -0.184869, -0.266462, -0.151731, -0.054861, 0.090214, 0.043656, 0.079411, 0.180428, 0.014706, -0.096292, 0.117367, -0.003182, -0.038126, -0.211800, -0.025896, -0.106891, -0.067518, -0.015209, 0.085603, -0.026977, 0.043291, -0.085715, -0.096716, 0.148873, -0.243564, 0.219637, 0.147834, 0.187001, 0.091863, -0.098768, 0.068731, 0.006530, 0.013241, -0.172520, 0.096219, 0.002425, -0.186463, 0.086510, 0.048373, 0.053456, 0.057352, -0.021357, -0.051203, -0.079693, -0.164439, 0.145039, 0.076682, 0.203973, 0.079698, -0.128700, 0.146183, -0.028920, 0.097579, 0.017224, -0.050048, -0.016995, 0.057935, 0.072523, 0.204308, 0.201661, -0.058112, 0.070959, -0.096859, 0.114964, -0.178634, -0.166085, -0.140484, 0.084116, 0.072833, 0.013214, 0.097234, -0.031219, -0.079321, 0.033286, -0.059856, -0.004533, 0.011900, 0.035044, -0.011165, -0.138182, 0.020930, -0.005332, -0.002048, 0.058092, 0.009353, -0.015148, 0.054477, -0.139844, 0.046087, 0.109821, -0.014440, 0.018996, 0.062710, -0.117335, -0.071993, 0.072932, -0.067459, 0.194826, 0.017417, -0.020979, -0.081862, 0.005070, 0.259312, -0.065745, 0.137029, 0.147546, 0.116940, -0.071335, -0.147764, 0.116220, -0.008627, 0.003056, 0.057402, -0.032432, -0.076329, -0.042838, 0.009394, -0.056159, 0.075187, 0.024465, -0.071219, -0.069858, 0.221558, -0.019743, -0.007233, -0.011561, 0.050341, -0.044392, -0.006323, -0.077905, 0.058855, -0.150678, 0.021931, -0.033926, -0.019076, -0.083812, 0.136571, -0.036974, 0.102028, -0.113432, 0.070020, 0.062323, 0.026703, 0.096091, 0.053706, 0.022393, -0.134330, -0.035034, 0.035470, 0.001640, 0.009477, -0.007206, -0.083391, 0.021811, -0.035391, -0.006772, -0.040281, 0.095123, -0.005818, -0.093982, 0.107993, 0.071483, -0.062365, 0.050685, 0.032536, 0.105893, -0.117168, 0.069154, -0.015423, 0.057361, -0.048099, 0.037719, -0.042318, 0.059811, -0.103796, 0.008916, -0.001110, -0.113111, -0.085419, -0.135264, 0.097054, -0.069457, -0.117051, 0.145279, 0.116473, -0.112062, 0.066375, 0.344051, -0.094626, -0.109949, -0.042610, -0.078007, -0.250663, -0.173879, -0.011468, 0.036037, -0.031160, -0.027724, 0.133317, 0.081768, -0.024131, -0.178031, -0.132505, 0.026555, -0.085375, -0.027292, 0.013791, -0.207332, 0.037095, 0.014251, 0.135100, 0.005238, 0.078814, -0.152787, -0.137016, 0.174272, 0.003045, 0.066295, -0.092613, 0.099648, 0.031771, -0.123601, 0.016886, 0.121437, -0.173485, -0.126437, -0.039620, -0.079439, -0.286023, -0.025137, -0.017105, 0.002770, 0.225893, 0.102187, -0.060548, -0.117471, -0.199222, 0.132469, -0.014538, 0.094189, 0.148220, -0.000369, -0.037004, -0.037108, -0.133329, 0.082663, -0.094822, -0.186497, -0.099899, 0.040094, -0.081841, -0.064655, -0.188558, -0.129524, 0.074923, 0.131040, 0.268489, -0.112848, -0.061512, -0.041118, 0.076927, -0.000310, -0.144600, -0.027751, -0.144558, -0.003397, -0.121867, -0.078444, -0.034074, -0.175834, -0.202906, -0.139413, 0.157123, 0.102502, -0.097462, 0.111410, 0.002864, -0.069097, 0.210246, 0.012637, 0.116730, -0.141476, 0.071591, -0.050115, 0.032585, 0.019005, 0.030785, 0.013945, -0.035222, 0.082124, 0.049963, 0.128046, 0.087573, -0.105593, -0.150038, -0.057488, -0.176156, -0.067081, 0.098058, -0.051739, -0.042482, 0.013203, 0.015482, 0.063393, -0.002951, -0.203126, 0.015530, -0.018728, -0.008766, 0.013095, -0.190108, 0.032880, -0.003589, -0.248989, 0.039750, 0.107328, 0.109124, -0.017423, -0.075831, 0.093103, 0.113270, 0.075975, 0.024504, 0.030757, -0.076376, 0.024858, 0.042848, 0.015332, -0.052901, 0.058750, -0.031988, 0.113808, 0.109346, -0.055805, -0.099973, 0.011107, -0.000886, -0.192720, -0.016820, 0.055094, -0.035229, -0.210684, 0.069024, -0.117907, 0.019212, -0.094008, 0.053786, 0.124086, 0.054119, 0.041918, 0.105174, 0.174951, -0.161319, -0.007901, 0.106311, -0.047942, -0.094822, 0.143006, -0.173273, 0.012319, -0.225824, 0.038969, 0.077448, 0.186383, 0.052398, 0.152654, -0.024201, -0.095562, 0.060993, -0.052710, -0.063790, -0.053837, 0.230074, 0.027293, -0.012484, -0.023923, -0.061377, 0.060776, -0.073171, 0.045593, 0.063847, 0.078715, -0.128378, -0.148153, 0.110954, 0.211044, 0.289870, 0.050399, -0.031682, -0.007323, -0.111631, 0.003840, 0.022318, -0.026345, 0.184477, -0.033432, 0.297189, 0.040993, -0.003060, 0.134699, 0.070985, -0.047850, -0.017966, -0.014649, -0.151536, 0.115904, 0.100105, 0.082456, -0.154369, 0.009919, -0.137252, 0.258247, 0.039456, -0.022733, -0.046948, -0.067076, 0.053700, -0.038250, -0.029308, -0.034964, -0.050743, -0.050745, -0.139537, 0.069098, 0.024786, -0.175945, -0.043506, 0.101634, 0.114990, 0.102363, -0.257589, -0.051074, 0.087770, -0.292201, -0.111671, 0.089441, -0.118917, 0.059591, -0.150813, 0.089260, 0.051040, 0.002321, 0.055202, -0.081600, 0.012073, 0.027286, -0.138148, -0.002201, 0.242099, -0.015669, 0.003709, -0.088181, 0.042171, 0.072777, 0.015000, 0.039917, 0.034148, 0.074867, -0.033775, 0.044974, 0.001027, -0.212285, -0.039679, -0.094917, -0.033760, -0.144562, 0.086834, 0.031481, -0.130848, -0.115969, 0.022197, 0.008165, 0.010716, -0.132816, 0.167913, -0.028205, -0.015120, -0.021168, 0.049739, 0.155907, -0.011247, 0.022233, 0.076652, 0.178777, -0.047971, -0.074284, -0.095432, 0.012507, -0.165022, -0.022563, 0.126300, 0.036399, 0.131062, 0.105070, 0.011089, -0.111001, 0.147126, -0.019546, 0.114970, 0.211114, -0.192093, -0.159091, -0.084699, -0.023280, 0.034330, -0.055685, 0.104116, 0.113852, -0.070229, -0.095613, -0.087573, 0.099605, 0.081300, 0.035648, 0.013791, -0.035532, 0.051036, -0.028573, 0.136502, 0.165505, -0.061520, -0.011126, -0.001056, -0.042784, 0.006832, -0.172484, -0.102795, -0.155729, -0.102482, 0.079466, 0.178383, 0.040155, 0.085844, 0.093965, -0.104834, 0.061159, 0.034334, -0.072149, 0.054630, 0.117299, 0.062039, 0.006376, 0.037298, 0.010134, 0.069709, 0.073972, -0.197230, 0.069356, -0.155139, -0.143972, 0.191323, 0.171989, 0.030170, 0.114178, -0.094758, 0.212373, 0.134345, -0.028293, -0.052487, -0.044711, 0.019884, -0.002112, 0.149386, -0.138130, 0.187407, -0.036039, -0.163817, 0.000224, 0.008231, -0.210656, -0.113739, 0.028210, 0.062607, -0.055165, -0.021140, 0.109900, 0.097900, -0.097826, 0.225767, -0.017096, 0.042323, -0.230985, -0.031474, -0.048590, 0.086018, -0.074681, 0.047581, -0.013841, 0.009300, 0.105112, -0.102715, -0.089060, -0.101977, 0.140906, -0.020039, -0.154316, -0.147025, 0.025151, -0.143022, 0.031890, -0.001533, -0.112195, -0.028259, 0.001282, 0.022735, 0.124594, -0.103373, -0.087826, -0.073900, 0.117531, 0.057234, -0.007523, -0.160200, -0.026848, 0.100226, -0.038193, 0.057022, 0.240393, 0.170242, -0.000947, -0.172446, -0.133227, -0.028517, -0.019404, 0.042565, -0.105063, -0.156094, -0.079245, 0.005302, -0.058957, 0.156639, 0.129814, -0.133594, -0.019918, 0.055730, 0.238299, 0.201395, -0.005410, 0.124265, 0.088168, 0.004472, -0.163369, -0.110931, -0.191591, -0.032442, -0.034427, 0.124639, -0.034032, 0.087147, -0.013380, 0.012448, -0.038396, -0.009727, -0.019768, 0.115161, 0.043571, 0.031058, -0.105225, -0.015184, -0.011871, -0.128131, 0.006959, -0.120340, 0.082828, -0.159099, -0.075622, -0.110529, -0.089032, -0.070662, 0.061930, 0.014314, -0.043488, 0.074370, 0.017309, 0.017571, -0.036120, 0.046401, -0.138629, -0.041467, 0.161429, 0.014619, 0.067605, -0.081787, -0.085953, -0.065191, -0.253713, -0.016275, -0.081150, -0.092395, -0.001016, -0.037499, 0.055404, 0.046056, -0.120635, -0.089877, -0.122396, 0.070512, -0.230379, 0.233079, 0.024490, 0.090627, -0.113024, 0.070855, -0.026891, 0.156213, 0.141881, 0.102718, -0.033185, -0.066303, -0.200613, -0.067048, 0.066735, 0.129247, -0.087052, 0.094570, -0.058789, 0.032413, 0.042480, -0.009069, -0.073248, -0.108706, -0.004878, 0.149074, -0.053731, -0.083695, -0.006334, -0.106488, 0.149619, -0.093104, -0.008025, -0.033855, 0.105316, 0.115700, 0.094600, 0.144477, 0.055510, 0.006970, 0.215298, -0.143665, 0.049099, -0.174363, 0.011378, 0.148469, -0.003320, 0.229334, 0.307753, 0.006437, 0.090754, 0.084047, 0.009075, -0.029561, -0.023600, 0.011658, 0.174060, 0.089675, 0.198781, 0.229098, 0.089558, 0.034131, 0.284341, 0.096463, -0.283120, 0.001847, 0.089311, 0.083885, -0.125909, -0.201526, -0.100637, -0.104086, -0.161014, -0.066072, 0.079589, -0.146820, -0.153075, -0.066340, -0.111698, -0.151465, 0.141545, -0.061322, 0.073244, -0.044697, 0.026463, 0.118627, -0.001960, -0.130089, 0.027856, 0.160934, -0.202577, -0.005874, -0.138877, -0.100000, 0.066665, 0.121700, 0.143892, -0.038768, -0.018963, 0.052492, -0.031893, -0.323496, 0.008392, -0.024459, -0.010828, -0.000856, -0.107374, -0.093961, 0.035837, -0.054660, -0.008520, -0.091706, -0.203516, -0.122721, 0.192837, 0.032108, -0.179313, -0.041483, -0.111015, -0.139958, 0.001044, -0.052095, -0.167525, 0.001565, -0.029888, -0.065711, 0.002384, 0.073226, -0.080782, 0.025841, 0.080586, 0.066399, 0.005887, 0.175840, -0.087841, -0.122340, -0.040669, -0.014458, -0.103684, -0.045483, 0.041119, -0.165265, 0.000917, -0.060165, 0.009324, -0.069767, -0.013659, 0.018145, -0.076033, 0.014025, -0.046774, 0.040156, 0.179477, -0.012956, -0.169069, 0.024649, 0.014498, -0.171673, 0.047534, 0.025923, -0.046831, -0.029249, 0.027523, -0.070558, 0.148551, 0.010539, 0.007281, 0.050542, -0.044241, 0.056045, -0.174470, 0.034641, 0.068357, -0.015901, -0.153507, 0.143993, -0.059303, 0.117050, -0.057880, -0.205093, -0.161230, 0.010328, 0.050585, 0.060538, -0.038338, -0.112584, 0.052111, -0.000235, 0.003066, 0.028825, 0.010911, 0.059531, 0.047349, 0.092810, 0.116433, 0.007294, 0.045043, -0.025750, 0.075668, 0.064985, -0.119933, -0.112638, -0.011967, -0.081424, -0.022082, -0.036479, 0.025079, -0.052145, -0.034111, -0.085583, 0.029821, -0.081309, 0.108613, -0.108180, -0.086225, -0.138469, 0.005701, -0.026894, -0.053712, 0.036072, 0.034968, -0.041609, -0.165331, -0.001496, 0.114626, -0.007098, -0.012506, -0.072077, 0.087240, -0.058921, 0.053469, -0.020385, 0.108685, -0.026288, 0.024488, 0.027208, 0.148254, 0.131976, 0.052040, -0.175632, 0.041111, 0.112363, -0.094920, 0.036167, 0.123060, -0.200352, 0.055852, 0.183491, 0.106489, 0.008545, -0.005629, 0.284659, 0.017615, -0.028988, 0.226791, 0.143111, -0.186701, 0.173693, 0.124475, 0.087511, -0.025847, -0.024393, 0.098722, -0.059765, -0.284124, 0.010820, -0.070617, -0.059016, 0.124927, -0.147080, -0.085934, -0.169100, 0.102657, 0.053948, -0.138591, 0.049086, 0.015917, 0.019162, 0.155005, -0.035061, 0.111114, 0.040618, -0.036879, -0.186190, -0.122101, -0.151079, 0.195955, 0.051651, 0.237981, -0.050350, 0.134310, 0.047545, 0.069392, -0.112482, -0.080095, -0.024895, -0.062528, -0.039473, -0.099803, -0.006853, 0.104367, 0.047513, -0.147263, 0.030440, -0.098320, -0.009177, -0.132879, -0.013017, -0.101404, 0.113398, 0.014589, -0.035703, -0.029041, -0.105474, 0.123240, 0.172673, 0.045361, -0.129260, 0.248762, -0.109164, -0.095553, 0.027854, -0.103083, -0.157689, -0.099152, -0.286082, -0.106781, 0.172323, -0.286205, -0.302873, -0.129244, 0.161102, -0.151997, -0.022215, -0.156899, -0.193119, 0.138157, -0.150910, -0.032566, -0.256990, -0.242550, 0.102268, -0.312488, 0.073393, 0.012535, -0.117729, 0.104051, -0.129349, -0.317644, 0.226576, -0.029306, 0.290233, 0.045231, 0.101756, -0.335271, -0.005166, -0.314922, -0.124392, -0.091088, -0.124750, 0.147220, 0.119080, 0.023582, -0.102202, -0.078563, 0.133989, 0.100553, -0.463895, -0.270746, -0.042924, -0.238686, 0.162242, -0.223559, -0.337888, -0.039913, 0.025162, -0.343543, -0.055107, 0.095342, -0.009989, 0.130572, 0.136513, 0.035544, 0.028463, -0.148081, -0.055742, 0.232318, 0.103330, 0.007010, -0.049974, -0.056512, 0.056108, 0.036106, 0.049923, -0.110557, 0.011473, 0.033669, 0.129772, -0.159212, -0.090980, -0.048476, 0.040596, -0.093009, -0.067659, -0.029836, -0.017622, -0.019842, -0.114964, -0.075057, 0.020835, -0.112145, 0.144779, -0.196579, -0.030582, 0.051172, -0.083291, -0.091669, 0.164365, -0.027145, -0.131092, 0.097801, -0.010642, 0.063930, -0.163747, -0.047109, 0.071670, 0.054349, 0.021805, 0.010812, 0.092630, -0.091157, -0.143722, 0.102793, 0.031611, -0.065587, 0.154972, 0.031704, 0.083807, -0.036967, 0.101813, -0.326080, 0.066967, 0.137112, 0.055855, -0.057421, -0.044990, -0.092516, 0.094478, 0.054908, -0.117044, -0.119143, 0.114037, -0.021486, -0.128953, 0.007663, 0.027717, -0.141561, 0.129170, -0.075397, 0.099092, -0.090022, -0.170177, 0.044057, 0.057319, 0.024071, 0.198428, 0.005505, -0.055592, 0.011462, 0.001440, 0.024245, 0.049280, 0.014267, -0.013868, 0.110302, -0.083428, -0.108458, -0.024309, -0.072206, 0.013866, -0.057448, 0.188580, 0.298346, -0.014421, 0.021573, 0.018039, 0.016738, -0.009461, 0.159535, 0.008314, 0.088997, -0.056844, 0.016504, -0.023220, -0.019569, 0.010436, -0.124547, -0.014031, 0.263174, -0.078564, -0.003098, -0.264978, -0.052373, 0.001818, -0.004169, -0.073942, -0.028372, 0.221185, 0.021880, 0.124291, 0.119612, 0.041864, -0.186307, -0.035754, -0.023782, -0.021904, -0.151064, -0.265510, -0.200702, -0.018126, 0.046154, -0.045764, 0.071431, -0.077603, -0.024620, -0.145524, -0.099432, -0.208729, 0.063921, -0.091427, -0.073721, -0.036039, -0.208115, -0.007461, -0.227850, 0.006266, -0.013091, 0.019117, -0.012796, 0.053563, -0.209040, 0.108223, -0.018883, -0.000252, 0.106697, -0.004822, -0.189206, -0.106280, -0.057107, -0.072139, -0.046482, -0.093025, 0.078514, -0.004452, 0.024376, 0.013446, 0.061243, -0.055843, -0.022589, -0.304894, -0.103331, -0.062265, -0.313464, 0.293634, 0.059486, -0.445691, -0.085632, 0.078406, -0.251661, -0.052755, -0.150305, -0.210186, -0.083330, -0.058494, -0.204732, -0.045372, 0.041651, -0.209115, -0.078013, 0.103498, 0.229731, 0.093438, 0.068287, 0.032734, -0.076998, 0.133352, 0.230966, 0.052103, -0.033196, 0.020557, 0.202133, 0.004026, 0.107969, 0.012823, -0.013141, 0.185674, 0.115247, 0.085467, 0.170859, 0.060224, -0.045497, -0.047309, -0.018244, -0.063166, 0.068489, -0.083113, 0.155053, -0.256447, 0.004691, -0.249192, 0.085963, -0.232706, 0.344538, 0.022557, -0.028144, 0.083175, 0.087737, -0.285512, 0.114967, 0.034238, -0.148882, 0.174499, -0.167780, 0.103007, 0.141198, -0.081234, 0.058691, -0.327785, 0.066433, 0.168536, -0.087796, 0.003009, 0.108671, -0.053663, 0.045142, -0.104254, -0.033389, 0.015078, 0.195012, -0.030426, 0.008025, -0.018218, -0.092395, 0.069092, 0.139513, -0.005297, 0.079278, 0.048685, -0.118834, 0.153691, -0.046925, -0.015350, -0.062205, -0.060873, -0.024421, 0.041522, 0.097842, -0.019060, -0.036657, 0.019766, -0.100569, 0.015613, -0.025606, 0.147564, 0.027251, -0.014739, -0.068638, -0.120005, -0.116285, -0.028191, 0.004669, -0.142642, 0.054786, -0.110767, 0.136335, -0.042079, -0.058589, 0.075159, 0.048629, -0.006339, -0.062444, 0.000387, 0.041966, -0.030834, -0.015439, -0.008214, -0.035947, -0.116046, -0.149984, -0.120720, -0.164629, 0.187272, 0.052911, 0.061969, 0.070002, -0.031750, 0.042151, 0.115140, -0.014336, 0.038675, 0.090201, -0.056575, -0.057457, 0.008556, 0.021876, -0.025803, 0.165911, -0.037026, -0.072714, -0.010725, -0.016319, 0.083070, 0.137550, 0.181458, 0.102052, -0.004622, -0.078058, 0.013878, -0.033433, 0.085773, -0.055002, 0.103452, 0.033047, 0.001951, 0.093813, -0.107969, 0.080198, 0.077911, -0.087498, 0.117319, 0.036445, -0.113192, -0.120064, 0.114130, 0.009136, 0.003530, -0.128700, -0.049624, -0.062195, -0.025049, 0.041670, -0.001399, -0.103260, -0.035468, -0.010118, -0.020549, -0.085801, -0.101570, 0.084562, -0.037804, -0.087439, -0.049375, -0.082202, -0.065865, -0.039493, 0.059887, 0.007958, -0.086954, 0.033531, -0.044482, 0.014709, -0.022329, -0.065508, -0.123049, 0.046353, 0.049995, -0.147615, -0.089188, 0.043499, -0.093887, -0.073480, -0.186423, 0.187046, -0.038942, 0.038948, 0.017261, 0.036509, 0.104515, -0.083376, 0.022945, 0.032290, 0.097879, 0.099113, -0.121234, -0.005789, -0.026435, 0.080917, 0.171877, 0.033840, 0.001347, -0.062328, 0.142129, -0.079340, 0.058161, -0.070018, -0.011465, -0.052694, -0.027578, 0.029389, -0.319460, 0.034277, -0.080414, 0.076681, 0.002562, 0.034679, -0.000498, 0.110154, 0.010264, 0.005739, -0.229678, 0.036538, 0.124453, -0.079082, 0.114443, -0.007561, -0.035482, -0.044076, 0.042792, 0.025364, -0.100575, 0.042186, 0.009754, -0.107476, -0.191207, -0.016971, -0.122415, 0.132870, 0.069072, -0.029281, 0.099283, 0.124908, 0.180716, -0.151964, -0.133536, -0.137622, -0.127609, 0.010836, -0.313130, 0.044721, 0.046834, 0.161075, 0.048627, -0.124782, -0.030470, -0.058277, -0.083504, -0.140848, -0.259805, -0.195888, -0.015133, -0.103994, 0.026089, -0.097810, -0.105615, 0.085321, 0.051719, 0.036338, 0.069199, 0.126981, 0.125271, -0.135026, -0.144476, 0.111671, -0.059210, -0.387108, -0.142157, 0.200621, 0.057794, 0.063825, -0.009489, 0.144305, -0.167398, 0.132972, -0.081439, 0.046021, 0.030924, 0.082268, -0.061194, -0.142897, -0.036414, -0.173258, -0.032060, 0.151986, 0.045716, -0.254435, 0.253217, -0.125438, -0.168188, 0.139885, 0.071255, 0.078294, -0.108029, -0.045512, 0.069067, -0.039757, 0.101857, 0.042673, 0.090228, -0.005837, 0.166083, 0.004899, 0.019184, 0.042532, 0.012009, 0.128037, -0.052283, 0.078480, 0.023201, -0.087678, -0.039095, 0.037600, 0.065315, 0.008097, 0.023536, 0.048476, 0.110822, 0.003000, -0.088282, 0.163936, -0.001522, -0.083663, 0.070286, 0.123152, -0.008853, 0.088611, -0.078694, -0.009625, -0.101325, 0.013529, 0.130975, 0.086773, -0.056828, -0.000073, -0.031081, 0.064146, 0.009666, 0.046311, 0.070867, -0.014059, 0.000050, 0.068349, -0.054269, -0.027536, -0.041421, 0.135245, 0.142419, 0.156971, -0.077224, -0.006382, 0.153649, 0.015917, -0.126949, 0.034201, 0.005978, -0.091253, -0.084724, 0.203969, 0.074934, -0.013426, 0.005524, 0.105141, -0.033468, -0.009543, -0.022231, -0.100552, 0.076793, 0.057199, 0.036337, -0.153323, -0.224919, -0.042761, -0.118471, 0.112094, 0.004417, -0.012013, -0.059094, -0.018099, 0.005815, 0.047366, -0.092311, 0.080496, 0.009709, -0.156703, -0.062581, -0.016264, -0.050535, 0.041904, 0.117010, -0.022269, 0.104070, 0.021645, -0.121710, 0.019343, 0.114090, -0.038685, 0.067916, -0.081023, 0.048393, -0.036912, 0.167383, 0.130465, -0.017033, -0.013195, -0.020955, -0.004696, 0.062731, 0.058429, -0.008789, 0.032462, 0.026507, -0.068101, -0.043308, 0.015107, 0.159606, 0.063145, 0.068411, 0.169378, 0.119390, 0.100917, -0.211474, -0.160453, 0.084894, 0.112555, 0.147559, 0.049786, -0.064460, 0.027953, -0.037334, 0.021946, -0.215506, 0.032415, 0.119996, 0.080259, -0.026460, -0.134697, 0.011732, 0.017965, -0.002656, 0.008976, -0.158573, -0.104864, -0.101670, -0.042599, -0.169338, -0.101897, -0.015463, 0.195085, 0.091067, 0.082300, -0.062387, -0.001967, 0.038999, -0.011838, -0.052203, -0.057860, 0.103851, -0.052826, 0.001273, 0.037202, 0.024813, -0.016554, -0.092375, 0.188797, -0.066027, -0.069557, -0.160148, -0.054911, -0.000109, 0.048830, -0.000677, 0.046010, -0.126868, -0.000204, 0.001243, 0.071125, -0.061943, -0.231764, 0.091537, 0.067421, -0.123701, 0.035909, 0.001407, 0.034548, 0.099224, 0.313773, 0.009543, 0.042350, 0.065348, -0.038361, 0.146254, 0.222643, -0.039912, -0.130779, 0.168096, -0.190355, -0.036850, 0.019291, 0.029007, -0.064967, -0.100866, -0.143010, 0.285633, 0.016006, 0.233103, -0.015121, -0.077422, -0.029422, -0.123047, 0.057181, -0.107404, -0.209345, -0.227136, -0.075497, 0.105794, -0.081997, -0.142912, 0.075737, -0.014426, -0.003119, -0.203939, -0.040515, -0.131683, -0.202318, 0.077893, 0.238180, -0.122132, 0.024956, -0.022667, 0.104975, 0.042205, 0.001747, -0.126801, 0.308281, -0.093935, 0.027630, 0.024842, 0.026022, -0.005345, 0.003871, -0.187996, -0.055697, -0.127047, -0.057902, -0.037705, 0.149116, -0.086155, 0.040631, 0.108115, 0.171404, 0.110265, -0.047670, -0.015749, 0.181992, -0.079488, 0.016512, 0.059416, 0.031453, -0.109532, 0.098311, -0.119220, 0.024161, -0.064198, -0.074019, -0.014942, -0.015926, 0.027969, 0.076058, 0.086170, -0.084385, 0.070110, 0.002710, -0.056453, -0.098793, -0.038725, -0.069998, -0.062246, 0.071040, -0.047678, 0.115328, -0.125985, 0.107749, 0.009662, 0.167830, -0.065064, -0.132878, -0.004815, -0.011524, -0.021448, -0.083075, 0.003147, 0.054916, -0.013982, -0.071922, -0.058482, -0.002280, 0.012573, 0.062135, -0.110936, 0.090486, 0.103010, -0.105198, -0.078656, -0.035945, -0.040518, -0.100208, 0.091611, 0.083568, -0.020985, -0.067089, -0.012802, -0.050569, -0.021367, 0.066049, 0.020807, -0.181769, 0.094011, 0.090246, 0.277492, 0.065337, -0.039602, -0.083855, 0.134114, 0.075526, 0.034212, -0.195646, -0.284295, -0.011489, -0.096459, 0.047680, -0.049181, -0.231485, -0.025212, -0.077663, -0.167469, 0.039183, -0.025190, 0.075605, 0.142096, -0.179982, 0.063693, 0.112616, 0.075685, -0.091452, 0.098554, 0.099354, -0.040562, 0.027583, 0.023487, 0.082867, -0.032151, -0.290269, -0.026222, 0.158471, 0.015362, 0.005663, 0.017245, 0.107457, 0.042753, 0.196443, -0.007218, -0.119778, 0.072207, 0.106375, -0.135936, 0.080092, -0.108416, -0.113215, 0.004502, -0.100474, 0.284851, 0.053883, -0.005087, 0.209906, -0.008466, 0.042640, 0.231057, 0.168788, 0.026180, 0.063220, 0.162481, 0.107975, 0.059169, -0.010562, 0.038882, 0.046179, -0.077702, -0.091467, -0.013919, -0.003626, -0.181933, -0.091709, 0.002672, -0.086224, 0.059872, 0.058944, 0.080569, -0.070654, -0.080669, -0.031530, 0.027072, -0.061845, -0.079259, -0.015458, -0.107931, -0.043793, 0.002195, 0.033634, -0.185525, 0.038282, -0.021920, 0.142505, -0.138103, -0.234038, -0.052620, 0.039734, 0.096380, 0.081840, -0.196226, -0.005854, 0.070917, -0.002850, -0.055737, -0.032922, -0.091237, 0.181304, -0.045139, 0.013366, 0.011460, 0.169852, 0.150881, -0.122343, -0.154686, -0.083136, 0.010026, -0.116491, -0.178679, -0.055984, 0.036746, 0.064469, 0.284469, -0.363955, -0.048006, -0.000671, 0.049699, -0.157346, -0.025452, -0.034776, -0.335410, 0.014988, -0.158944, 0.063636, -0.030231, -0.331271, -0.012201, 0.219033, 0.054055, 0.069400, 0.002062, -0.140660, -0.185795, 0.042624, 0.106002, 0.134539, 0.158498, 0.055520, 0.061535, -0.361307, -0.020309, 0.003403, 0.061316, 0.151845, 0.055127, -0.080310, -0.001790, 0.145347, 0.163397, -0.073899, -0.112368, 0.111810, -0.049382, -0.208878, -0.097226, 0.342294, 0.097198, 0.070957, -0.162413, -0.063730, -0.080608, -0.101056, 0.283577, 0.097905, 0.045671, -0.167886, -0.109906, -0.186794, 0.264227, 0.217001, -0.285094, -0.008573, 0.123926, -0.356310, 0.103128, 0.054764, 0.118559, -0.091480, -0.032795, 0.117725, 0.019950, -0.064818, -0.141080, 0.122984, 0.173164, 0.063886, 0.029826, 0.018386, -0.025451, -0.106253, 0.058578, -0.186660, 0.027223, 0.024820, -0.138971, 0.050786, -0.041156, 0.074623, 0.200765, 0.029674, -0.019948, 0.247263, -0.157369, -0.103003, -0.144165, 0.010637, 0.019122, -0.016004, 0.154839, 0.057858, -0.032428, -0.025115, 0.066746, 0.093571, 0.094501, -0.040017, -0.096214, -0.163303, -0.004549, 0.177843, -0.159058, -0.029028, 0.047501, -0.141226, 0.010944, 0.012769, -0.043913, 0.119322, -0.127223, -0.006491, -0.043363, 0.081739, -0.100109, 0.035568, 0.000481, 0.167025, 0.219062, 0.029312, -0.037548, 0.090238, 0.081379, 0.054409, 0.044757, -0.029620, -0.029944, 0.026854, 0.164001, -0.045753, 0.063431, -0.000849, -0.050725, 0.103848, 0.093357, -0.066458, 0.005809, -0.073625, 0.061732, 0.055470, 0.109241, -0.029438, 0.037137, -0.183471, 0.046008, -0.003528, -0.040987, 0.127264, 0.064922, -0.011954, -0.045348, -0.165022, 0.008974, 0.052559, -0.048955, 0.024351, -0.136963, 0.081867, -0.093056, -0.074611, 0.089817, 0.015699, 0.077513, 0.092845, 0.128588, -0.083286, 0.065141, -0.028528, -0.000042, -0.115755, -0.114816, 0.063955, -0.047853, -0.049378, -0.005078, -0.128976, -0.265942, 0.086040, -0.031046, -0.017282, 0.036106, -0.067759, -0.055949, -0.035048, -0.013968, 0.028352, 0.103754, -0.251364, 0.033149, -0.023983, 0.078561, -0.018681, 0.166987, 0.109749, -0.094887, -0.049809, -0.056456, -0.102320, -0.055286, -0.242915, 0.141159, 0.001357, 0.067079, 0.179171, 0.044385, -0.286253, -0.192430, 0.088694, 0.177937, 0.201679, 0.099135, 0.232183, -0.001092, -0.316843, -0.048260, 0.041608, 0.090489, 0.029265, 0.063756, -0.061596, 0.030951, -0.060778, -0.018593, 0.127587, 0.070967, 0.246524, -0.073339, -0.193622, -0.026877, 0.336450, -0.055371, -0.046221, -0.180612, 0.049984, -0.016793, -0.090768, 0.149845, 0.011739, -0.127018, -0.063007, -0.064132, 0.185897, 0.117733, 0.145900, 0.025483, -0.042238, 0.126083, -0.071270, -0.167729, 0.073662, -0.204409, 0.125060, -0.005819, -0.019325, -0.092652, 0.206184, -0.116688, 0.078280, -0.022772, -0.017147, 0.063946, 0.000555, -0.095982, -0.003722, -0.143844, -0.039691, -0.019093, -0.051677, 0.083012, -0.041179, -0.026071, -0.202331, -0.031013, 0.038768, -0.124922, -0.107382, 0.112483, 0.128628, -0.126068, -0.042164, 0.188028, 0.033939, 0.173234, 0.011672, 0.091571, -0.063677, 0.251051, 0.051764, 0.041987, -0.352916, -0.077517, -0.199742, 0.104688, -0.058034, -0.052352, 0.003953, 0.022951, -0.084601, 0.100477, -0.087861, -0.015317, -0.019281, -0.161506, -0.018772, 0.275805, -0.110228, -0.166762, 0.093212, -0.075117, 0.169304, 0.017237, 0.009729, -0.072376, 0.078637, -0.153111, 0.082270, -0.161607, -0.076052, -0.137614, 0.078592, 0.029609, 0.073763, -0.161721, -0.036381, -0.011211, -0.142338, -0.064437, -0.020006, 0.092062, 0.044753, 0.015690, 0.015842, 0.010742, -0.099727, -0.060270, -0.159899, 0.067425, -0.037932, 0.009492, -0.072984, 0.176438, 0.006511, -0.100185, -0.003454, -0.029567, -0.119078, -0.078990, -0.140582, -0.076106, 0.033906, 0.051629, -0.036729, 0.049355, -0.138935, 0.035131, 0.064749, 0.275630, 0.084432, -0.110522, -0.006231, 0.015562, -0.050852, 0.086995, -0.070411, -0.006266, -0.058008, 0.018948, -0.015160, 0.100047, -0.281292, 0.205845, 0.172671, -0.107204, -0.019788, -0.160196, -0.035847, -0.028086, -0.021225, -0.015001, -0.069779, -0.062652, 0.016096, -0.005037, -0.215971, -0.023005, -0.107411, 0.080509, -0.030972, -0.134794, -0.067881, -0.010307, 0.031910, -0.019533, -0.097402, 0.025301, -0.072686, 0.032242, 0.111915, 0.058121, -0.171490, 0.062950, 0.036138, 0.004337, -0.132213, -0.121081, 0.138048, -0.098684, -0.060450, -0.013699, -0.118439, -0.074088, -0.057435, -0.079914, 0.058294, -0.028553, -0.012283, -0.126521, 0.066816, -0.062490, -0.037935, 0.013323, 0.058143, -0.034205, -0.082174, -0.019134, -0.149602, 0.086074, 0.063677, -0.077327, -0.098940, 0.041219, -0.105936, 0.094810, 0.111507, 0.094849, -0.076351, -0.137072, 0.052508, -0.108235, -0.139077, -0.040854, -0.080165, -0.067465, 0.066997, -0.106232, 0.088640, 0.027496, -0.084118, -0.179720, 0.154374, -0.109258, -0.156152, 0.067070, 0.016863, -0.075869, 0.016076, -0.073621, -0.013744, 0.013205, -0.140167, 0.032048, -0.070884, -0.078303, -0.166518, -0.046097, -0.042529, -0.178149, -0.097767, 0.034238, -0.020862, -0.158840, -0.036383, 0.087814, -0.012886, 0.002321, -0.104283, 0.206132, 0.007023, 0.083348, 0.191966, -0.052561, -0.089274, -0.200973, 0.018686, 0.062874, -0.064123, -0.010857, 0.024850, 0.129002, -0.047206, 0.055822, 0.030203, 0.118828, -0.093368, 0.020425, -0.129735, 0.044941, -0.202248, 0.123314, 0.107528, -0.176607, 0.111010, -0.060545, 0.038936, 0.058858, 0.203368, 0.021314, -0.057324, 0.137625, 0.123233, -0.097560, 0.101085, -0.238096, 0.110795, -0.185842, -0.264980, -0.236626, -0.011842, -0.046474, -0.101874, -0.445096, 0.087983, 0.003538, -0.115024, 0.085595, 0.205337, -0.234653, -0.132811, -0.012585, 0.122337, 0.073407, 0.000805, 